tree
version=v4
num_class=1
num_tree_per_iteration=1
label_index=0
max_feature_idx=263
objective=poisson
feature_names=elo_diff gf_last_5_diff ga_last_5_diff form_diff is_home is_neutral tournament_importance h2h_gd_weighted emb_diff_0 emb_diff_1 emb_diff_2 emb_diff_3 emb_diff_4 emb_diff_5 emb_diff_6 emb_diff_7 emb_diff_8 emb_diff_9 emb_diff_10 emb_diff_11 emb_diff_12 emb_diff_13 emb_diff_14 emb_diff_15 emb_diff_16 emb_diff_17 emb_diff_18 emb_diff_19 emb_diff_20 emb_diff_21 emb_diff_22 emb_diff_23 emb_diff_24 emb_diff_25 emb_diff_26 emb_diff_27 emb_diff_28 emb_diff_29 emb_diff_30 emb_diff_31 emb_diff_32 emb_diff_33 emb_diff_34 emb_diff_35 emb_diff_36 emb_diff_37 emb_diff_38 emb_diff_39 emb_diff_40 emb_diff_41 emb_diff_42 emb_diff_43 emb_diff_44 emb_diff_45 emb_diff_46 emb_diff_47 emb_diff_48 emb_diff_49 emb_diff_50 emb_diff_51 emb_diff_52 emb_diff_53 emb_diff_54 emb_diff_55 emb_diff_56 emb_diff_57 emb_diff_58 emb_diff_59 emb_diff_60 emb_diff_61 emb_diff_62 emb_diff_63 emb_diff_64 emb_diff_65 emb_diff_66 emb_diff_67 emb_diff_68 emb_diff_69 emb_diff_70 emb_diff_71 emb_diff_72 emb_diff_73 emb_diff_74 emb_diff_75 emb_diff_76 emb_diff_77 emb_diff_78 emb_diff_79 emb_diff_80 emb_diff_81 emb_diff_82 emb_diff_83 emb_diff_84 emb_diff_85 emb_diff_86 emb_diff_87 emb_diff_88 emb_diff_89 emb_diff_90 emb_diff_91 emb_diff_92 emb_diff_93 emb_diff_94 emb_diff_95 emb_diff_96 emb_diff_97 emb_diff_98 emb_diff_99 emb_diff_100 emb_diff_101 emb_diff_102 emb_diff_103 emb_diff_104 emb_diff_105 emb_diff_106 emb_diff_107 emb_diff_108 emb_diff_109 emb_diff_110 emb_diff_111 emb_diff_112 emb_diff_113 emb_diff_114 emb_diff_115 emb_diff_116 emb_diff_117 emb_diff_118 emb_diff_119 emb_diff_120 emb_diff_121 emb_diff_122 emb_diff_123 emb_diff_124 emb_diff_125 emb_diff_126 emb_diff_127 emb_diff_128 emb_diff_129 emb_diff_130 emb_diff_131 emb_diff_132 emb_diff_133 emb_diff_134 emb_diff_135 emb_diff_136 emb_diff_137 emb_diff_138 emb_diff_139 emb_diff_140 emb_diff_141 emb_diff_142 emb_diff_143 emb_diff_144 emb_diff_145 emb_diff_146 emb_diff_147 emb_diff_148 emb_diff_149 emb_diff_150 emb_diff_151 emb_diff_152 emb_diff_153 emb_diff_154 emb_diff_155 emb_diff_156 emb_diff_157 emb_diff_158 emb_diff_159 emb_diff_160 emb_diff_161 emb_diff_162 emb_diff_163 emb_diff_164 emb_diff_165 emb_diff_166 emb_diff_167 emb_diff_168 emb_diff_169 emb_diff_170 emb_diff_171 emb_diff_172 emb_diff_173 emb_diff_174 emb_diff_175 emb_diff_176 emb_diff_177 emb_diff_178 emb_diff_179 emb_diff_180 emb_diff_181 emb_diff_182 emb_diff_183 emb_diff_184 emb_diff_185 emb_diff_186 emb_diff_187 emb_diff_188 emb_diff_189 emb_diff_190 emb_diff_191 emb_diff_192 emb_diff_193 emb_diff_194 emb_diff_195 emb_diff_196 emb_diff_197 emb_diff_198 emb_diff_199 emb_diff_200 emb_diff_201 emb_diff_202 emb_diff_203 emb_diff_204 emb_diff_205 emb_diff_206 emb_diff_207 emb_diff_208 emb_diff_209 emb_diff_210 emb_diff_211 emb_diff_212 emb_diff_213 emb_diff_214 emb_diff_215 emb_diff_216 emb_diff_217 emb_diff_218 emb_diff_219 emb_diff_220 emb_diff_221 emb_diff_222 emb_diff_223 emb_diff_224 emb_diff_225 emb_diff_226 emb_diff_227 emb_diff_228 emb_diff_229 emb_diff_230 emb_diff_231 emb_diff_232 emb_diff_233 emb_diff_234 emb_diff_235 emb_diff_236 emb_diff_237 emb_diff_238 emb_diff_239 emb_diff_240 emb_diff_241 emb_diff_242 emb_diff_243 emb_diff_244 emb_diff_245 emb_diff_246 emb_diff_247 emb_diff_248 emb_diff_249 emb_diff_250 emb_diff_251 emb_diff_252 emb_diff_253 emb_diff_254 emb_diff_255
feature_infos=[-735.1622392102397:691.81345070004022] [-11.799999999999999:16] [-19.600000000000001:20] [-18.764805818999999:19.539646797] [0:1] [0:1] [1:3] [-47.394689849742619:37.831507650779486] [-0.44667303562164307:0.41309481859207153] [-0.21388308703899384:0.21651855111122131] [-0.38993403315544128:0.44702285528182983] [-0.97912627458572388:0.89690899848937988] [-0.26095706224441528:0.31802302598953247] [-0.51546066999435425:0.57444983720779419] [-0.18077428638935089:0.17602619528770447] [-0.50697827339172363:0.60783690214157104] [-0.35561886429786682:0.38589948415756226] [-0.34364655613899231:0.33852213621139526] [-0.74006342887878418:0.76157736778259277] [-0.46556025743484497:0.50470376014709473] [-0.63920336961746216:0.64332520961761475] [-0.18384468555450439:0.19281481206417084] [-0.75377500057220459:0.69758093357086182] [-0.52981066703796387:0.48206773400306702] [-0.97551333904266357:0.88745105266571045] [-0.84743106365203857:0.82874274253845215] [-0.82223188877105713:0.9331853985786438] [-0.25225698947906494:0.24767041206359863] [-0.13202357292175293:0.13648895919322968] [-0.51760673522949219:0.50444525480270386] [-0.52116507291793823:0.50971055030822754] [-0.39461284875869751:0.40323987603187561] [-0.34872964024543762:0.32511821389198303] [-0.38189238309860229:0.41135832667350769] [-0.45945751667022705:0.45074373483657837] [-0.41915065050125122:0.45715236663818359] [-0.49999898672103882:0.54165071249008179] [-0.46676927804946899:0.45772793889045715] [-0.78212308883666992:0.68522799015045166] [-0.54260694980621338:0.58366894721984863] [-0.47845000028610229:0.45468145608901978] [-0.47035336494445801:0.48627832531929016] [-0.4247552752494812:0.40669035911560059] [-0.21917243301868439:0.22378513216972351] [-0.62067067623138428:0.69755458831787109] [-0.66280800104141235:0.66153430938720703] [-0.82607823610305786:0.73695820569992065] [-0.27195528149604797:0.25774303078651428] [-1.1666738986968994:1.0515296459197998] [-0.45583072304725647:0.44489336013793945] [-0.61349284648895264:0.60144573450088501] [-0.39061596989631653:0.3628678023815155] [-0.22029539942741394:0.24543657898902893] [-0.39552789926528931:0.4315025806427002] [-0.60893166065216064:0.59658515453338623] [-0.47092145681381226:0.47038793563842773] [-0.52991718053817749:0.44835454225540161] [-0.35683906078338623:0.37133368849754333] [-0.58534252643585205:0.49787250161170959] [-0.1500374972820282:0.14811399579048157] [-0.33203527331352234:0.33692991733551025] [-0.29912495613098145:0.26138439774513245] [-0.32537749409675598:0.33235162496566772] [-0.26107019186019897:0.25009304285049438] [-0.33149808645248413:0.29595702886581421] [-0.45261499285697937:0.42883011698722839] [-0.40336346626281738:0.42081129550933838] [-0.37778294086456299:0.34846475720405579] [-1.2948265075683594:1.2299275398254395] [-0.33693051338195801:0.33942848443984985] [-0.75454968214035034:0.79868972301483154] [-0.51683980226516724:0.4836292564868927] [-0.65707242488861084:0.74069511890411377] [-0.48125278949737549:0.47057271003723145] [-0.34293732047080994:0.32836055755615234] [-0.39579969644546509:0.43794605135917664] [-0.38992923498153687:0.42649424076080322] [-0.52812743186950684:0.49095490574836731] [-0.37270790338516235:0.34880462288856506] [-0.51310652494430542:0.50974357128143311] [-0.32651913166046143:0.25503826141357422] [-0.83960181474685669:0.8005368709564209] [-0.37880748510360718:0.36505654454231262] [-0.65275150537490845:0.60489445924758911] [-0.47923576831817627:0.43848094344139099] [-0.38904309272766113:0.40445312857627869] [-0.27077913284301758:0.27943289279937744] [-0.70401608943939209:0.70035642385482788] [-0.38812607526779175:0.37653589248657227] [-0.53973078727722168:0.56942987442016602] [-0.42046898603439331:0.50425928831100464] [-0.4281456470489502:0.38338112831115723] [-0.90419399738311768:0.9188418984413147] [-0.40768164396286011:0.41017746925354004] [-0.55154883861541748:0.52726233005523682] [-0.39791151881217957:0.37815564870834351] [-0.38295960426330566:0.3782632052898407] [-0.40557220578193665:0.39934241771697998] [-0.49228301644325256:0.51611089706420898] [-0.78191912174224854:0.80870282649993896] [-1.0184533596038818:1.0328730344772339] [-0.27103200554847717:0.27673101425170898] [-0.43156719207763672:0.43103700876235962] [-0.81940531730651855:0.77446472644805908] [-0.74268198013305664:0.71471315622329712] [-0.39479553699493408:0.38906306028366089] [-0.47856193780899048:0.45733198523521423] [-0.39835023880004883:0.42820712924003601] [-0.40477335453033447:0.37820911407470703] [-0.61287426948547363:0.55633038282394409] [-0.62145459651947021:0.70120584964752197] [-0.70046079158782959:0.72132593393325806] [-0.11455848067998886:0.11437223851680756] [-0.41280531883239746:0.39420926570892334] [-0.48741745948791504:0.57195430994033813] [-0.37123388051986694:0.36727645993232727] [-0.34463357925415039:0.36569961905479431] [-0.51300925016403198:0.55693244934082031] [-0.14048320055007935:0.13104958832263947] [-0.29580676555633545:0.28430390357971191] [-0.29069128632545471:0.25313401222229004] [-0.48829823732376099:0.57306385040283203] [-0.977183997631073:0.96458101272583008] [-0.84810554981231689:0.7565731406211853] [-0.47656017541885376:0.47035261988639832] [-0.32352438569068909:0.29560381174087524] [-0.45460265874862671:0.48106753826141357] [-0.89510399103164673:0.97996950149536133] [-0.4131331741809845:0.40353858470916748] [-0.4895516037940979:0.45687389373779297] [-0.44242864847183228:0.44409120082855225] [-0.83498561382293701:0.84391868114471436] [-0.15169417858123779:0.1150345653295517] [-0.46564552187919617:0.43668317794799805] [-0.3807486891746521:0.35558238625526428] [-0.38148927688598633:0.3607318103313446] [-0.44803816080093384:0.44139423966407776] [-0.63555097579956055:0.55616426467895508] [-0.23137339949607849:0.24111367762088776] [-0.63799095153808594:0.74585908651351929] [-0.37817105650901794:0.34641030430793762] [-0.7758602499961853:0.8234868049621582] [-0.36837506294250488:0.3507722020149231] [-0.47198259830474854:0.46294987201690674] [-0.65032458305358887:0.70231515169143677] [-0.24066571891307831:0.2449633926153183] [-0.94002759456634521:0.83030325174331665] [-0.48943763971328735:0.49239975214004517] [-0.45488247275352478:0.45199376344680786] [-0.74281430244445801:0.71360641717910767] [-0.57295626401901245:0.50593644380569458] [-0.38219872117042542:0.39792746305465698] [-0.42697378993034363:0.42288488149642944] [-0.29564809799194336:0.30068111419677734] [-0.97141879796981812:0.96956682205200195] [-0.36229676008224487:0.37086114287376404] [-0.55582904815673828:0.48964452743530273] [-1.1097147464752197:1.0419701337814331] [-0.29418095946311951:0.28814536333084106] [-0.74164187908172607:0.66586172580718994] [-0.10241948068141937:0.10457978397607803] [-0.63582116365432739:0.66510492563247681] [-0.44970506429672241:0.37083941698074341] [-0.68971884250640869:0.71202504634857178] [-0.8134385347366333:0.8352736234664917] [-0.51579117774963379:0.49892634153366089] [-0.28760716319084167:0.2740282416343689] [-0.28850063681602478:0.29168444871902466] [-0.39209994673728943:0.36569789052009583] [-0.38493862748146057:0.39835858345031738] [-0.86258459091186523:0.96353983879089355] [-0.46132630109786987:0.43545514345169067] [-0.28856039047241211:0.29485887289047241] [-0.75335395336151123:0.73402851819992065] [-0.46996968984603882:0.44908899068832397] [-0.29610252380371094:0.25281164050102234] [-1.2670427560806274:1.2140957117080688] [-0.22477740049362183:0.2217925488948822] [-0.68041259050369263:0.72960662841796875] [-0.285666823387146:0.2991068959236145] [-0.6458737850189209:0.70465517044067383] [-0.39408653974533081:0.42661720514297485] [-0.39422327280044556:0.38689559698104858] [-0.91803216934204102:0.90351021289825439] [-0.66940152645111084:0.6732933521270752] [-0.89851021766662598:0.98551350831985474] [-0.30192357301712036:0.32063782215118408] [-0.69763118028640747:0.76982617378234863] [-0.56477034091949463:0.59800100326538086] [-0.52363055944442749:0.540507972240448] [-0.19410514831542969:0.19380828738212585] [-0.33299237489700317:0.33258077502250671] [-0.47530204057693481:0.46256133913993835] [-0.42335993051528931:0.40290337800979614] [-0.50066006183624268:0.5043368935585022] [-0.35592886805534363:0.36485022306442261] [-0.64906126260757446:0.68491685390472412] [-0.6120678186416626:0.66154360771179199] [-0.47118997573852539:0.47312682867050171] [-0.44290366768836975:0.39006403088569641] [-0.55216938257217407:0.47958087921142578] [-0.47910553216934204:0.46616363525390625] [-0.40109196305274963:0.40635401010513306] [-0.37031501531600952:0.35740521550178528] [-0.38647234439849854:0.39228206872940063] [-0.7255128026008606:0.69981122016906738] [-0.3813488781452179:0.38535121083259583] [-0.37530374526977539:0.34964179992675781] [-0.46922290325164795:0.46309471130371094] [-0.44396078586578369:0.44245767593383789] [-0.19667074084281921:0.22493806481361389] [-0.67451995611190796:0.59436964988708496] [-0.37244525551795959:0.36204734444618225] [-0.46779313683509827:0.46035677194595337] [-0.38733547925949097:0.38786220550537109] [-0.58770644664764404:0.62141227722167969] [-0.38228482007980347:0.39112967252731323] [-0.88904154300689697:0.81160533428192139] [-0.48440733551979065:0.48428255319595337] [-0.39851337671279907:0.39466497302055359] [-0.63503623008728027:0.70920979976654053] [-0.44069355726242065:0.41731163859367371] [-0.36947008967399597:0.31395089626312256] [-0.39262548089027405:0.41103708744049072] [-1.2228245735168457:1.300322413444519] [-0.23806662857532501:0.22591578960418701] [-0.41240069270133972:0.40275385975837708] [-0.4959254264831543:0.56196153163909912] [-0.53135287761688232:0.54473024606704712] [-0.41124027967453003:0.41606354713439941] [-0.80971264839172363:0.76960474252700806] [-0.53357750177383423:0.49718734622001648] [-0.40170884132385254:0.46703541278839111] [-0.80399507284164429:0.76561462879180908] [-0.69044774770736694:0.72412276268005371] [-0.51808655261993408:0.54424715042114258] [-0.96549743413925171:0.86671924591064453] [-0.90673953294754028:0.79560661315917969] [-0.21589992940425873:0.21219725906848907] [-0.33735308051109314:0.30224400758743286] [-0.72044879198074341:0.66950404644012451] [-0.66850042343139648:0.67147660255432129] [-0.40759611129760742:0.3882414698600769] [-0.42210829257965088:0.45597195625305176] [-0.41932374238967896:0.40810957551002502] [-0.80038648843765259:0.76755893230438232] [-0.81716698408126831:0.71940970420837402] [-0.34729883074760437:0.42622321844100952] [-0.46937164664268494:0.44416502118110657] [-0.68800336122512817:0.7349514365196228] [-0.49117946624755859:0.48158919811248779] [-0.38386127352714539:0.37855300307273865] [-1.0889656543731689:1.1030088663101196] [-0.35393965244293213:0.35302090644836426] [-0.20736041665077209:0.23033669590950012] [-0.70843219757080078:0.66281580924987793] [-0.42410314083099365:0.41734284162521362] [-0.79951947927474976:0.77139604091644287] [-0.60595798492431641:0.669394850730896] [-0.47366642951965332:0.47952485084533691] [-0.3698427677154541:0.37749052047729492] [-0.15617655217647552:0.18277972936630249] [-0.41141104698181152:0.43517440557479858] [-0.48878532648086548:0.45843008160591125]
tree_sizes=13414 13833 13840 13844 13877 13851 13883 13899 13883 13870 13894 13934 13929 13953 13888 13926 14002 13993 13997 13955 13998 13940 13985 13994 14022 13964 13977 13977 13987 14043 14018 14023 14050 14033 14083 14035 13988 14032 14088 14011 14043 14115 14061 14070 14093 14088 14107 14073 14110 14090 14088 14108 14108 14058 14086 14042 14087 14083 14079 14050 14084 14107 14037 14051 14128 14127 14110 14101 14088 14130 14107 14147 14116 14128 14102 14097 14141 14063 14111 14132 14138 14114 14111 14114 14109 14032 14074 14106 14138 14106 14112 14179 14148 14188 14130 14086 14127 14150 14107 14097 14101 14120 14076 14112 14140 14059 14102 14086 14137 14101 14147 14076 14127 14085 14079 14106 14109 14095 14091 14130 14116 14112 14106 14146 14164 14127 14161 14121 14120 14102 14067 14151 14036 14064 14091 14113 14091 14091 14122 14107 14129 14094 14229 14130 14100 14090 14032 14185 14091 14076 14133 14088

Tree=0
num_leaves=127
num_cat=0
split_feature=260 0 260 81 189 4 234 0 173 173 0 4 145 7 6 132 219 4 55 4 6 150 157 195 0 0 216 256 260 194 158 6 203 160 238 12 4 189 0 4 48 87 201 147 71 250 132 56 237 206 162 4 108 68 115 216 165 52 93 141 157 123 156 182 11 26 64 104 240 228 81 107 232 45 180 116 1 119 3 195 7 28 19 261 160 136 153 0 3 241 32 232 128 225 76 192 197 98 233 88 93 93 64 173 151 0 104 18 160 242 63 176 190 32 32 80 125 219 100 202 49 0 228 68 195 48
split_gain=2709.12 972.234 751.878 311.111 242.113 224.29 190.958 119.393 74.6966 70.7081 68.9926 53.6579 46.0468 44.5864 43.6452 42.7887 42.7738 42.0949 36.9083 35.6751 35.384 35.2468 33.4472 32.2843 32.2689 30.19 29.5112 29.3978 32.1764 28.93 26.1802 25.694 23.3287 22.2977 20.9705 19.9067 20.6833 19.6822 19.3479 18.5549 17.8547 17.7305 17.6872 17.7262 17.6184 18.2295 28.1174 27.71 17.3778 18.604 16.5768 17.8117 19.6912 17.4583 16.1864 16.1526 16.0465 19.8299 15.8515 15.7866 15.0589 15.9325 17.8328 16.0885 15.3072 15.9879 14.9876 14.7208 14.3209 14.2121 14.1356 13.4939 13.2777 13.0989 13.0232 15.1721 12.9524 13.4419 13.047 13.3285 12.8931 13.7349 12.5933 16.1192 15.5427 12.3277 13.1996 12.2476 12.2143 12.0609 11.9346 11.7094 11.5964 11.5701 11.4873 11.3905 11.2858 11.2851 11.2559 11.1482 10.6939 15.4732 10.6322 10.6217 12.6838 10.546 12.24 10.3222 12.1747 9.97992 9.77408 12.7765 14.9683 9.70455 25.6432 9.66575 9.51362 9.49897 9.41842 9.33883 9.21735 9.09313 9.07553 9.0097 13.8721 8.9894
threshold=-0.042355660349130624 31.184649551484657 -0.1584161892533302 0.3222921490669251 0.056051932275295265 1.0000000180025095e-35 -0.45539633929729456 139.72036478649161 0.28632709383964544 0.16289939731359485 -76.107361073316369 1.0000000180025095e-35 0.013485176954418423 -8.3166869708709523 1.5000000000000002 0.013983183540403845 -0.0024439052212983365 1.0000000180025095e-35 0.058706831187009818 1.0000000180025095e-35 1.5000000000000002 0.23488496989011767 0.58519968390464794 0.080109830945730223 -298.86748997360581 -210.98127915119923 0.044141106307506568 -0.058247445151209824 -0.0040196441113948813 0.15351514518260959 0.052748795598745353 1.5000000000000002 0.066916868090629592 0.018264662474393848 -0.060774972662329667 0.048929136246442802 1.0000000180025095e-35 0.029191400855779651 -104.35711317131914 1.0000000180025095e-35 0.045574761927127845 -0.022275790572166439 -0.084684867411851869 0.016908936202526096 0.061163470149040229 0.17197599261999133 0.0053302370943129071 0.00096198357641696941 -0.04161566495895385 0.062279000878334052 -0.086555507034063325 1.0000000180025095e-35 0.005310031585395337 -0.10926777869462966 -0.077043995261192308 0.11083824932575227 -0.11598883196711539 0.045373927801847465 -0.009834852069616316 0.0079485215246677416 -0.17387805134057996 -0.11135346814990042 0.054711207747459419 -0.20601165294647214 -0.1617382615804672 0.10543128848075868 0.015723629854619506 0.064305901527404799 0.092120431363582625 -0.27999849617481226 0.040328321978449828 -0.12031088769435881 -0.12634713202714917 0.12699288129806521 -0.093453157693147645 0.01208543172106147 -0.79999999999999993 0.058595715090632446 -5.3725822334999993 -0.022665924392640587 -8.3166869708709523 -0.0061997410375624886 0.095891065895557417 0.025917998515069488 -0.0019537998596206303 -0.040857866406440728 0.067265991121530547 -89.632474492529568 -5.3725822334999993 0.1455289423465729 0.061728803440928466 -0.009237017482519148 0.021238725632429126 -0.027411058545112606 -0.24283720552921292 0.010955624282360079 -0.025665212422609326 0.024828113615512851 0.46637180447578436 -0.081599544733762727 -0.016606215387582775 -0.02061442285776138 -0.031184392981231209 0.2121301740407944 0.099660836160182967 -312.4263330629413 0.03359560668468476 0.027885746210813526 0.012192149180918934 -0.029299113899469372 -0.0059988275170326224 -0.018136672675609585 0.0030307929264381532 0.040345262736082084 0.048431064933538444 0.032289298251271255 0.0035873297601938252 0.061463395133614547 0.27879673242568975 -0.0097063556313514692 0.034697992727160461 89.196741749575509 -0.24612609297037122 -0.18618395924568173 0.050679402425885207 0.076504301279783263
decision_type=2 2 2 2 2 2 2 2 2 2 2 2 2 2 2 2 2 2 2 2 2 2 2 2 2 2 2 2 2 2 2 2 2 2 2 2 2 2 2 2 2 2 2 2 2 2 2 2 2 2 2 2 2 2 2 2 2 2 2 2 2 2 2 2 2 2 2 2 2 2 2 2 2 2 2 2 2 2 2 2 2 2 2 2 2 2 2 2 2 2 2 2 2 2 2 2 2 2 2 2 2 2 2 2 2 2 2 2 2 2 2 2 2 2 2 2 2 2 2 2 2 2 2 2 2 2
left_child=2 4 5 9 10 6 -1 14 29 50 39 12 -11 35 22 -7 -14 32 88 26 -9 -8 58 44 72 105 66 28 -19 103 -31 37 48 34 67 36 89 40 60 85 -29 -39 43 -20 70 46 71 -48 123 -50 53 54 -53 -4 -52 -26 93 95 -3 76 61 62 63 -36 -64 94 73 -32 -22 -57 98 -46 -10 102 75 116 77 -56 -78 -80 81 107 83 84 -62 -2 -87 -71 -18 -6 -76 -28 125 113 -66 -58 -60 -43 -13 -82 101 117 -15 -5 -105 106 109 108 -41 -21 -104 112 -112 -54 -115 -68 -27 -37 -101 -16 -120 -98 -96 124 -12 -42
right_child=1 7 3 8 13 15 21 20 24 11 17 23 16 19 119 -17 18 27 42 25 68 -23 -24 -25 55 74 91 31 -30 30 33 -33 -34 -35 38 100 -38 41 -40 80 92 97 -44 -45 45 -47 47 -49 49 -51 51 52 56 -55 59 69 57 -59 96 -61 82 -63 64 -65 65 -67 115 -69 -70 87 -72 -73 -74 -75 90 -77 78 -79 79 -81 99 -83 -84 -85 -86 86 -88 -89 -90 -91 -92 -93 -94 -95 122 -97 121 -99 -100 118 -102 -103 110 104 -106 -107 -108 -109 -110 -111 111 -113 -114 114 -116 -117 -118 -119 120 -121 -122 -123 -124 -125 -126 -127
leaf_value=0.41246341196555647 0.18537614816014569 0.19171134877741947 0.20735956767756045 0.20578709420971131 0.23525442079882244 0.28261837522640071 0.2700134523077431 0.18167891824276744 0.2963487390572761 0.19373193299756378 0.23056471017004604 0.22612130754003373 0.28127910322892513 0.21115723505234169 0.18768139146265608 0.22904745089717254 0.20121157821649716 0.23739237684756498 0.23009786102848259 0.22108183905923337 0.17898585209890494 0.32490789399417397 0.22478015900695247 0.24456487578453442 0.2264870756148642 0.19915334203578391 0.23871997903877681 0.18836583978732888 0.19217805003509789 0.26509753170965961 0.26745307768298737 0.18581076314597489 0.18381415833457718 0.26100093237870292 0.23928895054098698 0.20304979638466081 0.20287017614121694 0.19266546420674988 0.21308667101958539 0.23880126044015165 0.19483530414452058 0.21653006124595958 0.27001345207152899 0.26386855239750451 0.23928895084620747 0.21037177374573882 0.21675765053199686 0.26686222083084998 0.19390445712330001 0.22495085107406843 0.239776641413462 0.23370267830428681 0.20291396735859504 0.24148355832750262 0.23877687615708842 0.232119900251194 0.19301931614256429 0.2225791347405312 0.19060576340442603 0.19905448582135749 0.22747183539371787 0.20856445028404683 0.21266104998626262 0.20577131398533918 0.21573350041845482 0.26806269030804059 0.22677156175963437 0.23382681783962656 0.17390648895059169 0.28070023517229314 0.19720413077981946 0.21200697116684111 0.2621353747634047 0.21368520040086303 0.19515353627060547 0.22726632007985648 0.19473842496794938 0.20763340449042914 0.2097518704994506 0.23835790656481859 0.17828523257659196 0.19697278448993366 0.25478250275597425 0.21653006165857247 0.26318578592475461 0.20064016102220347 0.22699915053810127 0.24645800126086337 0.22986677053858962 0.20990029804771437 0.20698883477978866 0.21084033896947593 0.18959249103477605 0.22572588312634462 0.25977195164644012 0.20211311155969811 0.1870304581268647 0.19810030863753839 0.20364853020797477 0.19393130640768616 0.23386697993923711 0.19354358341808042 0.19613847504389431 0.2439441780800885 0.21092787352373993 0.202433807426221 0.23208196957490679 0.1962746500619573 0.2079792213056523 0.19983399093180165 0.20475365933327816 0.18603315017794109 0.23826480065774769 0.24748215128283926 0.20604346574071131 0.2022619883937066 0.22187840048926599 0.22549706387582977 0.19422634983487325 0.18120466342812619 0.22495085082989205 0.1841704902049815 0.23208196930359967 0.20021952421565498 0.19588449770170177 0.20659493091176626
leaf_weight=53.703069686889648 129.37557697296143 1542.7427291870117 82.99565315246582 144.02186870574951 80.554604530334473 63.467264175415039 56.144118309020996 7840.6481742858887 51.262021064758301 70.790410041809082 65.908312797546387 102.5240421295166 48.820972442626953 192.84284114837646 624.908447265625 90.318799018859863 95.200896263122559 65.908312797546387 190.40179252624512 87.877750396728516 2792.5596237182617 61.026215553283691 58.585166931152344 80.554604530334473 78.113555908203125 812.86919116973877 87.877750396728516 7208.4165811538696 97.641944885253906 61.026215553283691 58.585166931152344 4271.8350887298584 468.68133544921875 61.026215553283691 53.703069686889648 63.467264175415039 1220.5243110656738 1723.3803272247314 187.96074390411377 51.262021064758301 451.59399509429932 131.81662559509277 48.820972442626953 48.820972442626953 53.703069686889648 663.96522521972656 48.820972442626953 63.467264175415039 4147.3416090011597 48.820972442626953 51.262021064758301 53.703069686889648 495.53287029266357 68.349361419677734 97.641944885253906 48.820972442626953 546.79489135742188 92.759847640991211 1386.5156173706055 205.0480842590332 63.467264175415039 107.4061393737793 48.820972442626953 107.4061393737793 48.820972442626953 51.262021064758301 109.84718799591064 73.23145866394043 2758.3849430084229 56.144118309020996 290.48478603363037 290.48478603363037 63.467264175415039 214.81227874755859 5182.3462247848511 56.144118309020996 97.641944885253906 53.703069686889648 168.43235492706299 53.703069686889648 112.28823661804199 759.16612148284912 95.200896263122559 87.877750396728516 58.585166931152344 1747.7908134460449 48.820972442626953 48.820972442626953 61.026215553283691 112.28823661804199 222.13542461395264 65.908312797546387 595.61586380004883 90.318799018859863 53.703069686889648 930.03952503204346 6612.8007173538208 224.57647323608398 122.05243110656738 5880.4861307144165 82.99565315246582 73.23145866394043 881.2185525894165 53.703069686889648 63.467264175415039 1052.0919561386108 65.908312797546387 73.23145866394043 85.436701774597168 148.90396595001221 104.96509075164795 48.820972442626953 48.820972442626953 48.820972442626953 158.6681604385376 63.467264175415039 48.820972442626953 183.07864665985107 48.820972442626953 5089.5863771438599 48.820972442626953 4794.2194938659668 65.908312797546387 593.17481517791748 51.262021064758301 253.86905670166016
leaf_count=22 53 632 34 59 33 26 23 3212 21 29 27 42 20 79 256 37 39 27 78 36 1144 25 24 33 32 333 36 2953 40 25 24 1750 192 25 22 26 500 706 77 21 185 54 20 20 22 272 20 26 1699 20 21 22 203 28 40 20 224 38 568 84 26 44 20 44 20 21 45 30 1130 23 119 119 26 88 2123 23 40 22 69 22 46 311 39 36 24 716 20 20 25 46 91 27 244 37 22 381 2709 92 50 2409 34 30 361 22 26 431 27 30 35 61 43 20 20 20 65 26 20 75 20 2085 20 1964 27 243 21 104
internal_value=0.192428 0.189482 0.220474 0.217236 0.194675 0.294963 0.334389 0.183174 0.234756 0.211291 0.192283 0.21806 0.231442 0.200891 0.18561 0.251156 0.236855 0.190675 0.231974 0.199518 0.179516 0.298604 0.187078 0.213663 0.255733 0.198027 0.205815 0.189316 0.210399 0.230051 0.233136 0.189084 0.194472 0.231541 0.229994 0.208069 0.205274 0.190405 0.227591 0.195933 0.189339 0.194765 0.242587 0.23699 0.212141 0.21566 0.223352 0.245078 0.19549 0.194266 0.206607 0.205829 0.203764 0.22277 0.212689 0.245003 0.203084 0.200155 0.186924 0.210635 0.230829 0.225789 0.230095 0.216944 0.237985 0.243613 0.203879 0.248772 0.176462 0.254407 0.204487 0.216264 0.277422 0.202262 0.196575 0.202082 0.215675 0.227726 0.209972 0.216668 0.194746 0.200103 0.239699 0.232858 0.244615 0.200283 0.201356 0.264774 0.212405 0.220491 0.19564 0.226772 0.19473 0.20888 0.236172 0.198746 0.186346 0.204917 0.213908 0.193894 0.217875 0.213724 0.20034 0.214882 0.22606 0.2048 0.213024 0.211423 0.219537 0.20772 0.198415 0.208318 0.215392 0.206715 0.215794 0.217796 0.200441 0.219719 0.194187 0.181913 0.209589 0.185828 0.244514 0.202722 0.215392 0.199067
internal_weight=81989.9 74198.1 7791.83 7467.17 40697.2 324.659 170.873 33501 1891.81 5575.36 29385.3 2279.94 563.882 11311.8 20109.4 153.786 493.092 20399.8 444.271 9495.68 13391.6 117.17 14394.9 1716.06 346.629 7677.1 1818.58 15024.7 163.55 1545.18 1283.99 14861.1 5375.19 1222.97 1161.94 1816.14 1413.37 10589.3 1030.12 8985.5 8509.5 2079.77 288.044 239.223 1635.5 1120.44 456.476 112.288 4906.51 4196.16 3295.42 3144.07 2416.64 151.345 727.432 231.9 2362.94 1569.59 14336.3 676.17 842.162 537.031 429.625 161.109 268.515 219.694 1664.8 131.817 5550.94 153.786 515.061 344.188 114.729 1491.48 6322.32 917.834 471.122 151.345 319.777 222.135 7059.51 969.096 305.131 209.93 122.052 1925.99 1796.61 104.965 156.227 192.843 5404.48 153.786 1301.08 793.341 168.432 1476.83 12793.5 356.393 224.576 6090.42 402.773 319.777 1276.67 261.192 117.17 1354.78 302.69 209.93 136.699 236.782 1083.83 202.607 153.786 703.022 207.489 173.314 861.69 246.546 5978.13 5714.49 97.6419 11407 119.611 710.345 117.17 705.463
internal_count=33588 30396 3192 3059 16672 133 70 13724 775 2284 12038 934 231 4634 8238 63 202 8357 182 3890 5486 48 5897 703 142 3145 745 6155 67 633 526 6088 2202 501 476 744 579 4338 422 3681 3486 852 118 98 670 459 187 46 2010 1719 1350 1288 990 62 298 95 968 643 5873 277 345 220 176 66 110 90 682 54 2274 63 211 141 47 611 2590 376 193 62 131 91 2892 397 125 86 50 789 736 43 64 79 2214 63 533 325 69 605 5241 146 92 2495 165 131 523 107 48 555 124 86 56 97 444 83 63 288 85 71 353 101 2449 2341 40 4673 49 291 48 289
is_linear=0
shrinkage=1


Tree=1
num_leaves=127
num_cat=0
split_feature=189 151 0 28 4 260 0 6 147 123 97 0 0 4 56 54 164 6 160 4 192 137 157 216 8 25 0 159 4 100 18 127 4 4 210 87 152 7 173 209 227 230 48 129 16 252 160 204 102 48 1 142 47 6 135 113 141 9 73 191 101 203 214 71 12 201 212 28 64 187 230 240 3 120 225 151 68 232 71 131 180 86 98 142 1 255 38 179 0 195 214 32 258 22 40 32 230 48 218 246 1 226 259 224 108 230 159 161 147 173 15 45 128 49 217 14 0 75 167 132 126 76 205 166 0 45
split_gain=2528.15 917.165 634.42 309.013 143.79 137.63 104.647 93.9758 90.1061 65.5915 52.2464 47.8298 46.9891 45.4613 43.4143 42.3383 40.3651 35.3736 34.6802 34.0001 33.9885 36.6192 31.4961 30.7376 30.4634 29.0585 28.46 28.2494 27.5436 27.1958 24.0983 23.7857 22.8738 21.8473 21.3036 21.078 21 20.8202 20.7522 20.537 19.7383 19.3809 19.2497 18.7219 19.4808 18.3591 18.1768 17.7558 17.3813 20.4803 17.2432 16.6868 16.5588 16.4882 16.3675 19.861 16.3014 16.236 16.4233 15.9146 15.7973 15.3119 15.1453 15.6094 26.5915 14.6595 14.2337 13.4248 13.1168 12.1998 19.8715 12.6392 14.7619 12.2826 15.9798 12.0719 11.9112 11.871 11.8681 11.7458 11.6424 12.7841 14.388 11.596 11.5728 11.4878 11.36 10.9806 10.9868 10.9428 10.3193 14.0941 10.303 12.3579 13.5389 10.3197 12.0286 14.0077 10.2997 13.2136 10.2173 12.392 10.7665 10.2022 10.176 10.161 13.3673 9.89667 16.4113 9.88822 9.77838 9.68378 9.58787 9.44195 14.5178 9.31766 9.30608 9.28546 9.1857 9.2543 14.7343 11.7812 18.1207 11.8473 9.12064 9.45734
threshold=0.073744669556617751 0.11517041176557542 46.427079426126859 0.051521617919206626 1.0000000180025095e-35 -0.057541310787200921 -76.107361073316369 1.5000000000000002 0.003798499703407288 -0.26335585117340082 -0.055637357756495469 -151.98292252787266 128.39986763315406 1.0000000180025095e-35 -0.079001516103744493 -0.07554928213357924 0.16712930798530581 1.5000000000000002 0.0068120919167995462 1.0000000180025095e-35 0.021133705973625187 -0.025885894894599911 0.58519968390464794 0.01838730834424496 -0.069625198841094957 -0.18986491858959195 -312.4263330629413 -0.022291205823421475 1.0000000180025095e-35 -0.39520679414272303 -0.36254441738128657 0.025888353586196903 1.0000000180025095e-35 1.0000000180025095e-35 0.01183570083230734 -0.093255046755075441 -0.043676037341356271 -13.558866113711334 0.08431281149387361 -0.092658020555973039 0.04397591948509217 0.3798153698444367 0.063740510493516936 0.097293354570865645 -0.0078489035367965681 -0.056773275136947625 -0.028376565314829346 -0.018201567232608792 -0.034100294113159173 -0.048310888931155198 -0.19999999999999982 0.16097984462976458 0.047994039952754981 1.5000000000000002 -0.078575417399406419 0.13559834659099582 -0.028002373874187466 -0.034659521654248231 -0.022413417696952816 0.045106403529644019 -0.0041081905364990226 0.066916868090629592 -0.07687587663531302 0.11901752650737764 0.0058724237605929383 -0.14990094304084775 -0.049859832972288125 0.024031279608607296 -0.013161362614482639 -0.15523619949817655 0.10217230021953584 -0.14545919001102445 -4.6274249104999994 0.0012007774785161021 -0.023047008551657196 -0.0017631035298109052 -0.10926777869462966 -0.088852956891059862 0.072799857705831542 0.24400129914283755 -0.054737614467740052 -0.00063273031264543522 -0.011655077338218687 0.098820913583040251 -0.46666666666666662 -0.047680713236331933 -0.13259994238615033 -0.031690048053860657 -125.58956128620513 -0.01631316356360912 -0.05522161349654197 0.018472167663276199 -0.12665435671806333 -0.033846421167254441 0.13526622951030734 -0.024051388725638386 0.059984629973769195 0.030056703835725788 -0.0067699579522013656 0.025906469672918323 -1.8416666666666666 -0.023452403023838993 -0.035178765654563897 -0.039671048521995537 0.093292549252510085 0.20158235728740695 0.041784599423408515 -0.11429129540920256 -0.086552027612924562 -0.16457110643386838 0.032957991585135467 0.11317826807498933 -0.012514621019363402 -0.028503151610493657 0.31931293010711675 -0.038624273613095277 -4.8807723352124404 0.014413683675229551 -0.029766886495053765 -0.0097632929682731611 -0.067223202437162385 -0.11970501020550726 0.10724018141627313 0.044263150542974479 -17.119346840012778 -0.08416972309350966
decision_type=2 2 2 2 2 2 2 2 2 2 2 2 2 2 2 2 2 2 2 2 2 2 2 2 2 2 2 2 2 2 2 2 2 2 2 2 2 2 2 2 2 2 2 2 2 2 2 2 2 2 2 2 2 2 2 2 2 2 2 2 2 2 2 2 2 2 2 2 2 2 2 2 2 2 2 2 2 2 2 2 2 2 2 2 2 2 2 2 2 2 2 2 2 2 2 2 2 2 2 2 2 2 2 2 2 2 2 2 2 2 2 2 2 2 2 2 2 2 2 2 2 2 2 2 2 2
left_child=2 5 6 9 8 16 33 12 -5 15 84 14 22 27 18 -3 24 23 -7 36 31 30 56 42 -2 -9 -21 57 34 -25 -22 -11 39 38 118 65 45 113 105 115 -32 62 52 48 59 -16 -18 -44 -35 86 69 -17 98 100 -48 68 117 -12 116 -45 -36 66 63 -34 -65 -30 -29 -66 -56 71 111 72 73 74 78 -27 -46 -42 -39 -78 81 -33 -83 89 -8 -38 -50 -51 -89 -37 91 -80 95 94 -94 -67 97 -97 -15 -100 101 -28 -102 -31 -103 106 -1 108 -91 -14 -87 -71 -58 114 -26 -23 -59 -4 119 -13 -121 -122 -123 -124 125 -68
right_child=1 3 7 4 -6 11 10 25 -10 20 13 28 109 17 19 51 46 -19 -20 26 21 32 -24 29 37 75 53 61 35 103 40 80 41 43 60 83 85 50 -40 -41 77 -43 47 44 76 -47 54 -49 49 87 -52 -53 -54 -55 55 -57 112 58 -60 -61 -62 -63 -64 64 67 92 124 -69 -70 70 -72 -73 -74 -75 -76 -77 79 -79 90 -81 -82 82 -84 -85 -86 110 -88 88 -90 107 -92 -93 93 -95 -96 96 -98 -99 99 -101 102 104 -104 -105 -106 -107 -108 -109 -110 -111 -112 -113 -114 -115 -116 -117 -118 -119 -120 120 121 122 123 -125 -126 -127
leaf_value=0.0072695126464786489 0.052564110220345774 0.10922060550032237 -0.00094243581834255402 0.15896425499095868 0.054483684667024052 0.020763506747391792 0.050558618275097084 -0.017535476604155699 0.078771313440836765 0.05381446589843835 0.029456620185746126 0.0082308548882669766 -0.014257223114660442 -0.0053181842934507621 0.051464175520221291 0.034009062107980416 0.017927761443303377 -0.00652956970344122 0.069056178470149693 0.020728901230923222 0.083221417960063326 0.05040820852192706 0.030600245686198166 0.040368220999102727 0.02533105155085319 -0.012806618647780788 0.043745283280099176 0.027219769445987765 0.026198173071124438 0.023965207044898438 0.070269704859311638 0.016632912578749562 0.029850025429639184 -0.010698330389099668 0.052779616693095846 0.028036217573140024 -0.0046303204282364787 -0.0013564150359200672 0.023245811066881828 0.076637240311260624 0.051088846885065875 0.010866851151073168 -0.0029938178671923975 0.00027155441080089799 0.0080571194423103704 0.022111502844176293 0.02293974605315284 0.0092170968502288449 -0.0020515888468795925 0.021593891917388145 0.011685660191701142 0.074163139134762759 0.02246180554749615 0.0062179679343265333 0.024782300443554468 0.077031733022607227 7.2222150405077337e-05 0.038060171487434888 0.0047538282707951397 0.026862801444025058 0.021144594581750057 -0.0083450878874307167 0.027647501212963461 0.083905747656475849 0.02224888361712201 0.0028135522622052653 -0.0081734937596445838 0.054858487936830048 0.05496192530604857 0.032262767752670153 0.022727622629336218 0.009056992529912114 0.037694482193811218 0.0063751389383800696 0.04360776219149809 -0.00766493094227403 0.044958706538186101 0.019496679559102739 0.045033968198386676 0.017593930480308391 0.011612780224148179 0.027836116002316794 0.059542263540468425 0.03664398991717796 0.017744995150963647 0.015969184764971885 0.014786284425815008 0.0036793290943457849 -0.00012249060872095523 0.0084043249916104894 0.0146530450415232 0.01439118569505202 0.030854503417517942 0.0017496642739171953 0.0058708395421897984 0.015300316925243501 0.0081345252447712346 0.046991616395081953 -0.0024618414398879141 0.014894293753636257 0.010786495670642708 0.036158846502632784 0.02780543215654115 0.0023915401922426868 0.009631431963499474 0.018720059737277816 -0.0063505432219191811 -0.00088552930209117361 0.041107999812324242 -0.0096111315099276298 0.032921233308886876 0.062954859467158772 -0.0066232669810267937 0.017371531483297415 0.057558358358891372 0.025702904772968133 0.008687419724044021 0.016764710413901922 0.0063245007827313279 0.044179081810979952 -0.0037713494719322158 6.0954547225609335e-05 0.049733713045249081 0.01907531883780654 -0.0014449541746227278 0.0046864600077420387
leaf_weight=1796.0184931755066 75.58786416053772 53.338357925415039 916.8232159614563 101.20052051544189 100.86625337600708 89.926534652709961 50.405978202819824 3153.3682196140289 53.571128845214844 76.293429851531982 76.447128057479858 231.39661717414856 1352.6242003440857 4651.2030704021454 108.79047918319702 50.987173557281494 74.841499805450439 5270.5795538425446 63.375106573104858 768.24865341186523 78.204039573669434 133.57705187797546 60.437119245529175 49.848547458648682 64.792254447937012 5610.2453832626343 54.685012102127075 49.952895402908325 77.409334182739258 56.358842611312866 77.28790283203125 114.56224131584167 110.64518213272095 247.68353152275085 50.251980781555176 93.633875131607056 49.507537364959717 61.773494482040405 213.20818686485291 61.596680879592896 71.787875175476074 81.241331338882446 579.33322787284851 358.55402708053589 95.784318447113037 104.38687300682068 60.708813190460205 612.40022230148315 125.12250661849976 71.085212469100952 599.75474548339844 52.529282808303833 61.322358369827271 1529.9269762039185 60.469771146774292 58.90380072593689 568.23915123939514 59.628455400466919 1729.0281059741974 66.741382122039795 183.80010008811951 527.77883863449097 235.34224629402161 51.961183547973633 53.103192567825317 381.65428137779236 159.10400867462158 77.803673505783081 88.98225474357605 49.919399499893188 312.25760698318481 249.36362218856812 125.55229473114014 149.01742482185364 77.443457126617432 1433.2044026851654 73.794951677322388 50.760339260101318 88.744819402694702 83.680635213851929 138.57619524002075 106.33170962333679 53.928143978118896 56.935328483581543 57.546507120132446 295.35435628890991 502.32800245285034 3951.43998670578 3660.9391853809357 173.0177161693573 189.95849108695984 65.017101287841797 76.323857069015503 2633.6650562286377 187.29577445983887 118.36654305458069 323.08177208900452 49.428521156311035 5199.5259490013123 112.02420210838318 1565.318220615387 49.189914226531982 98.794146060943604 1981.9398984909058 136.38725662231445 167.62601637840271 200.23030090332031 152.4407012462616 49.289274930953979 7468.0643146038055 119.47948789596558 52.970853090286255 9054.7081997394562 49.762094736099243 75.860908985137939 53.43130898475647 49.229212045669556 80.540509700775146 495.92719578742981 57.964003086090088 56.985697269439697 62.273455381393433 57.669370412826538 69.468827724456787 2602.1720271110535 1409.4181971549988
leaf_count=729 30 20 376 35 39 36 20 1313 20 30 31 93 560 1912 43 20 30 2173 25 309 30 51 24 20 26 2328 22 20 31 23 30 45 44 102 20 38 20 25 86 24 28 32 238 146 39 42 24 249 51 29 241 20 25 621 24 23 233 24 705 27 74 218 93 20 21 155 65 30 35 20 125 100 50 60 31 593 30 20 35 34 55 42 21 23 23 119 205 1613 1496 70 76 26 31 1074 76 48 131 20 2136 46 635 20 40 810 55 68 82 62 20 3091 48 21 3733 20 30 21 20 33 201 23 23 25 23 28 1066 576
internal_value=-3.04503e-06 0.0182967 -0.004215 0.0495236 0.100935 0.0135108 0.000157555 -0.00965666 0.131207 0.0421537 -0.00164346 0.0109853 -0.00762284 -0.00179193 0.0145281 0.0730319 0.0237518 -0.00306291 0.0407278 0.013705 0.0391758 0.0439198 -0.00539242 -0.00168953 0.0213509 -0.0135463 0.0120293 0.00175132 0.00782254 0.0038804 0.0596909 0.0281633 0.0388133 0.00408783 0.0143179 0.00594231 0.0240993 0.0202844 0.00836268 0.0515972 0.0504824 0.0336041 -0.00272654 0.00298774 0.0109821 0.037091 0.0397232 0.00328105 0.00235392 0.00274291 0.0187958 0.0543852 -0.00344076 0.0100832 0.0457857 0.0524424 -0.00559725 0.00687891 0.00593979 0.0044445 0.0279368 -0.000315879 0.0370969 0.0446736 0.0536426 0.00465952 0.000688149 0.0416302 0.0427509 0.0217946 0.029007 0.0188208 0.022035 0.0189239 0.022796 -0.0117604 0.0219606 0.0380031 0.0188212 0.0304174 0.0234293 0.0293876 0.0385054 0.015337 0.0330666 0.0181348 0.0114286 0.00203362 0.00185096 0.0127469 0.0224475 0.0320769 0.00421725 0.00278279 0.0131042 0.00898042 0.0137751 0.0246358 -0.00360019 -0.00209579 0.0131885 0.022827 0.0117969 0.00298805 0.0166629 0.00689623 0.00590338 0.00892678 0.0156553 -0.0103236 0.0208517 0.0480639 -0.0062279 0.0360902 0.0427128 0.0433495 0.0247768 0.000487476 0.0112282 0.0157674 0.0214972 0.0161614 0.0221583 0.0329818 0.000370376 0.003382
internal_weight=82000 15342.3 66657.7 2038.93 255.638 13303.3 36959.5 29698.3 154.772 1783.29 25345.2 10671.6 19501.4 25237.3 5033.37 156.855 2631.68 18574.5 153.302 4880.07 1626.43 1136.74 10680.7 13304 2287.78 10196.8 4202.55 6662.76 5638.28 2088.15 278.04 489.692 858.702 11614.2 1265.74 4372.54 677.519 2212.19 2377.08 248.605 199.836 610.097 11215.8 9237.15 678.555 213.177 343.906 1191.73 8558.6 8310.91 2021.77 103.516 10024.1 3434.3 269.065 208.356 10620.3 1914.33 1837.89 425.295 234.052 4748.43 528.855 293.513 182.868 3847.23 4220.65 130.907 149.452 1422.02 415.148 1006.87 757.507 631.955 482.937 7043.45 253.26 122.548 405.494 157.476 413.398 274.822 160.26 525.317 107.952 464.341 627.451 7683.46 7612.38 468.382 343.72 153.762 3769.82 2897.28 263.62 872.531 490.877 167.795 9962.75 5311.55 1904.37 240.262 1664.11 2038.3 185.577 2163.87 1996.25 374.748 222.307 8820.69 414.834 102.89 9622.95 190.415 140.653 187.008 108.858 997.364 1031.69 535.758 304.361 246.397 189.412 127.138 4170.69 1568.52
internal_count=33588 6167 27421 791 94 5376 15137 12284 55 697 10400 4324 8050 10357 2035 60 1052 7632 61 1974 637 444 4399 5459 916 4234 1702 2725 2289 853 108 193 336 4737 510 1779 272 886 965 96 78 240 4606 3772 276 85 136 487 3496 3394 810 40 4119 1393 106 82 4375 780 749 173 94 1945 208 115 71 1566 1727 51 59 569 166 403 303 253 193 2921 103 48 162 64 163 108 63 213 43 187 256 3138 3109 190 137 61 1535 1181 107 354 199 68 4094 2182 772 97 675 833 75 879 811 152 90 3651 167 41 3966 76 56 72 44 409 416 215 122 99 76 51 1707 641
is_linear=0
shrinkage=0.05


Tree=2
num_leaves=127
num_cat=0
split_feature=189 151 0 28 260 4 0 6 45 123 97 0 0 4 56 164 6 192 4 157 216 25 160 192 86 159 243 0 4 217 117 7 127 131 256 32 252 4 87 7 48 173 217 4 8 230 204 1 141 129 67 160 47 204 126 7 6 49 18 104 173 11 210 82 248 48 201 179 73 23 151 64 91 179 176 133 187 230 45 117 229 18 158 180 86 27 142 2 218 246 195 61 173 224 258 22 40 32 230 48 194 48 254 156 1 2 162 259 128 161 220 73 86 3 139 190 47 183 132 220 244 74 0 45 186 194
split_gain=2368.12 800.604 611.732 239.489 124.482 100.988 99.2454 92.2022 63.9381 53.0573 48.1832 45.7531 43.9599 43.3626 38.4181 35.1438 34.0227 32.8058 30.7021 29.3561 29.2417 28.858 28.8235 28.796 30.8987 26.6334 26.5299 25.9069 25.4357 25.0527 22.5981 20.8269 20.296 19.8095 19.724 24.8854 24.1362 19.5506 19.5072 18.4119 18.3568 18.3201 17.9253 17.6881 18.5599 16.9879 16.7228 15.7443 15.6799 15.6064 20.3595 15.5286 15.4996 15.235 16.2415 17.2279 15.2102 15.0444 14.9718 16.6711 14.9612 15.7092 14.3028 26.0347 13.9334 20.0915 13.4488 13.4282 13.0714 12.1779 11.8609 11.3554 14.1547 11.3118 11.151 11.1229 10.8863 17.0395 11.3544 11.4291 21.4141 16.4872 11.2072 10.3579 11.1407 13.1954 10.3212 10.2707 9.90437 12.4328 9.89266 9.7365 9.73488 9.68193 9.63491 11.5372 12.2344 9.55692 10.9031 12.2388 9.39342 10.6061 9.33351 11.9169 9.24347 11.4215 12.5198 9.72263 9.23645 9.18334 14.88 9.07952 12.5649 8.92091 8.85645 8.69459 11.98 8.54819 9.26301 8.46872 8.41143 8.38079 8.36433 10.0704 8.29394 8.26905
threshold=0.073744669556617751 0.11517041176557542 46.427079426126859 0.051521617919206626 -0.057541310787200921 1.0000000180025095e-35 -76.107361073316369 1.5000000000000002 0.34800375998020178 -0.26335585117340082 -0.055637357756495469 128.39986763315406 -151.98292252787266 1.0000000180025095e-35 -0.079001516103744493 0.16712930798530581 1.5000000000000002 0.031237319111824039 1.0000000180025095e-35 0.58519968390464794 0.01838730834424496 -0.18986491858959195 0.0068120919167995462 0.021133705973625187 -0.010991813614964483 -0.022291205823421475 0.064912043511867537 -312.4263330629413 1.0000000180025095e-35 -0.071375288069248186 -0.24258089810609815 1.0000000180025095e-35 0.025888353586196903 0.11920421198010446 -0.026471107266843315 0.0085888579487800615 -0.075872480869293199 1.0000000180025095e-35 -0.093255046755075441 -13.558866113711334 0.063740510493516936 0.08431281149387361 0.30831444263458258 1.0000000180025095e-35 0.24067472666502002 0.3798153698444367 -0.018201567232608792 -0.19999999999999982 -0.028002373874187466 0.097293354570865645 -0.01865754276514053 -0.028376565314829346 0.047994039952754981 0.091533694416284575 -0.050162704661488526 -5.0799295658812982 1.5000000000000002 -0.052017191424965852 -0.36254441738128657 0.019526489078998569 -0.33506733179092402 0.37036825716495519 -0.010169846937060354 -0.028568303212523457 -0.041648562997579568 -0.048310888931155198 -0.14990094304084775 -0.031690048053860657 -0.022413417696952816 0.095269758254289641 -0.0017631035298109052 -0.043859200552105897 -0.04694764502346515 0.030937692150473598 -0.10709409788250922 -0.062789298593997941 -0.15523619949817655 0.10217230021953584 0.16219467669725421 -0.014951273798942564 -0.040362343192100518 -0.3024428784847259 0.033756136894226081 -0.054737614467740052 -0.00063273031264543522 0.092053890228271498 0.098820913583040251 -0.45833333333333343 -0.0067699579522013656 0.025906469672918323 -0.01631316356360912 0.038735790178179748 -0.16457110643386838 0.14454413950443271 -0.12665435671806333 -0.033846421167254441 0.13526622951030734 -0.024051388725638386 0.061530590057373054 0.030056703835725788 0.17354904860258105 -0.01464661583304405 -0.008691492956131695 0.032817453145980842 -1.8416666666666666 0.95000000000000018 -0.04740024916827678 -0.035178765654563897 -0.012514621019363402 -0.11429129540920256 -0.020112540572881695 -0.012249551713466643 0.032265437766909606 -1.4654618444999981 0.07711405307054521 0.016029231250286106 0.069845847785472884 0.26648281514644628 -0.0038618706166744228 -0.032732235267758363 0.029036302119493488 0.10541002079844476 -17.119346840012778 -0.08416972309350966 0.02835546433925629 0.16003984212875369
decision_type=2 2 2 2 2 2 2 2 2 2 2 2 2 2 2 2 2 2 2 2 2 2 2 2 2 2 2 2 2 2 2 2 2 2 2 2 2 2 2 2 2 2 2 2 2 2 2 2 2 2 2 2 2 2 2 2 2 2 2 2 2 2 2 2 2 2 2 2 2 2 2 2 2 2 2 2 2 2 2 2 2 2 2 2 2 2 2 2 2 2 2 2 2 2 2 2 2 2 2 2 2 2 2 2 2 2 2 2 2 2 2 2 2 2 2 2 2 2 2 2 2 2 2 2 2 2
left_child=2 4 6 9 15 8 31 11 -5 17 87 19 14 25 22 26 20 -3 33 48 40 -9 -6 32 43 57 39 117 34 -22 58 37 -11 -16 35 36 -14 41 66 115 52 91 71 44 100 53 -42 76 113 64 111 -17 88 125 55 -55 104 -12 -26 -60 -27 122 63 -53 -39 93 -30 -67 -59 75 -23 -35 -73 -52 114 -36 78 -78 -41 80 -80 -82 -81 84 -34 -86 90 -8 -15 -90 -40 -1 -13 -66 97 96 -96 121 99 -99 101 -25 -37 -104 105 106 -29 -106 -50 110 -92 -51 -113 -4 -71 -2 -117 -20 -119 -72 -18 -68 123 -62 -58 -45
right_child=1 3 7 5 12 -7 10 21 -10 23 13 92 28 16 18 51 120 -19 27 -21 29 70 -24 24 30 60 -28 56 38 -31 -32 -33 83 42 69 102 -38 49 86 47 46 -43 -44 45 -46 -47 -48 -49 108 50 73 62 -54 54 -56 -57 124 68 59 -61 61 -63 -64 -65 65 67 94 -69 -70 74 119 72 -74 -75 -76 -77 77 -79 79 82 81 -83 -84 -85 85 -87 -88 -89 89 -91 109 -93 -94 -95 95 -97 -98 98 -100 -101 -102 -103 103 -105 107 -107 -108 -109 -110 -111 -112 112 -114 -115 -116 116 -118 118 -120 -121 -122 -123 -124 -125 -126 -127
leaf_value=0.006889977072271374 0.045522546103853145 0.038038343807369077 0.019361624498737979 0.083007803159400803 0.019826600942740379 0.050278033928046521 0.045966290363721386 -0.017406448415057452 0.14322616009160885 0.049694154252048484 0.025762957557736207 -0.014105416605434452 0.022041107312900744 -0.0052141438537326498 0.046747978143327783 0.017168053787823819 -0.006765317684927683 0.083411289481823137 0.017224566249132205 0.02892977873967147 0.032977943748542793 -0.01265165858747009 0.062791602185272327 0.062258702714069671 0.064774030662380883 -0.016164122548737749 0.047856209429474744 -0.005722963870381223 0.024878705804848768 0.0027457000560570373 0.083533082715503637 -0.0023171553922318754 0.015948979560753598 -0.0049115707005260032 0.035697050394890011 0.0024658048753539836 0.065473844306368281 -0.010067202288045918 0.026574652663461359 0.010389284182873023 -0.0029283486933136659 0.023432028868185906 0.041436529924529307 0.0090672064122059963 0.065117837816532562 0.011155301823733171 0.0089047296719087007 0.011156182130217558 7.0423713738594675e-05 0.041371420193834767 0.001138489268090423 0.068751402780901541 0.021411404215702451 0.0385294871011784 0.026171109021384722 0.066998132077768946 0.0015942454043476328 0.022433141325913702 0.055734505541285173 0.019975317007654966 -0.0073351503305407011 0.028390462950085057 0.030587969749384103 0.025325530216047124 0.014942840609023695 0.024755290845952835 -0.0048180983381989652 0.0023549484351870842 0.0045757847849284636 0.031379498635490811 0.0091673717377291526 0.031358359446065846 0.013022975995953362 0.02491545746135776 -0.0023226548614875865 0.011769259048294994 0.044635096222013039 0.021658957599078446 0.019974346341120396 0.019393873299652642 0.026940907794389519 0.065247183508411494 -0.0074514387163236682 0.011192034852284516 0.050733961948304908 0.022567156232084121 0.034432135582428233 0.015619524490921053 -0.0024067082161091016 0.014307023922024823 0.0080807021371967561 0.029261337477584488 -0.0094641621701465409 -0.0044911839254282012 0.029162642132454803 0.0017032006162398458 0.0056911323217203776 0.014711178127158654 0.0078077189127193766 0.043694705938525404 0.021477993310381947 0.032491523407620133 0.01457831903870979 0.040848433680001156 0.010404390770181156 0.033498573646390875 0.025190662015006016 0.026362061455276409 -0.0065022830737993991 -0.00086431702667107754 0.038750956878751505 0.0088670585631563208 0.03859894117300549 -0.00070852841028479956 0.006775823380210543 0.040894435989235201 0.007680470328475875 0.021706754483050816 0.047812830826458173 -0.0084242279567686758 0.0048828594534164847 0.0099828601938420497 -0.0017760543021644482 0.0041230703673732555 0.0090650119468233502 0.030857515362259072
leaf_weight=1896.3251888751984 88.839219331741333 64.421091794967651 58.835656642913818 91.805166006088257 91.813245058059692 106.51428174972534 57.206980466842651 3098.5544395446777 84.793453454971313 80.511603593826294 97.84112548828125 1333.4762718677521 76.807582855224609 4626.5326411724091 77.538610935211182 76.195339918136597 5076.4095830917358 104.39710021018982 631.33367657661438 62.3150954246521 70.925409555435181 5538.8553445339203 67.906198263168335 53.968419790267944 83.702278852462769 144.25613641738892 84.611128330230713 57.572629928588867 79.464115858078003 2025.3878185749054 57.676860332489014 1183.8072786331177 116.48367977142334 55.227275133132935 61.13043475151062 108.07812690734863 54.815388441085815 199.83656692504883 96.29616379737854 333.63100647926331 577.60138654708862 197.88114142417908 83.753617286682129 59.003192663192749 94.499986171722412 84.758557558059692 618.07089257240295 604.41099500656128 568.28019499778748 52.869543552398682 352.36008071899414 96.173709630966187 62.715355157852173 134.94583940505981 108.82273125648499 87.664468765258789 626.33616375923157 108.9660975933075 64.545141458511353 65.841480016708374 220.07400512695312 48.854064226150513 131.72797298431396 53.833337545394897 489.03621888160706 67.561359167098999 187.39536571502686 6869.7958540916443 1720.7928857803345 49.814295530319214 72.065953731536865 156.6181173324585 320.98495936393738 58.297641277313232 291.02560806274414 236.34832739830017 107.96903395652771 319.4357442855835 399.52136516571045 119.84676361083984 60.845846652984619 52.177901029586792 57.544596910476685 140.19482898712158 80.065399885177612 86.50442099571228 59.060366153717041 54.389760494232178 5186.7410912513733 113.70521259307861 174.71910500526428 49.916248321533203 7396.631697177887 73.753271818161011 78.715500116348267 2638.2771899700165 188.39859104156494 122.65922069549561 323.25291132926941 51.80668830871582 59.385938882827759 67.165858745574951 214.42572951316833 54.051833152770996 1582.293940782547 112.29629158973694 75.969722509384155 101.57970786094666 8994.9346177577972 152.30577230453491 51.116524934768677 120.19115328788757 50.450741052627563 939.02604842185974 137.63606452941895 54.774760723114014 53.830028533935547 102.07147145271301 50.934653759002686 1350.1950497627258 159.86739230155945 195.33423709869385 2843.4217674732208 1490.3806331157684 913.13351035118103 166.10764575004578
leaf_count=765 34 24 24 30 36 39 22 1313 25 30 39 560 30 1912 30 30 2107 36 249 24 28 2328 25 20 30 60 32 23 31 825 21 482 45 22 24 43 21 83 38 132 238 78 32 23 34 33 249 240 233 21 143 36 25 50 42 32 253 43 24 25 91 20 50 20 197 27 76 2800 698 20 30 61 127 23 117 94 41 125 156 47 24 20 23 55 30 33 23 21 2136 46 70 20 3091 30 31 1074 76 49 130 20 22 25 85 21 635 44 30 40 3733 62 20 48 20 385 55 21 21 40 20 563 66 79 1168 606 368 63
internal_value=-5.72171e-06 0.0175043 -0.00412856 0.045887 0.0129924 0.0887297 0.000153 -0.0095096 0.111922 0.0393682 -0.00160579 -0.00749132 0.0105914 -0.00175101 0.0139579 0.0226039 -0.0029964 0.066097 0.0131787 -0.00528748 -0.00165072 -0.0133925 0.0380936 0.0367011 0.0409487 0.00170421 0.0203698 0.0115876 0.00756597 0.00376856 0.0557548 0.00396919 0.0266834 0.0229289 0.0137571 0.0214143 0.040129 0.00467941 0.00575861 0.0193375 -0.00266638 0.00893746 0.0199335 0.0365574 0.0471654 0.0320082 0.00318845 0.0179365 -0.00548938 0.00358394 0.0111233 0.037194 -0.00336715 0.035184 0.0420017 0.0497405 0.0097322 0.00666067 0.0482712 0.0376771 -0.000308446 0.000188494 0.04261 0.0531671 0.002963 0.00331018 0.0045216 0.0025731 0.00563923 0.00874228 -0.0116058 0.0165535 0.0190356 0.00451391 0.00380331 0.0166863 0.0207609 0.0274631 0.0179622 0.0216243 0.0254102 0.0446252 0.0106854 0.0223062 0.027811 0.0361061 0.014721 0.031176 -0.00352369 -0.00204817 0.0122673 0.00746375 -0.0101731 0.012396 0.0040943 0.00270575 0.0126079 0.00867639 0.0132444 0.0233177 0.0377676 0.0457536 0.0148727 0.0198672 0.0126893 0.021746 0.0118632 0.011367 -0.00611171 0.00862383 0.0150227 0.0232667 0.0176574 0.000474843 0.0133142 0.0339216 0.0244319 0.0197943 0.0303973 -0.00753286 -0.00640969 0.00273589 -0.000114057 0.00264881 0.00602552 0.0251461
internal_weight=82008.8 15629.4 66379.4 2143.78 13485.7 283.113 36966.2 29413.2 176.599 1860.67 25304.1 19353.5 10790.3 25192.5 5107.36 2695.37 18518 168.818 4947.64 10623.4 13281.7 10059.7 159.719 1691.85 1188.09 6674.59 2337.44 4253.52 5682.94 2096.31 271.766 11662.1 503.76 694.123 1284.13 508.179 131.623 10478.3 4398.8 2252.83 11185.4 2144.12 616.584 916.323 275.02 641.302 1195.67 2055.38 10561.1 8334.15 634.169 357.93 9989.69 556.544 331.433 222.61 3469.18 1927.6 214.089 130.387 4746.99 4602.73 281.735 150.007 7699.98 7500.15 3865.3 6937.36 1829.76 775.955 6961.12 532.83 477.603 410.658 478.476 297.479 1450.97 427.405 1023.57 689.936 512.545 113.024 177.391 423.248 283.054 166.57 533.498 111.597 9926.98 5300.45 474.438 1946.24 8730.11 562.789 3785.84 2905.39 267.114 880.448 497.719 174.466 180.52 121.134 376.556 268.478 1929.71 245.839 133.542 1683.87 9563.21 378.141 225.836 223.511 170.642 997.862 187.45 197.444 108.605 784.34 153.006 1422.26 5236.28 382.73 4553.88 1710.45 1539.47 225.111
internal_count=33588 6167 27421 791 5376 94 15137 12284 55 697 10400 8050 4324 10357 2035 1052 7632 60 1974 4399 5459 4234 61 637 444 2725 916 1702 2289 853 100 4737 193 272 510 200 51 4255 1779 884 4606 863 242 344 101 243 487 808 4375 3392 255 136 4119 210 124 82 1393 780 79 49 1945 1885 106 56 3137 3054 1566 2827 741 310 2921 210 188 166 192 118 568 166 402 270 200 44 70 163 108 63 213 43 4094 2182 190 785 3651 227 1535 1181 107 354 199 69 67 45 149 106 772 97 53 675 3966 152 90 89 68 409 75 76 42 309 60 593 2173 155 1865 697 621 86
is_linear=0
shrinkage=0.05


Tree=3
num_leaves=127
num_cat=0
split_feature=189 151 0 128 260 0 4 0 204 234 4 167 7 6 6 142 70 164 0 4 6 257 147 216 192 217 243 210 95 122 68 48 9 7 49 131 128 7 216 195 242 184 0 205 19 1 4 241 240 1 180 149 135 260 4 34 134 10 178 132 159 173 4 173 90 226 78 160 237 73 3 173 180 142 240 160 256 217 105 109 116 176 198 238 233 260 7 18 159 159 45 261 3 261 152 18 0 237 204 116 15 34 7 75 230 21 63 47 237 68 119 252 112 0 7 164 27 119 147 202 189 14 32 7 68 173
split_gain=2220.03 702.785 590.157 193.974 112.855 111.414 84.4596 77.8385 48.5555 47.6076 47.445 45.026 41.8563 39.6389 34.8133 34.2155 32.2716 30.751 30.1703 30.8088 29.6378 27.9693 27.0355 26.9401 24.2552 24.0317 23.0574 21.7139 21.3669 21.2244 20.6505 20.0331 19.5641 19.4323 18.9883 17.464 17.3203 16.2657 16.0081 15.766 15.5348 15.2219 15.0132 14.9845 22.3779 18.0436 14.9843 16.9866 14.2216 14.2171 14.0646 14.1281 17.8432 13.86 13.4879 15.5356 12.9726 12.7604 16.8139 12.6799 13.2039 12.5849 13.4844 16.7107 12.4813 12.3322 12.3 11.9216 11.7815 12.4265 11.7192 11.516 11.2036 11.0349 11.0272 10.9659 10.9336 10.3238 10.3222 10.2577 11.3962 10.2269 10.208 10.1977 39.5474 14.8138 10.6878 10.4154 19.121 15.9908 13.2171 11.4056 11.0279 10.0006 9.83386 10.5518 9.8215 9.7174 9.64034 9.29416 15.1444 10.3701 9.2714 9.23814 9.22894 9.3316 10.9028 9.20973 9.1105 10.3796 8.92061 8.75086 10.8737 8.89027 8.64958 8.64731 8.38914 11.4063 10.663 8.37986 8.37525 8.71831 8.36587 8.21968 8.19397 8.19053
threshold=0.073744669556617751 0.11517041176557542 31.184649551484657 -0.16524614393711087 -0.057541310787200921 139.72036478649161 1.0000000180025095e-35 -87.890266631928611 0.053478762507438667 -0.45539633929729456 1.0000000180025095e-35 -0.13159140199422834 -7.9803420576290653 1.5000000000000002 1.5000000000000002 0.0678754858672619 -0.29760053753852839 0.16712930798530581 -257.72617019545072 1.0000000180025095e-35 1.5000000000000002 0.23207421600818637 -0.32336252927780146 0.01838730834424496 0.013625018298625948 -0.07473308220505713 0.064912043511867537 0.014945417176932098 0.13335911929607394 0.46928837895393377 -0.12919624149799344 0.063740510493516936 -0.035483308136463158 -8.3166869708709523 -0.027315383777022358 0.13236998021602633 -0.027935398742556568 -13.558866113711334 0.045224552974104888 -0.038495674729347222 -0.01367937959730625 -0.025200311094522473 -330.5898123051881 0.32571105659008032 0.10171927511692049 -0.39999999999999997 1.0000000180025095e-35 0.1455289423465729 0.092120431363582625 -0.19999999999999982 -0.08296209946274756 0.48211455345153814 -0.078575417399406419 0.034218948334455497 1.0000000180025095e-35 -0.13888885825872418 -0.084916412830352769 -0.086725383996963487 -0.12595636397600171 0.0015650140121579172 0.0023935586214065556 -0.039037555456161492 1.0000000180025095e-35 0.08431281149387361 0.054563496261835105 -0.025783002376556393 -0.076814137399196611 0.019684362225234512 -0.035680308938026421 -0.021933123469352719 -11.845818420499997 0.28632709383964544 -0.063709240406751619 0.11049877479672433 -0.051819793879985802 0.011762226931750776 -0.036778839305043214 0.24740936607122424 0.034757345914840705 0.086199842393398299 0.021733957342803482 -0.38602170348167414 -0.1321069002151489 -0.10376806929707526 0.41421294212341314 -0.094679839909076677 -7.1527629242187478 -0.16734542697668073 -0.071734175086021409 -0.081374228000640855 0.19111730903387072 0.011143095791339876 -6.8199195804999979 0.027636976912617687 -0.041226509958505624 -0.095284745097160325 -33.58573087253864 -0.037083894014358514 0.0014436617493629458 -0.034613715484738343 -0.02546494826674461 -0.039925465360283845 -2.6089423601171875 0.01142861880362034 0.20158235728740695 0.013313692994415762 -0.018687848933041092 0.019314138218760494 -0.00756925344467163 -0.15141525864601132 0.086481556296348586 0.05427223443984986 -0.018900503404438492 75.502582869241351 -15.103228599277342 -0.099460076540708528 0.054927861317992217 0.028622813522815708 0.035779006779193885 -0.0097063556313514692 0.012223154306411745 -0.02088060230016708 -0.019786724820733067 1.0000000180025095e-35 -0.33344396948814387 -0.16457110643386838
decision_type=2 2 2 2 2 2 2 2 2 2 2 2 2 2 2 2 2 2 2 2 2 2 2 2 2 2 2 2 2 2 2 2 2 2 2 2 2 2 2 2 2 2 2 2 2 2 2 2 2 2 2 2 2 2 2 2 2 2 2 2 2 2 2 2 2 2 2 2 2 2 2 2 2 2 2 2 2 2 2 2 2 2 2 2 2 2 2 2 2 2 2 2 2 2 2 2 2 2 2 2 2 2 2 2 2 2 2 2 2 2 2 2 2 2 2 2 2 2 2 2 2 2 2 2 2 2
left_child=2 4 7 6 17 13 9 33 10 -3 21 81 27 22 125 -8 24 26 93 34 23 32 -4 31 30 -25 37 42 35 -11 110 73 59 64 39 74 -30 -2 61 56 -36 103 79 45 71 78 47 -44 -16 83 51 52 -19 57 55 -18 -20 58 -33 60 -9 -35 63 104 72 -29 -54 75 69 -34 -46 -45 108 120 -21 -67 -43 -37 -26 -6 -81 -5 -56 -39 85 -85 -87 90 89 91 124 -89 -93 -14 -79 -96 -70 116 -22 -42 -101 -102 122 -24 105 106 -63 -58 109 -1 -13 112 113 -78 -74 -76 117 -41 -119 -15 121 -12 -27 -64 -88 -7
right_child=1 3 5 11 12 14 15 8 -10 29 20 16 18 119 48 -17 54 50 19 28 98 -23 41 25 43 102 -28 65 36 -31 -32 53 68 38 40 77 -38 49 -40 97 99 76 46 44 70 -47 -48 -49 -50 -51 -52 -53 66 -55 82 -57 107 -59 -60 -61 -62 62 123 -65 -66 67 -68 -69 96 -71 -72 -73 114 -75 115 -77 111 94 -80 80 -82 -83 -84 84 -86 86 87 88 -90 -91 -92 92 -94 -95 95 -97 -98 -99 -100 100 101 -103 -104 -105 -106 -107 -108 -109 -110 -111 -112 -113 -114 -115 -116 -117 -118 118 -120 -121 -122 -123 -124 -125 -126 -127
leaf_value=0.014391781702298424 0.031954675828530232 0.12224347132463675 0.028770039470794775 0.070297291309897952 0.010361205915400093 -0.014017292862015666 0.024550902755875119 0.024032912080259802 0.039221809230384125 0.055755545991535795 0.012567158124213218 0.012772954307482584 0.014975007502137927 -0.0043193594914982389 -0.013012075104955523 0.074504997404369028 0.019137445502543718 0.019542836406779514 -0.0059492070635103096 0.0091948727402019897 -0.0078922245278051761 -0.0098559297882593374 -0.0021507896534973445 0.033109543289139308 0.034802167937348492 0.024547434066531329 0.04445968031512397 0.016021061315940256 0.042381595630537061 0.095439992097170037 0.054205857831652854 0.0051424513108166321 0.028346077762232254 -0.0040656288982134497 0.0051883853896727734 0.0029187659641973424 0.0048412065531673572 0.010843502410148417 0.02520776346044647 0.012406630577776238 -0.00062816079931036345 0.0028184075108823223 0.043195010976280812 0.026276318906451709 0.067606282959772349 0.074558632343452252 0.010572839982500066 0.015609677482914969 -0.018190747880876802 0.010756953041395045 0.013557113959634166 0.018552258098900518 0.06751585019024911 -0.0032614005711455712 0.012376176168680829 0.053652333232628704 0.003403385740082426 0.0056478418611892456 0.044692157862203326 0.036502080798542919 -0.0053398629041214625 0.023400984246834997 0.0032226111282598912 0.022865682207349986 0.024603690719874585 0.030024732903765745 0.041555289653366856 0.016486485133714573 0.0049270214348052545 0.0062382308027691064 0.042660807708502758 0.04318777144308944 0.01792633205353612 0.019257048300297258 0.015255590447438044 0.059057868219499376 0.012741049774923397 0.0059654576074856698 0.061267863185217181 0.024106942947280739 0.051594901517087427 0.04781649508344122 0.035393873616800825 -0.0062512981127770331 0.055698713371218504 0.011898835061736054 0.017899399033578581 0.045497322196946376 0.013087161304831244 0.060613446449243838 0.027107878595173912 0.037575625492791094 0.0089714478349023144 0.034478479905482466 0.01074355649409367 0.033992310351200115 7.2184719350400209e-05 0.044989736480941012 -0.0034654843484797091 0.043700927423676893 0.034069037525340753 0.0091590200199238563 0.00092283236298766266 0.0089411798135914603 0.020558684072923317 -0.0019002945677362021 0.0056848412314848022 0.028456353226990208 -0.00071338328368306071 0.039344831049987462 0.030552901337980387 -0.0084579999460994894 -0.0056166986425946327 -0.0050154002871877741 0.0046828057544554226 0.039556621152664166 0.0079913641571743316 0.048126164671528249 0.01976973326595367 -0.010745984299986312 -0.00081592844901486018 -0.0043009956170266149 0.0061109619397787729 -0.002905373330240631 -0.0016252089579165312 -0.0095667865631674492
leaf_weight=114.73431706428528 204.28310966491699 92.811219453811646 58.769419193267822 95.66203498840332 79.566994190216064 1234.7421555519104 82.016731739044189 81.86290979385376 74.940194368362427 67.010145902633667 77.54752254486084 154.24621391296387 1082.798335313797 565.58036208152771 2682.5327899456024 58.892066478729248 68.233441829681396 54.088039636611938 76.800609827041626 714.19884395599365 2503.3888852596283 417.40866184234619 1426.4627141952515 68.175374746322632 106.48746252059937 69.871012687683105 88.758747816085815 113.83017945289612 71.417029142379761 67.764615774154663 55.671450853347778 55.051903009414673 67.700550317764282 565.89317178726196 677.9344687461853 3733.598185300827 53.925667285919189 260.70307016372681 82.938577890396118 72.510676860809326 53.716557502746582 356.26869058609009 77.178329229354858 297.42346739768982 75.72844123840332 68.418793201446533 1426.46883893013 201.53840589523315 2621.0674602985382 611.19166421890259 63.824722528457642 64.543607711791992 76.885496377944946 382.51352763175964 263.40233087539673 62.435017824172974 58.442971229553223 561.07688689231873 52.501802206039429 66.034748315811157 71.833912372589111 97.449217319488525 5586.0790529251099 165.63599348068237 124.41092920303345 62.894230604171753 112.22490119934082 50.828073740005493 1634.9486653804779 1039.6718170642853 124.46274900436401 152.16775798797607 139.16306781768799 55.572802543640137 106.02507901191711 67.352402925491333 149.0538489818573 925.48324847221375 56.331727981567383 134.86946082115173 52.339464664459229 107.37034034729004 58.947443008422852 53.827203035354614 80.096385478973389 265.46431493759155 124.03851318359375 80.339459419250488 125.27551913261414 55.592804431915283 205.05555820465088 60.892663955688477 75.442195177078247 69.973997354507446 172.88479495048523 68.002258539199829 2871.3187832832336 65.884642839431763 2417.643203496933 62.746066331863403 56.877699851989746 157.40717649459839 1545.5051598548889 216.16534757614136 101.34848666191101 361.987473487854 797.99159383773804 98.525646448135376 49.759741067886353 65.446967601776123 130.00574779510498 2907.5335054397583 8830.1584055423737 133.74473595619202 1080.9136571884155 55.912874698638916 65.507580280303955 83.612693548202515 54.933969736099243 4917.1779518127441 2806.773567199707 6279.1457459926605 515.51010918617249 606.64412117004395 94.811009645462036 6352.1798987388611
leaf_count=46 76 24 22 31 31 526 30 32 28 21 32 58 423 236 1143 20 25 20 30 283 1045 174 586 26 38 28 32 44 27 20 20 22 26 232 268 1507 21 101 33 28 21 147 29 109 26 24 566 78 1130 240 24 24 27 158 100 22 23 225 21 26 29 39 2267 64 49 24 41 20 661 418 43 53 56 22 42 25 62 369 20 52 20 37 22 21 30 102 48 30 48 21 78 23 29 27 69 27 1174 25 1005 24 22 62 628 88 40 145 320 38 20 26 48 1214 3681 56 435 22 25 31 21 2085 1155 2600 209 248 37 2681
internal_value=-8.08456e-06 0.0167609 -0.00404353 0.0426839 0.0125006 -0.00885463 0.0758506 0.000595324 -0.00096141 0.094686 -0.00108879 0.0361725 0.0102157 -0.00647634 -0.0124636 0.0454289 0.0334755 0.0215379 0.008629 0.00746952 -0.00243169 0.00264731 -0.00507171 -0.00113497 0.0377043 0.00388753 0.0194541 0.0162627 0.00580728 0.0757088 0.0263587 -0.00221039 0.00354198 0.00430941 0.0136589 0.00536409 0.0262308 0.0184879 0.00335038 0.0208999 0.00952249 -0.00521357 0.0143703 0.0420818 0.0381918 0.0530126 0.0126447 0.0232482 -0.0155714 0.0171733 0.0349177 0.0393479 0.0448669 0.00432944 0.0220783 0.0356291 0.0108897 0.00867204 0.0244484 0.0181778 0.0103048 0.00313152 0.00365928 0.00787185 0.00940538 0.0289169 0.0521099 0.0370237 0.0029691 0.00758982 0.0520972 0.0320001 0.00810137 -0.00295605 0.0118659 0.0450382 -0.00581379 0.00420153 0.0439587 0.0254002 0.031792 0.0584087 0.0165854 0.0198203 0.0217372 0.0193526 0.0206206 0.0234392 0.029253 0.0366912 0.0179869 0.0305534 0.0217472 0.0161589 0.00830772 0.0173067 0.0018336 0.0277332 -0.00571742 0.0184061 0.0220969 0.0157709 0.0029526 -0.000691117 0.00604409 0.00487422 0.00761286 0.0191286 0.0182253 0.0234554 0.0209048 -0.00606963 -0.00530761 0.00434344 0.00619337 0.0236461 0.0236223 0.0284738 0.0368828 -0.010083 -0.00309077 -0.00409522 0.00831154 0.00262231 0.00944086 -0.0102911
internal_weight=82016.6 15908.8 66107.8 2245.49 13663.3 32451.4 368.495 33656.4 23716 227.586 23641.1 1876.99 10906 19560.9 12890.5 140.909 1673.96 2757.34 8639.12 7486.35 17390.3 6250.78 14078.2 12469.2 1220.94 2199.06 2385.77 2266.87 5901.45 134.775 339.923 10270.2 5833.37 9940.4 1584.9 5776.11 125.343 2297.01 8365.97 576.219 1008.68 14019.4 1971.96 881.02 649.782 231.238 1705.19 278.717 5303.6 2092.73 371.567 307.742 243.198 1051.14 453.018 130.668 233.769 668.631 107.554 219.732 153.697 8283.03 7717.14 1524.41 1574.43 294.905 189.11 181.075 5613.64 1107.37 200.191 449.591 1450.02 9219.04 876.137 130.247 12376.8 4899.97 162.819 266.776 187.209 203.032 322.35 1481.54 1220.84 1140.74 1086.91 821.448 397.543 272.267 423.905 216.674 136.335 1152.77 1166.37 240.887 4506.27 342.45 4921.03 330.748 277.031 214.285 2130.89 1642.63 1358.78 1257.43 895.441 156.969 229.941 180.181 284.252 12020.5 9112.96 282.799 1220.08 161.938 276.565 211.057 138.547 5482.76 9163.47 6356.69 585.381 6192.72 218.85 7586.92
internal_count=33588 6167 27421 791 5376 13657 115 13764 9744 65 9716 676 4324 8177 5480 50 608 1052 3435 2985 7176 2540 5856 5126 439 891 916 889 2367 41 126 4235 2366 4020 618 2319 48 884 3388 221 397 5834 776 313 231 82 673 107 2273 808 136 112 88 426 169 47 91 268 43 87 61 3355 3123 608 632 113 68 69 2279 444 69 162 583 3809 347 49 5160 1972 58 103 72 68 122 568 467 437 416 314 151 103 163 82 52 450 465 96 1835 130 2050 129 108 84 865 674 544 504 359 61 92 72 106 5013 3799 118 491 64 105 80 52 2321 3787 2632 237 2515 85 3207
is_linear=0
shrinkage=0.05


Tree=4
num_leaves=127
num_cat=0
split_feature=189 151 0 128 260 0 6 48 170 0 260 0 167 4 56 88 25 70 164 4 157 6 59 0 4 192 250 7 251 68 4 87 210 120 232 252 131 173 217 141 48 7 129 67 6 248 48 262 36 229 108 162 198 233 161 160 214 179 190 0 148 1 252 118 4 34 1 135 48 201 151 210 82 1 153 259 32 191 64 15 0 138 195 173 49 224 8 14 230 11 171 179 186 238 233 260 7 48 0 83 253 62 199 224 164 49 240 251 214 258 54 84 32 11 30 7 57 0 97 152 117 75 91 3 7 225
split_gain=2082.8 619.941 569.099 156.725 102.495 89.3824 88.6365 69.3648 72.6675 43.3898 42.6177 38.3916 37.5189 33.7333 31.4836 29.3899 28.5976 27.8766 27.0285 26.1984 26.0539 24.9503 22.2774 21.6507 21.6399 20.676 20.4505 18.8669 18.4286 17.688 17.4544 17.2467 17.2316 17.0857 17.7279 17.0423 16.0277 15.3381 15.1076 14.7229 14.3596 14.1552 14.1182 18.4056 13.9199 13.0221 18.2888 12.7577 16.973 15.3478 15.9106 13.7814 13.1641 12.5129 16.135 12.4273 12.2619 12.196 12.0076 11.9746 13.5517 11.9508 11.94 12.297 11.8761 13.2144 11.8504 11.8388 11.7561 11.6333 11.5869 11.4815 16.9988 11.3371 11.1766 11.1583 11.0381 10.4448 10.2543 12.4312 9.61376 9.57173 15.357 9.42634 9.40364 11.1297 9.57574 9.34235 9.2503 10.8432 11.1464 9.22191 9.1 8.98283 33.962 12.4525 9.62194 9.54355 22.0723 14.8396 9.00151 11.6448 9.22136 8.96405 8.91378 9.87973 9.72117 9.28052 8.78434 8.64047 10.9302 11.3873 10.206 16.1702 8.55249 8.37852 9.17683 10.0235 8.27325 8.25342 11.7104 18.7933 10.7711 8.24485 8.22878 12.1449
threshold=0.073744669556617751 0.11517041176557542 46.427079426126859 -0.16524614393711087 -0.057541310787200921 -76.107361073316369 1.5000000000000002 0.18012709915637973 0.21589222550392154 128.39986763315406 -0.017601545900106427 -151.98292252787266 -0.13159140199422834 1.0000000180025095e-35 -0.079001516103744493 0.066278245300054564 -0.18986491858959195 -0.29760053753852839 0.16712930798530581 1.0000000180025095e-35 0.58519968390464794 1.5000000000000002 -0.014293418265879152 -356.67419606125799 1.0000000180025095e-35 0.013625018298625948 -0.061210848391056054 1.0000000180025095e-35 -0.038335323333740227 -0.12919624149799344 1.0000000180025095e-35 -0.093255046755075441 0.01183570083230734 -0.050463324412703507 -0.020245077088475224 -0.0034115612506866451 0.11920421198010446 0.08431281149387361 0.30831444263458258 -0.028002373874187466 -0.12097353860735892 -13.558866113711334 0.097293354570865645 -0.01865754276514053 1.5000000000000002 -0.041648562997579568 -0.048310888931155198 0.11710888892412187 -0.17485074698925016 -0.16219772398471829 0.14464507251977923 -0.053059961646795266 -0.1962994188070297 0.064138412475585951 -0.041543051600456231 -0.028376565314829346 0.052713336423039443 -0.031690048053860657 0.0028345491737127308 -234.56698481413136 -0.020510047674179074 -0.60000000000000009 -0.10933816432952879 -0.0075241422746330491 1.0000000180025095e-35 -0.13888885825872418 -0.19999999999999982 -0.10520934686064719 0.070693731307983412 -0.14990094304084775 -0.0017631035298109052 -0.0067050741054117671 -0.028568303212523457 -1.8416666666666666 0.030336262658238414 -0.035178765654563897 -0.0012965286150574682 0.045106403529644019 -0.043859200552105897 0.032957991585135467 18.010532215110974 -0.00023159198462963102 0.034729067236185081 -0.16457110643386838 -0.04348290525376796 -0.01896707713603973 -0.023467085324227806 -0.040881812572479241 0.3422610759735108 -0.039676070213317864 -0.12310702726244925 0.031674530357122428 0.025629802606999878 -0.10376806929707526 0.41421294212341314 -0.094679839909076677 -7.1527629242187478 -0.099090099334716783 -142.292927917681 -0.01511254161596298 -0.013459615409374235 -0.03257500380277633 -0.027512506581842896 0.14454413950443271 -0.19775485992431638 -0.0029654260724782939 0.026851385831832889 0.024324614554643634 -0.0083384793251752836 -0.114292424172163 0.0099751092493534105 -0.055518824607133858 -0.015427880454808472 -0.039676070213317864 0.084678750485181822 -2.4221475411628117 0.038178322836756713 -18.716263999136341 -0.024630460888147351 -0.023169204592704769 -0.027455164119601246 0.0067768609151244172 -0.038179358467459672 -1.4654618444999981 -2.101011723770819 0.028779204934835437
decision_type=2 2 2 2 2 2 2 2 2 2 2 2 2 2 2 2 2 2 2 2 2 2 2 2 2 2 2 2 2 2 2 2 2 2 2 2 2 2 2 2 2 2 2 2 2 2 2 2 2 2 2 2 2 2 2 2 2 2 2 2 2 2 2 2 2 2 2 2 2 2 2 2 2 2 2 2 2 2 2 2 2 2 2 2 2 2 2 2 2 2 2 2 2 2 2 2 2 2 2 2 2 2 2 2 2 2 2 2 2 2 2 2 2 2 2 2 2 2 2 2 2 2 2 2 2 2
left_child=2 4 5 7 18 27 9 8 -3 20 15 14 114 28 22 40 -8 25 26 36 39 33 -6 118 32 29 -2 30 -12 -14 37 69 -13 -15 53 -30 -16 104 78 123 61 -28 45 -44 73 -32 103 -27 49 76 -51 52 59 54 -35 -20 -37 -48 -34 60 -52 -7 63 -42 65 -19 93 -9 -55 -26 -18 72 74 81 -57 -75 -49 -45 -38 -80 119 82 -25 -11 85 -36 -87 -68 89 90 -66 124 -46 -43 95 -95 -97 98 -98 -100 -99 102 -102 -47 105 -1 107 -106 -41 112 -111 -112 -71 -114 -5 116 117 -64 -21 120 122 -122 -33 -4 125 -86
right_child=1 3 6 12 11 10 16 67 -10 83 13 24 17 21 19 -17 70 64 55 23 -22 -23 -24 44 31 47 41 -29 35 -31 42 80 58 34 84 56 38 -39 -40 108 62 66 43 77 92 46 57 48 -50 50 51 -53 -54 68 -56 71 -58 -59 -60 -61 -62 -63 115 -65 88 -67 87 -69 -70 109 -72 -73 -74 75 -76 -77 -78 -79 79 -81 -82 -83 -84 -85 91 86 -88 -89 -90 -91 -92 -93 -94 94 -96 96 97 100 99 -101 101 -103 -104 -105 106 -107 -108 -109 -110 110 111 -113 113 -115 -116 -117 -118 -119 -120 -121 121 -123 -124 -125 -126 -127
leaf_value=0.0095001646312871182 0.04524415980679513 0.052895616304496823 0.018456839779918948 0.061101956850721555 0.014953671904831179 0.035858364329062087 -0.017155166115081957 0.028330644159571896 0.10759563805461594 -0.013804459216529931 0.025686629290263864 0.0099030531759250109 0.019956911832777945 0.026425162883827971 0.04166928712114424 0.040710427776109531 -0.012342807815296428 0.018304034647055718 0.015285275178644607 0.01712982091521285 0.026369513591396162 -0.0066165061719137483 0.0511494400544978 0.044788965705620853 0.022725301641539949 0.019609038418406444 0.030168848258592219 -0.0022471286145624102 0.0036994514166477986 0.050035734796800083 -0.0098857224037465358 0.021082980053650571 0.017691680087687456 0.031698159850061532 0.021741329932268419 -0.00058359323534669101 -0.0050685704127962387 0.021362714503505652 0.03747212622490833 -0.0020906226927563782 0.0062629328651291746 0.010609762402304584 0.021818537232884131 0.00093676674581339228 0.0010220013021199226 0.014111990308823767 0.023226191457350207 0.037615469845260749 0.062088144192303713 0.056336484462162197 0.021630521858625542 0.017248453331947258 0.055165534679035656 -0.0020618908325482645 0.0046492727504425643 0.041490088834055819 -0.009700895864030409 0.0022074105869335603 0.042149036247360001 0.019727610609805601 0.049648911324565594 0.008360024446339041 0.016138364596998984 0.032825064314341783 0.0078454214449446679 0.049552575787190578 0.030535263223632449 0.056627581773788141 0.0079519488114907933 0.0027119476418437862 -0.0072360566378197018 0.025502764427993575 0.022617027864521633 0.009886939369586692 0.071206993603896415 0.026431976241657513 0.063262284145924039 0.023488729065577328 0.012255932253026406 0.029407970660592721 -0.0037789324980411661 0.0024123283442619493 0.016848173996841409 -0.0091769274458021969 -0.0017077044898003114 -0.014476064208135981 0.0040486171556726484 0.0089885460830563691 -0.0025702963074951441 0.039083367066973553 0.033895701934138843 0.0096526795911364774 0.0087258300353112613 -0.004398910001963385 0.051336034623972918 0.011464403137660735 0.058810413912967423 0.0029072519911831772 0.0089750260173522521 0.041070541401597549 0.0073487647723534527 0.028267060686906889 0.02707530822590612 -0.0045418077119435503 0.0067092405389032397 0.034978270425891717 -0.0036225667919347333 0.028462384158838436 -0.0065013746149393025 0.0010755324119854106 0.0062323355876141026 0.029666471953837144 0.030664645034556293 0.0083512821545034654 0.040296000635802603 -0.00011453766745709309 -0.00098019946184995407 -0.00082786700036250715 0.032559159752786372 0.029396030984408572 0.011210161216933946 0.046687886407358589 -0.0027702251785297247 -0.00065239037109211589 -0.0046267011229073219 0.020647203271674727
leaf_weight=115.06162571907043 69.926651954650879 104.85702776908875 60.065465211868286 138.48284363746643 80.436494588851929 56.848488330841064 2997.0947463512421 79.947464942932129 144.23269081115723 1297.0750339031219 74.234061241149902 1071.0485768318176 290.26813316345215 51.702850103378296 83.46046257019043 53.402752876281738 5401.8527317047119 69.551831960678101 79.771573305130005 372.98238325119019 65.431248188018799 4562.7352347373962 90.156839609146118 74.693078756332397 83.062474012374878 75.38541579246521 210.91632604598999 1180.1363525390625 2534.2885434627533 58.772457122802734 197.40968179702759 70.7872154712677 181.08722543716431 74.300218343734741 70.860163688659668 2874.7398674488068 55.666059017181396 206.74584913253784 89.083082914352417 1310.5443615913391 154.37956404685974 263.83342289924622 230.45029950141907 355.11870670318604 566.70337462425232 499.47028732299805 69.711125373840332 75.26655387878418 86.288811683654785 75.154853343963623 66.724369525909424 124.76912212371826 75.004875421524048 1234.22225689888 213.71480703353882 67.099567651748657 423.04625797271729 6907.284063577652 69.425469398498535 123.437739610672 122.18344235420227 129.5598680973053 286.81180739402771 60.706629037857056 159.14460206031799 65.876293659210205 55.089424848556519 68.74805760383606 384.36648845672607 562.79293584823608 1398.2668220996857 121.19519281387329 56.906447887420654 1734.0605354309082 59.87321925163269 108.26893424987793 94.787751436233521 60.01904821395874 341.10644960403442 153.0313982963562 68.882522106170654 51.392000675201416 143.96278095245361 7260.8965611457825 1989.4850707054138 86.929629325866699 353.21148777008057 579.57624197006226 56.157138347625732 57.109211444854736 55.342730283737183 129.05304670333862 1184.6189041137695 56.288792133331299 84.684232950210571 268.64190053939819 54.997819900512695 73.909785270690918 90.225232124328613 59.939478158950806 178.69335055351257 297.57237958908081 88.624173879623413 73.937308311462402 1520.3637087345123 56.849023580551147 228.70132327079773 50.664597749710083 8140.5984389781952 2360.5665361881256 268.82066011428833 64.225206613540649 98.208974361419678 468.64808440208435 76.775118112564087 1994.7620458602905 262.06477093696594 124.99271845817566 113.26325750350952 94.974124431610107 115.15166449546814 55.231505870819092 142.7985999584198 936.84563326835632 6979.3120529651642 62.669773578643799
leaf_count=45 24 31 24 43 30 22 1313 25 37 560 29 416 106 20 30 19 2328 25 30 141 24 1920 31 28 31 27 76 482 1026 20 83 27 69 30 29 1177 22 78 32 545 61 101 89 143 226 197 27 25 29 25 23 44 25 508 87 23 178 2800 25 43 41 51 116 24 60 22 21 22 153 225 593 43 20 681 20 41 31 23 131 57 27 20 55 3091 824 36 145 225 21 21 20 53 467 22 30 102 20 28 34 22 67 111 33 30 605 22 93 20 3421 955 107 25 38 185 25 812 106 51 43 37 45 21 56 385 2897 26
internal_value=-1.01966e-05 0.0160622 -0.00395992 0.0398391 0.0120337 0.000147527 -0.00922065 0.0684371 0.0845691 -0.00723491 -0.00153053 0.00985754 0.0339948 -0.00230323 0.0129553 0.00393628 -0.0130861 0.031547 0.0205436 0.0122447 -0.0050832 -0.00348305 0.0340828 0.0107804 0.00704559 0.0353816 0.0185959 0.00374904 0.000931325 0.0250217 0.00441839 0.00537851 0.0126643 -0.00225369 -0.00238176 0.000616225 0.0210628 0.00840635 0.0183709 -0.00528017 0.00329662 0.0178073 0.00338338 0.0104874 0.009529 0.00279143 0.00312289 0.0393163 0.0410774 0.0386834 0.0348532 0.0317005 0.0363556 0.00202477 0.0116272 0.0328561 -0.00175318 0.00241742 0.0244696 0.0318387 0.0397525 0.0167461 0.00242722 0.0137599 0.021049 0.0335043 0.0165958 0.0414135 0.000316097 0.00421338 -0.0112927 0.0374506 0.0453255 0.0122616 0.0555029 0.0108592 0.0519109 0.00419724 0.0152759 0.0175678 0.0136866 0.0218291 0.0263928 -0.00987829 -0.00325045 0.0033507 0.000389919 0.0108588 0.0159025 0.0197221 0.014567 -0.00361868 0.00623298 0.0189954 0.0207603 0.0185451 0.0197059 0.0223292 0.0317113 0.0217862 0.019316 0.0214629 0.0138887 0.0117067 0.00704775 0.0179255 0.0060087 0.00741076 -0.00588976 0.0038112 0.00227189 0.0107514 0.00748163 0.0122171 0.0536812 0.00151383 0.00633405 0.0109887 0.0207238 0.0161986 0.0129342 0.0227106 0.00513527 0.000498971 -0.00380832 -0.00102502
internal_weight=82023.6 16180.6 65843 2344.27 13836.4 36974.3 28868.7 397.785 249.09 19071.5 25222.4 11018.6 1946.48 22098.9 5242.89 3123.53 9797.21 1731.23 2817.77 5072.29 10513.5 16192.6 170.593 4349.95 5775.71 1268.04 2432.92 11751.9 5906.31 349.041 10571.8 4454.15 1321.56 11629.8 11578.1 5832.07 722.347 2178.39 638.887 10448.1 3070.13 2362.99 8393.4 645.588 3863.7 7747.81 7550.4 919.003 843.618 757.329 587.274 512.12 387.35 1906.6 288.015 384.846 3297.79 6977 250.513 312.346 188.908 186.408 2883.72 215.086 463.182 135.428 2152.08 148.696 1618.59 3906.32 6800.12 305.074 183.879 2112.38 126.973 1842.33 170.054 415.138 549.804 494.138 547.826 270.048 218.656 8557.97 9671.52 511.001 440.141 634.666 327.754 271.597 214.487 9160.52 1751.32 1517.41 1253.58 1168.89 1112.6 843.962 205.163 150.165 638.8 564.89 267.318 573.408 1971.64 171.911 1799.73 1571.03 9451.14 3823.26 2693.61 333.046 1129.65 566.857 215.258 2668.63 673.869 411.805 486.246 478.943 383.969 170.383 213.586 996.911 9031.47 2052.15
internal_count=33588 6167 27421 791 5376 15137 12284 115 68 8050 10400 4324 676 9138 2035 1262 4234 608 1052 1974 4399 6728 61 1702 2289 439 916 4737 2410 126 4255 1779 510 4808 4788 2381 272 863 242 4375 1243 892 3392 255 1518 3137 3054 313 286 257 201 176 132 778 117 136 1355 2827 94 107 64 73 1170 85 169 47 816 47 661 1566 2921 106 63 825 43 722 56 166 210 188 213 103 83 3651 4010 210 181 246 122 101 80 3800 693 570 469 439 417 315 76 56 239 211 100 227 785 67 718 625 3966 1535 1087 132 448 223 68 1085 273 167 184 186 149 66 83 409 3747 850
is_linear=0
shrinkage=0.05


Tree=5
num_leaves=127
num_cat=0
split_feature=189 151 0 128 260 6 0 4 4 0 7 189 167 216 25 81 241 0 4 142 240 157 70 164 24 4 132 187 87 95 6 210 7 192 48 145 57 45 52 49 253 164 48 131 68 14 46 93 216 141 242 119 6 87 136 0 4 241 73 173 4 173 204 180 189 149 205 19 1 90 48 49 17 0 4 34 224 164 226 180 224 151 240 0 225 0 217 160 86 173 230 230 63 27 173 102 124 112 108 109 116 24 50 82 141 49 13 17 215 227 121 230 11 171 81 214 47 160 185 220 237 68 179 26 75 80
split_gain=1955.37 549.195 548.37 128.387 93.2683 86.8513 84.9131 54.8557 43.4704 42.1998 36.5046 35.2756 31.5628 30.2234 28.3629 28.2277 30.757 26.3279 26.1682 25.969 24.4054 24.3731 24.2166 23.8554 21.8061 19.8993 24.6412 30.6721 28.2424 18.5227 18.504 18.0759 17.8648 17.7293 17.3868 16.9519 16.7043 17.3686 23.3426 16.5485 15.452 15.4422 18.0077 15.3463 15.2512 14.8491 14.5457 18.1274 14.4036 14.1521 14.0751 13.7087 13.1312 13.7034 16.8188 12.5909 12.6545 14.3014 12.5895 11.5417 11.8455 14.2649 11.5008 11.393 11.3744 11.2715 11.0394 16.7724 12.8557 11.0044 10.9904 10.9429 10.9357 10.7416 10.5044 11.3229 10.4408 12.5778 10.3039 10.2061 10.0274 10.5513 10.0256 9.6994 9.69014 9.68158 10.0213 9.3842 9.32333 9.26769 9.18976 13.2309 9.69041 9.13612 9.10587 8.92256 9.90562 8.91879 8.81336 8.80923 9.5463 8.73641 8.70414 8.65602 12.4624 8.65263 16.8309 8.60584 12.2929 8.5567 8.61911 8.50365 9.56473 10.0052 8.45888 8.43186 12.3025 10.0415 8.32026 8.27327 8.2333 8.94861 8.12161 8.77909 8.10256 7.97072
threshold=0.073744669556617751 0.11517041176557542 46.427079426126859 -0.16524614393711087 -0.057541310787200921 1.5000000000000002 -87.890266631928611 1.0000000180025095e-35 1.0000000180025095e-35 128.39986763315406 -7.9803420576290653 0.029191400855779651 -0.13159140199422834 0.037134353071451194 -0.18986491858959195 0.51044788956642162 0.04926791042089463 -257.72617019545072 1.0000000180025095e-35 0.0678754858672619 -0.028013132512569424 0.58519968390464794 -0.29760053753852839 0.16712930798530581 -0.16097618639469144 1.0000000180025095e-35 0.015364923514425756 -0.19923487305641172 -0.22189524769783017 0.13335911929607394 1.5000000000000002 0.014945417176932098 -8.3166869708709523 0.013625018298625948 0.045574761927127845 0.029708269052207473 -0.077298976480960832 -0.16096723824739453 -0.0020309695973992343 -0.027315383777022358 -0.021234702318906781 -0.16448872536420819 -0.11178018897771834 0.13236998021602633 -0.12919624149799344 -0.02088060230016708 -0.17979622632265088 -0.057048510760068886 0.045224552974104888 -0.028002373874187466 -0.01367937959730625 0.017392270267009739 1.5000000000000002 -0.048035405576229089 0.014849126338958742 -330.5898123051881 1.0000000180025095e-35 0.1455289423465729 -0.022413417696952816 -0.039037555456161492 1.0000000180025095e-35 0.08431281149387361 -0.018201567232608792 -0.08296209946274756 -0.0093352608382701856 0.48211455345153814 0.32571105659008032 0.10171927511692049 -0.39999999999999997 0.054563496261835105 0.083882842212915434 -0.048718430101871484 0.020015772432088855 -17.119346840012778 1.0000000180025095e-35 -0.13888885825872418 -0.014260720461606978 -0.050775013864040368 -0.025783002376556393 -0.063709240406751619 0.27242758870124822 0.05490496754646302 -0.051819793879985802 -37.962229377444025 0.011093230452388527 31.184649551484657 0.24740936607122424 0.019684362225234512 -0.020119247026741501 -0.16457110643386838 -0.12676964700222013 -0.032747568562626832 -0.029813240282237526 0.088015872985124602 0.28632709383964544 0.042301237583160407 0.16415734589099887 -0.012841798365116118 0.059110321104526527 0.086199842393398299 0.021733957342803482 -0.05279706418514251 -0.079621676355600343 -0.028060895390808579 -0.015170712023973463 -0.027315383777022358 0.019116096198558811 -0.014500339515507219 -0.010031953454017637 0.027359237894415859 0.047441199421882636 0.3422610759735108 -0.039676070213317864 -0.12310702726244925 0.10723289474844934 -0.0081240553408861143 0.035064214840531356 0.0045942554716020831 0.037960693240165717 -0.032732235267758363 -0.00756925344467163 -0.15141525864601132 -0.030425868928432461 -0.041029751300811761 0.014413683675229551 0.0061219658236950645
decision_type=2 2 2 2 2 2 2 2 2 2 2 2 2 2 2 2 2 2 2 2 2 2 2 2 2 2 2 2 2 2 2 2 2 2 2 2 2 2 2 2 2 2 2 2 2 2 2 2 2 2 2 2 2 2 2 2 2 2 2 2 2 2 2 2 2 2 2 2 2 2 2 2 2 2 2 2 2 2 2 2 2 2 2 2 2 2 2 2 2 2 2 2 2 2 2 2 2 2 2 2 2 2 2 2 2 2 2 2 2 2 2 2 2 2 2 2 2 2 2 2 2 2 2 2 2 2
left_child=2 4 6 7 23 9 32 15 20 21 31 13 -5 30 -7 16 -3 97 39 -9 58 49 33 25 -13 26 35 -28 -29 43 34 55 69 44 71 -2 -22 38 -38 51 -31 -27 46 82 -14 72 -43 -48 59 124 -41 -19 53 122 118 99 57 -57 88 -34 61 109 84 65 -16 105 68 94 102 79 -64 76 -44 -39 75 -24 -10 -78 -33 120 81 -74 -20 -83 -36 86 107 101 -8 -11 -53 -92 -93 -69 -68 96 -88 -12 -51 -6 -101 -80 -35 104 -97 106 -25 -45 -109 114 -111 112 113 -76 -61 116 -52 -118 -55 -66 121 -1 -26 125 -4 -124
right_child=1 3 5 12 10 14 8 19 11 89 17 24 22 -15 64 -17 -18 18 29 -21 36 -23 74 63 52 41 27 28 -30 40 -32 78 48 66 62 -37 37 73 -40 50 -42 42 45 85 -46 -47 47 -49 -50 98 115 90 -54 54 -56 56 -58 -59 -60 60 -62 -63 70 -65 119 -67 67 93 -70 -71 -72 -73 80 -75 111 -77 77 -79 87 -81 -82 83 -84 -85 -86 -87 95 -89 -90 -91 91 92 -94 -95 -96 103 -98 -99 -100 100 -102 -103 -104 -105 -106 -107 -108 108 -110 110 -112 -113 -114 -115 -116 -117 117 -119 -120 -121 -122 -123 123 -125 -126 -127
leaf_value=0.013672816407424099 -0.00093335489396912351 0.08489813968581178 -0.00087367111610714182 0.049574087948926732 0.0094183617423315661 -0.01702238011498983 0.0098098787526945432 0.020843700625921131 0.021974922252314132 -0.013651212511437498 0.031618848382533517 0.023833222036790152 0.019071977708274457 0.03009113715824481 -0.012173843134403109 0.098145236386866008 0.043216149288070486 0.009941558245105054 0.0084957354611039509 0.062027054687656895 -0.0084260126240361284 0.025037070646965795 0.017521702890023298 0.048938939358714663 0.015731399935386484 0.0086781949614910397 0.069804471835607715 0.058213311152202997 0.015923266992804063 0.0072441115612231948 -0.0067876600607286765 0.014670891150080793 -0.0039675100646159407 0.050485367020007027 0.01551825866399263 0.023225160587486533 0.0018876716843678337 0.0034731500241640873 0.045971875448472317 0.0046317317883497891 0.041595854432231127 0.013603208880266379 0.0013250396907850547 0.0095323371767230772 0.046381980210723567 0.033028450992489904 0.026112227156127557 0.062666818782137687 0.023534390275436773 -0.0059462396798862808 0.0043308022689817318 0.011382457791564174 -0.0034225584154359634 0.039506233124617783 0.0043851539134345113 0.038946651804838008 0.0098742579147213985 0.014327490970277837 0.0056688758948520625 0.0056675627866011333 0.0024714233065264522 0.020900607369267712 0.0017365689731366407 0.012076105298456805 0.0065239104938819709 0.016561868325600849 0.023371321487400912 0.033507948673993267 0.062701385762385098 0.022937696351238344 0.013558154514521352 -0.0041524558700357294 0.034531410238923858 -0.001366857705157502 0.0075900775311468606 0.045956594676569013 0.010127066933418515 -0.0063944473588816581 0.05347299046390569 0.0058710954964280998 0.03265900711629656 0.015094160190805157 0.022063953114635628 -0.0010697455230877829 -0.0042122161676505692 -0.0073604022182194896 0.029351223524546173 0.015371985907478304 0.034519032447405111 -0.0090326259316386506 0.049579509254707207 0.014426447425262195 0.036439507739512038 0.054014763294796132 0.037865646250987588 0.015218169477840325 0.0090222846500288747 0.013836941015324648 0.0081527002925645669 0.021993390727833836 0.046367628696669813 0.028440492059899944 0.028234546402652206 0.00020147045580628048 -0.0016005180511736027 0.049892755743361619 0.015490867640369214 0.0035237119434338837 -0.0048776800994384251 0.027876271439642431 0.0053966048404109112 -0.0025130101836342042 0.036633630039803113 0.031938535539829158 -0.0075661262557776268 0.0045631205946489442 0.012147588939268667 0.037601924518410976 0.014767751287185727 -0.0081735780872371003 -0.00079074292828407123 0.036425583163980611 -0.00087847706485796027 -0.0010555574307640066 0.015421830795439849 0.014468548815649513
leaf_weight=116.87679672241211 94.158370494842529 88.85656213760376 914.19145536422729 227.14030003547668 81.757489204406738 2946.1174492835999 88.050675392150879 88.67389988899231 65.165110349655151 1279.2926433086395 75.290381193161011 102.74854969978333 296.11917877197266 65.549410343170166 5365.28923869133 93.108732461929321 88.176404714584351 240.14386749267578 729.18228197097778 67.352611780166626 499.90083646774292 67.17958927154541 70.836632966995239 72.524470567703247 85.057777404785156 619.26507782936096 57.062102556228638 55.393271684646606 137.41477370262146 67.033790111541748 4090.5451271533966 117.72105360031128 563.23161339759827 80.329676151275635 68.157838582992554 317.34849882125854 74.858880281448364 1990.9961533546448 50.140435457229614 690.74376773834229 63.981819152832031 74.156038045883179 154.85022473335266 449.62979054450989 61.787994146347046 108.02362060546875 83.429043292999268 57.145414590835571 85.808236598968506 9283.4698779582977 70.301620244979858 88.369172811508179 1464.494313955307 49.739258527755737 655.49823307991028 82.3194739818573 1455.183661699295 208.137770652771 1731.2530655860901 1068.9636404514313 6226.9490406513214 172.7535994052887 562.75289511680603 66.386002063751221 103.65775990486145 67.647337675094604 315.34885835647583 96.850699663162231 77.68707275390625 128.75007772445679 302.18233489990234 8267.7166180610657 56.434667825698853 2702.1949326992035 160.3980700969696 69.222864389419556 200.24984049797058 271.2258939743042 65.770774841308594 1232.8845484256744 80.016319751739502 468.39667940139771 167.40160536766052 115.74307990074158 715.42731881141663 183.18307423591614 95.975509881973267 52.237180709838867 67.39873218536377 7194.5683941841125 65.180485010147095 118.45409679412842 86.504099130630493 123.66187071800232 165.08516764640808 368.31322765350342 159.52002215385437 1112.0822083950043 112.18251919746399 140.95740342140198 56.182226181030273 74.150892019271851 97.052960395812988 369.54567241668701 157.1328821182251 113.08580660820007 78.124742746353149 2643.4614188671112 521.26185393333435 81.585357189178467 89.327453851699829 56.012983560562134 59.385422229766846 57.250764608383179 136.12819933891296 96.963887691497803 58.14448070526123 116.12785267829895 107.33131837844849 1254.826690196991 49.919875383377075 68.56600022315979 154.4834349155426 2338.7180919647217 83.227546691894531 187.03330421447754
leaf_count=46 35 21 376 68 31 1313 33 30 26 560 28 38 106 25 2339 21 23 91 283 20 212 24 25 24 34 234 20 20 51 25 1731 44 232 26 28 116 31 801 20 268 23 27 58 178 20 39 30 20 33 3919 27 32 611 20 264 29 566 78 690 423 2515 64 230 24 44 24 109 31 24 49 118 3444 20 1110 60 22 81 112 23 491 29 173 64 44 297 74 37 20 25 3091 23 44 31 38 53 144 62 422 47 52 20 26 32 146 62 37 27 1060 209 32 35 21 21 20 54 37 22 43 43 538 20 26 63 954 33 76
internal_value=-1.20976e-05 0.0154041 -0.00387771 0.0372933 0.01159 -0.00907623 0.000143278 0.0622256 -0.00131752 -0.00710728 0.00951546 -0.00253007 0.032018 -0.00378398 -0.0129315 0.0758586 0.0641372 0.00804 0.0069591 0.0386215 0.00200703 -0.00498271 0.0297865 0.0196155 0.00103027 0.0177915 0.0252178 0.0376032 0.0280731 0.00542699 -0.00393666 0.0150736 0.00407289 0.0332791 -0.00282097 0.0176974 0.000273726 0.00117635 0.019571 0.0125726 0.0240199 0.0150891 0.0184024 0.00501021 0.0237867 0.0155382 0.0315204 0.0409722 0.00315377 -0.00517675 0.00873716 0.0191863 0.000565611 0.00219805 0.00790642 0.0133523 0.0117762 0.0213049 0.00689275 0.00294405 0.00344469 0.00735781 0.00189167 0.0309821 -0.011139 0.0347696 0.0368329 0.0335917 0.0457397 0.00892157 0.00586668 -0.00370336 0.01338 0.000686423 0.0200866 0.0315753 0.00321556 0.000622734 0.0263196 0.00769251 0.0159706 0.013886 0.0110291 0.0118914 -0.00249602 0.00391959 0.00435324 0.0334558 0.0205231 -0.00972989 0.0253788 0.0299574 0.0237172 0.045008 0.0283518 0.00841752 0.0166587 0.0149645 -0.0057779 0.0232171 0.0289397 0.0402071 0.0383111 0.00606487 0.0101886 0.0394398 0.0315932 0.00305954 0.00213992 0.00565755 0.0161273 0.0152551 0.0188476 0.0139947 0.00417267 0.0170402 0.0219868 0.0291093 0.0226016 -0.0070521 0.0172335 0.0220855 0.000520674 3.7959e-05 0.000486073 0.0075264
internal_weight=82029.9 16445.3 65584.6 2440.34 14005 28604 36980.6 426.168 26958.9 18934.1 11128.3 19754.1 2014.17 14609 9669.89 270.142 177.033 8793.93 7606.56 156.027 7204.79 10460.3 1787.03 2876.61 5145.1 2478.84 661.377 249.87 192.808 5975.62 14543.4 2334.42 10021.7 1313.92 10452.9 411.507 5318.09 4818.19 124.999 1630.93 131.016 1817.46 1198.2 5844.61 357.907 983.465 214.73 140.574 8424.75 10393.1 1032.28 598.652 5042.36 3577.86 812.569 2024.54 1745.64 290.457 1886.7 8338.94 7775.71 1548.76 1648.52 397.768 6723.77 331.382 956.016 700.947 255.07 1597 864.935 8804.36 875.441 4693.19 473.107 140.059 536.641 471.476 309.88 1468.25 720.591 640.574 896.584 584.14 783.585 4948.02 4764.84 192.159 155.449 8473.86 358.508 270.139 204.958 220.513 480.434 1150.49 255.496 1187.37 9395.65 278.897 197.14 139.922 177.383 894.992 525.446 263.735 150.649 3614.35 3164.72 1376 170.913 333.047 277.034 217.649 1205.09 341.538 244.574 174.272 157.071 1358.48 235.363 185.443 2765.29 2680.23 997.419 341.517
internal_count=33588 6167 27421 791 5376 12284 15137 115 11117 8050 4324 8195 676 6092 4234 65 44 3435 2985 50 2922 4399 608 1052 2103 916 242 91 71 2367 6067 889 4020 439 4336 151 2174 1962 51 618 48 674 440 2319 126 363 77 50 3388 4375 397 221 2065 1454 327 776 673 107 748 3355 3123 608 673 136 2921 112 313 231 82 632 348 3663 324 1911 169 47 219 193 113 583 266 237 347 217 325 1972 1898 69 58 3651 130 98 75 69 162 451 99 450 3966 103 72 49 58 352 206 88 51 1447 1269 544 67 122 101 80 477 129 92 65 63 582 92 72 1127 1093 409 139
is_linear=0
shrinkage=0.05


Tree=6
num_leaves=127
num_cat=0
split_feature=189 0 151 28 0 260 0 92 4 48 6 6 7 237 123 257 6 0 4 69 7 164 189 82 101 155 16 60 4 176 186 95 7 210 142 228 4 244 159 59 48 49 260 131 240 128 164 48 128 108 14 240 87 136 242 170 59 46 93 111 188 0 4 241 159 73 0 128 237 160 135 113 17 90 107 134 221 250 151 180 14 235 70 0 217 240 260 226 123 250 110 151 56 135 104 214 52 153 64 114 146 177 64 116 49 102 124 131 243 149 160 160 7 17 215 253 221 96 213 32 154 116 15 143 0 86
split_gain=1836.9 528.421 488.505 107.293 104.845 85.0084 66.1717 53.1069 42.1179 39.9886 35.8325 33.8591 33.5697 33.4634 27.7628 25.7647 24.5214 24.2884 24.2447 23.2817 21.5248 21.1395 20.0554 24.2937 19.8013 23.1409 18.4721 18.0224 17.8099 29.5051 19.1267 16.9933 16.7072 16.2409 16.0969 16.6538 23.5019 15.7704 15.6262 21.2383 15.2248 15.0928 15.0704 14.2997 14.237 14.1752 14.0523 15.9979 13.4714 13.3618 13.2538 13.0338 13.0222 13.5532 12.9663 12.8496 12.7979 12.6554 15.0772 11.5244 19.5047 11.3888 11.5107 12.5971 11.1677 11.0444 10.7342 10.3164 10.2113 10.1469 10.2271 11.193 10.0774 10.0502 9.74297 9.65705 9.64587 10.8832 10.6976 9.39874 9.35592 9.72405 9.2145 9.19849 9.37301 9.13648 9.07548 9.07276 9.01105 9.52547 8.95371 11.8386 8.91492 8.85305 8.59069 8.50956 16.8348 11.202 8.42835 8.31897 8.4861 9.03791 10.7515 8.78452 8.28577 8.21771 8.90376 8.24022 12.7448 18.646 8.143 8.36236 8.08548 8.06182 11.6814 8.04711 8.71624 8.0944 8.14754 10.1039 7.98667 7.95548 12.4993 8.3669 7.90343 7.95376
