tree
version=v4
num_class=1
num_tree_per_iteration=1
label_index=0
max_feature_idx=263
objective=poisson
feature_names=elo_diff gf_last_5_diff ga_last_5_diff form_diff is_home is_neutral tournament_importance h2h_gd_weighted emb_diff_0 emb_diff_1 emb_diff_2 emb_diff_3 emb_diff_4 emb_diff_5 emb_diff_6 emb_diff_7 emb_diff_8 emb_diff_9 emb_diff_10 emb_diff_11 emb_diff_12 emb_diff_13 emb_diff_14 emb_diff_15 emb_diff_16 emb_diff_17 emb_diff_18 emb_diff_19 emb_diff_20 emb_diff_21 emb_diff_22 emb_diff_23 emb_diff_24 emb_diff_25 emb_diff_26 emb_diff_27 emb_diff_28 emb_diff_29 emb_diff_30 emb_diff_31 emb_diff_32 emb_diff_33 emb_diff_34 emb_diff_35 emb_diff_36 emb_diff_37 emb_diff_38 emb_diff_39 emb_diff_40 emb_diff_41 emb_diff_42 emb_diff_43 emb_diff_44 emb_diff_45 emb_diff_46 emb_diff_47 emb_diff_48 emb_diff_49 emb_diff_50 emb_diff_51 emb_diff_52 emb_diff_53 emb_diff_54 emb_diff_55 emb_diff_56 emb_diff_57 emb_diff_58 emb_diff_59 emb_diff_60 emb_diff_61 emb_diff_62 emb_diff_63 emb_diff_64 emb_diff_65 emb_diff_66 emb_diff_67 emb_diff_68 emb_diff_69 emb_diff_70 emb_diff_71 emb_diff_72 emb_diff_73 emb_diff_74 emb_diff_75 emb_diff_76 emb_diff_77 emb_diff_78 emb_diff_79 emb_diff_80 emb_diff_81 emb_diff_82 emb_diff_83 emb_diff_84 emb_diff_85 emb_diff_86 emb_diff_87 emb_diff_88 emb_diff_89 emb_diff_90 emb_diff_91 emb_diff_92 emb_diff_93 emb_diff_94 emb_diff_95 emb_diff_96 emb_diff_97 emb_diff_98 emb_diff_99 emb_diff_100 emb_diff_101 emb_diff_102 emb_diff_103 emb_diff_104 emb_diff_105 emb_diff_106 emb_diff_107 emb_diff_108 emb_diff_109 emb_diff_110 emb_diff_111 emb_diff_112 emb_diff_113 emb_diff_114 emb_diff_115 emb_diff_116 emb_diff_117 emb_diff_118 emb_diff_119 emb_diff_120 emb_diff_121 emb_diff_122 emb_diff_123 emb_diff_124 emb_diff_125 emb_diff_126 emb_diff_127 emb_diff_128 emb_diff_129 emb_diff_130 emb_diff_131 emb_diff_132 emb_diff_133 emb_diff_134 emb_diff_135 emb_diff_136 emb_diff_137 emb_diff_138 emb_diff_139 emb_diff_140 emb_diff_141 emb_diff_142 emb_diff_143 emb_diff_144 emb_diff_145 emb_diff_146 emb_diff_147 emb_diff_148 emb_diff_149 emb_diff_150 emb_diff_151 emb_diff_152 emb_diff_153 emb_diff_154 emb_diff_155 emb_diff_156 emb_diff_157 emb_diff_158 emb_diff_159 emb_diff_160 emb_diff_161 emb_diff_162 emb_diff_163 emb_diff_164 emb_diff_165 emb_diff_166 emb_diff_167 emb_diff_168 emb_diff_169 emb_diff_170 emb_diff_171 emb_diff_172 emb_diff_173 emb_diff_174 emb_diff_175 emb_diff_176 emb_diff_177 emb_diff_178 emb_diff_179 emb_diff_180 emb_diff_181 emb_diff_182 emb_diff_183 emb_diff_184 emb_diff_185 emb_diff_186 emb_diff_187 emb_diff_188 emb_diff_189 emb_diff_190 emb_diff_191 emb_diff_192 emb_diff_193 emb_diff_194 emb_diff_195 emb_diff_196 emb_diff_197 emb_diff_198 emb_diff_199 emb_diff_200 emb_diff_201 emb_diff_202 emb_diff_203 emb_diff_204 emb_diff_205 emb_diff_206 emb_diff_207 emb_diff_208 emb_diff_209 emb_diff_210 emb_diff_211 emb_diff_212 emb_diff_213 emb_diff_214 emb_diff_215 emb_diff_216 emb_diff_217 emb_diff_218 emb_diff_219 emb_diff_220 emb_diff_221 emb_diff_222 emb_diff_223 emb_diff_224 emb_diff_225 emb_diff_226 emb_diff_227 emb_diff_228 emb_diff_229 emb_diff_230 emb_diff_231 emb_diff_232 emb_diff_233 emb_diff_234 emb_diff_235 emb_diff_236 emb_diff_237 emb_diff_238 emb_diff_239 emb_diff_240 emb_diff_241 emb_diff_242 emb_diff_243 emb_diff_244 emb_diff_245 emb_diff_246 emb_diff_247 emb_diff_248 emb_diff_249 emb_diff_250 emb_diff_251 emb_diff_252 emb_diff_253 emb_diff_254 emb_diff_255
feature_infos=[-735.1622392102397:691.81345070004022] [-11.799999999999999:16] [-19.600000000000001:20] [-18.764805818999999:19.539646797] [0:1] [0:1] [1:3] [-47.394689849742619:37.831507650779486] [-0.44667303562164307:0.41309481859207153] [-0.21388308703899384:0.21651855111122131] [-0.38993403315544128:0.44702285528182983] [-0.97912627458572388:0.89690899848937988] [-0.26095706224441528:0.31802302598953247] [-0.51546066999435425:0.57444983720779419] [-0.18077428638935089:0.17602619528770447] [-0.50697827339172363:0.60783690214157104] [-0.35561886429786682:0.38589948415756226] [-0.34364655613899231:0.33852213621139526] [-0.74006342887878418:0.76157736778259277] [-0.46556025743484497:0.50470376014709473] [-0.63920336961746216:0.64332520961761475] [-0.18384468555450439:0.19281481206417084] [-0.75377500057220459:0.69758093357086182] [-0.52981066703796387:0.48206773400306702] [-0.97551333904266357:0.88745105266571045] [-0.84743106365203857:0.82874274253845215] [-0.82223188877105713:0.9331853985786438] [-0.25225698947906494:0.24767041206359863] [-0.13202357292175293:0.13648895919322968] [-0.51760673522949219:0.50444525480270386] [-0.52116507291793823:0.50971055030822754] [-0.39461284875869751:0.40323987603187561] [-0.34872964024543762:0.32511821389198303] [-0.38189238309860229:0.41135832667350769] [-0.45945751667022705:0.45074373483657837] [-0.41915065050125122:0.45715236663818359] [-0.49999898672103882:0.54165071249008179] [-0.46676927804946899:0.45772793889045715] [-0.78212308883666992:0.68522799015045166] [-0.54260694980621338:0.58366894721984863] [-0.47845000028610229:0.45468145608901978] [-0.47035336494445801:0.48627832531929016] [-0.4247552752494812:0.40669035911560059] [-0.21917243301868439:0.22378513216972351] [-0.62067067623138428:0.69755458831787109] [-0.66280800104141235:0.66153430938720703] [-0.82607823610305786:0.73695820569992065] [-0.27195528149604797:0.25774303078651428] [-1.1666738986968994:1.0515296459197998] [-0.45583072304725647:0.44489336013793945] [-0.61349284648895264:0.60144573450088501] [-0.39061596989631653:0.3628678023815155] [-0.22029539942741394:0.24543657898902893] [-0.39552789926528931:0.4315025806427002] [-0.60893166065216064:0.59658515453338623] [-0.47092145681381226:0.47038793563842773] [-0.52991718053817749:0.44835454225540161] [-0.35683906078338623:0.37133368849754333] [-0.58534252643585205:0.49787250161170959] [-0.1500374972820282:0.14811399579048157] [-0.33203527331352234:0.33692991733551025] [-0.29912495613098145:0.26138439774513245] [-0.32537749409675598:0.33235162496566772] [-0.26107019186019897:0.25009304285049438] [-0.33149808645248413:0.29595702886581421] [-0.45261499285697937:0.42883011698722839] [-0.40336346626281738:0.42081129550933838] [-0.37778294086456299:0.34846475720405579] [-1.2948265075683594:1.2299275398254395] [-0.33693051338195801:0.33942848443984985] [-0.75454968214035034:0.79868972301483154] [-0.51683980226516724:0.4836292564868927] [-0.65707242488861084:0.74069511890411377] [-0.48125278949737549:0.47057271003723145] [-0.34293732047080994:0.32836055755615234] [-0.39579969644546509:0.43794605135917664] [-0.38992923498153687:0.42649424076080322] [-0.52812743186950684:0.49095490574836731] [-0.37270790338516235:0.34880462288856506] [-0.51310652494430542:0.50974357128143311] [-0.32651913166046143:0.25503826141357422] [-0.83960181474685669:0.8005368709564209] [-0.37880748510360718:0.36505654454231262] [-0.65275150537490845:0.60489445924758911] [-0.47923576831817627:0.43848094344139099] [-0.38904309272766113:0.40445312857627869] [-0.27077913284301758:0.27943289279937744] [-0.70401608943939209:0.70035642385482788] [-0.38812607526779175:0.37653589248657227] [-0.53973078727722168:0.56942987442016602] [-0.42046898603439331:0.50425928831100464] [-0.4281456470489502:0.38338112831115723] [-0.90419399738311768:0.9188418984413147] [-0.40768164396286011:0.41017746925354004] [-0.55154883861541748:0.52726233005523682] [-0.39791151881217957:0.37815564870834351] [-0.38295960426330566:0.3782632052898407] [-0.40557220578193665:0.39934241771697998] [-0.49228301644325256:0.51611089706420898] [-0.78191912174224854:0.80870282649993896] [-1.0184533596038818:1.0328730344772339] [-0.27103200554847717:0.27673101425170898] [-0.43156719207763672:0.43103700876235962] [-0.81940531730651855:0.77446472644805908] [-0.74268198013305664:0.71471315622329712] [-0.39479553699493408:0.38906306028366089] [-0.47856193780899048:0.45733198523521423] [-0.39835023880004883:0.42820712924003601] [-0.40477335453033447:0.37820911407470703] [-0.61287426948547363:0.55633038282394409] [-0.62145459651947021:0.70120584964752197] [-0.70046079158782959:0.72132593393325806] [-0.11455848067998886:0.11437223851680756] [-0.41280531883239746:0.39420926570892334] [-0.48741745948791504:0.57195430994033813] [-0.37123388051986694:0.36727645993232727] [-0.34463357925415039:0.36569961905479431] [-0.51300925016403198:0.55693244934082031] [-0.14048320055007935:0.13104958832263947] [-0.29580676555633545:0.28430390357971191] [-0.29069128632545471:0.25313401222229004] [-0.48829823732376099:0.57306385040283203] [-0.977183997631073:0.96458101272583008] [-0.84810554981231689:0.7565731406211853] [-0.47656017541885376:0.47035261988639832] [-0.32352438569068909:0.29560381174087524] [-0.45460265874862671:0.48106753826141357] [-0.89510399103164673:0.97996950149536133] [-0.4131331741809845:0.40353858470916748] [-0.4895516037940979:0.45687389373779297] [-0.44242864847183228:0.44409120082855225] [-0.83498561382293701:0.84391868114471436] [-0.15169417858123779:0.1150345653295517] [-0.46564552187919617:0.43668317794799805] [-0.3807486891746521:0.35558238625526428] [-0.38148927688598633:0.3607318103313446] [-0.44803816080093384:0.44139423966407776] [-0.63555097579956055:0.55616426467895508] [-0.23137339949607849:0.24111367762088776] [-0.63799095153808594:0.74585908651351929] [-0.37817105650901794:0.34641030430793762] [-0.7758602499961853:0.8234868049621582] [-0.36837506294250488:0.3507722020149231] [-0.47198259830474854:0.46294987201690674] [-0.65032458305358887:0.70231515169143677] [-0.24066571891307831:0.2449633926153183] [-0.94002759456634521:0.83030325174331665] [-0.48943763971328735:0.49239975214004517] [-0.45488247275352478:0.45199376344680786] [-0.74281430244445801:0.71360641717910767] [-0.57295626401901245:0.50593644380569458] [-0.38219872117042542:0.39792746305465698] [-0.42697378993034363:0.42288488149642944] [-0.29564809799194336:0.30068111419677734] [-0.97141879796981812:0.96956682205200195] [-0.36229676008224487:0.37086114287376404] [-0.55582904815673828:0.48964452743530273] [-1.1097147464752197:1.0419701337814331] [-0.29418095946311951:0.28814536333084106] [-0.74164187908172607:0.66586172580718994] [-0.10241948068141937:0.10457978397607803] [-0.63582116365432739:0.66510492563247681] [-0.44970506429672241:0.37083941698074341] [-0.68971884250640869:0.71202504634857178] [-0.8134385347366333:0.8352736234664917] [-0.51579117774963379:0.49892634153366089] [-0.28760716319084167:0.2740282416343689] [-0.28850063681602478:0.29168444871902466] [-0.39209994673728943:0.36569789052009583] [-0.38493862748146057:0.39835858345031738] [-0.86258459091186523:0.96353983879089355] [-0.46132630109786987:0.43545514345169067] [-0.28856039047241211:0.29485887289047241] [-0.75335395336151123:0.73402851819992065] [-0.46996968984603882:0.44908899068832397] [-0.29610252380371094:0.25281164050102234] [-1.2670427560806274:1.2140957117080688] [-0.22477740049362183:0.2217925488948822] [-0.68041259050369263:0.72960662841796875] [-0.285666823387146:0.2991068959236145] [-0.6458737850189209:0.70465517044067383] [-0.39408653974533081:0.42661720514297485] [-0.39422327280044556:0.38689559698104858] [-0.91803216934204102:0.90351021289825439] [-0.66940152645111084:0.6732933521270752] [-0.89851021766662598:0.98551350831985474] [-0.30192357301712036:0.32063782215118408] [-0.69763118028640747:0.76982617378234863] [-0.56477034091949463:0.59800100326538086] [-0.52363055944442749:0.540507972240448] [-0.19410514831542969:0.19380828738212585] [-0.33299237489700317:0.33258077502250671] [-0.47530204057693481:0.46256133913993835] [-0.42335993051528931:0.40290337800979614] [-0.50066006183624268:0.5043368935585022] [-0.35592886805534363:0.36485022306442261] [-0.64906126260757446:0.68491685390472412] [-0.6120678186416626:0.66154360771179199] [-0.47118997573852539:0.47312682867050171] [-0.44290366768836975:0.39006403088569641] [-0.55216938257217407:0.47958087921142578] [-0.47910553216934204:0.46616363525390625] [-0.40109196305274963:0.40635401010513306] [-0.37031501531600952:0.35740521550178528] [-0.38647234439849854:0.39228206872940063] [-0.7255128026008606:0.69981122016906738] [-0.3813488781452179:0.38535121083259583] [-0.37530374526977539:0.34964179992675781] [-0.46922290325164795:0.46309471130371094] [-0.44396078586578369:0.44245767593383789] [-0.19667074084281921:0.22493806481361389] [-0.67451995611190796:0.59436964988708496] [-0.37244525551795959:0.36204734444618225] [-0.46779313683509827:0.46035677194595337] [-0.38733547925949097:0.38786220550537109] [-0.58770644664764404:0.62141227722167969] [-0.38228482007980347:0.39112967252731323] [-0.88904154300689697:0.81160533428192139] [-0.48440733551979065:0.48428255319595337] [-0.39851337671279907:0.39466497302055359] [-0.63503623008728027:0.70920979976654053] [-0.44069355726242065:0.41731163859367371] [-0.36947008967399597:0.31395089626312256] [-0.39262548089027405:0.41103708744049072] [-1.2228245735168457:1.300322413444519] [-0.23806662857532501:0.22591578960418701] [-0.41240069270133972:0.40275385975837708] [-0.4959254264831543:0.56196153163909912] [-0.53135287761688232:0.54473024606704712] [-0.41124027967453003:0.41606354713439941] [-0.80971264839172363:0.76960474252700806] [-0.53357750177383423:0.49718734622001648] [-0.40170884132385254:0.46703541278839111] [-0.80399507284164429:0.76561462879180908] [-0.69044774770736694:0.72412276268005371] [-0.51808655261993408:0.54424715042114258] [-0.96549743413925171:0.86671924591064453] [-0.90673953294754028:0.79560661315917969] [-0.21589992940425873:0.21219725906848907] [-0.33735308051109314:0.30224400758743286] [-0.72044879198074341:0.66950404644012451] [-0.66850042343139648:0.67147660255432129] [-0.40759611129760742:0.3882414698600769] [-0.42210829257965088:0.45597195625305176] [-0.41932374238967896:0.40810957551002502] [-0.80038648843765259:0.76755893230438232] [-0.81716698408126831:0.71940970420837402] [-0.34729883074760437:0.42622321844100952] [-0.46937164664268494:0.44416502118110657] [-0.68800336122512817:0.7349514365196228] [-0.49117946624755859:0.48158919811248779] [-0.38386127352714539:0.37855300307273865] [-1.0889656543731689:1.1030088663101196] [-0.35393965244293213:0.35302090644836426] [-0.20736041665077209:0.23033669590950012] [-0.70843219757080078:0.66281580924987793] [-0.42410314083099365:0.41734284162521362] [-0.79951947927474976:0.77139604091644287] [-0.60595798492431641:0.669394850730896] [-0.47366642951965332:0.47952485084533691] [-0.3698427677154541:0.37749052047729492] [-0.15617655217647552:0.18277972936630249] [-0.41141104698181152:0.43517440557479858] [-0.48878532648086548:0.45843008160591125]
tree_sizes=13368 13805 13817 13822 13815 13835 13838 13849 13847 13846 13893 13872 13902 13894 13942 13900 13921 13964 13972 14010 13957 13949 13990 13964 13988 13976 13981 13988 14014 14002 14043 14029 13993 14068 14049 14052 14080 14150 14125 14092 14048 14059 14096 14064 14116 14115 14071 14098 14130 14086 14093 14122 14120 14091 14100 14082 14143 14109 14139 14151 14149 14087 14082 14128 14151 14133 14132 14141 14136 14122 14107 14065 14125 14127 14165 14154 14058 14122 14103 14130 14141 14117 14120 14123 14166 14132 14158 14119 14167 14123 14128 14114 14098 14113 14097 14158 14089 14142 14160 14118 14135 14144 14135 14099 14131 14151 14170 14148 14170 14142 14083 14169 14170 14157 14145 14144 14133 14186 14098 14086 14184 14162 14090 14153 14115 14131 14123 14115 14155 14159 14143 14119 14162 14127 14199 14135 14204 14129 14113 14128 14076 14159 14130 14140 14149 14096 14155 14200 14120 14151 14184 14132 14073 14085 14122 14118 14125 14142 14153 14172 14073 14118 14134 14136 14075 14094 14067 14049

Tree=0
num_leaves=127
num_cat=0
split_feature=245 0 115 260 0 245 0 132 256 186 45 205 232 257 214 7 204 248 260 7 25 6 45 7 131 22 173 131 7 7 0 96 0 52 168 210 70 37 97 47 212 14 226 211 138 26 32 4 7 217 164 245 190 4 175 191 180 41 74 54 83 47 7 175 247 261 131 258 0 131 173 18 37 3 163 238 27 45 115 48 7 28 108 48 228 47 0 37 256 49 168 168 158 200 2 197 231 145 12 142 172 109 0 82 97 245 0 158 257 226 16 0 28 28 7 84 148 64 151 258 99 6 0 77 7 157
split_gain=4324.44 1020.17 930.002 383.365 200.672 196.943 132.918 91.345 85.3975 75.1109 67.9225 56.7184 56.6493 55.4043 42.3161 42.116 42.01 36.482 35.6111 34.0661 32.9155 31.6587 29.667 28.2001 33.3648 31.4107 27.5038 26.0149 25.5783 24.582 24.5338 35.5212 43.7358 24.2834 24.0208 38.3468 22.5386 21.758 21.707 21.6688 25.4164 20.0035 19.8614 19.2118 19.0236 18.8123 18.0805 18.73 17.6847 17.5346 17.3909 18.9037 21.8997 17.131 20.8143 16.6727 16.3191 15.9783 15.8943 15.8209 30.2676 15.5489 15.4789 19.6736 15.9194 23.1358 15.2473 14.9791 14.759 20.4158 14.4386 15.432 14.4318 18.22 14.0164 13.4449 13.0728 12.9458 12.3726 12.357 11.968 11.9439 11.8969 11.8834 11.8166 12.6429 11.7248 11.5894 11.5685 11.2621 16.7096 14.6981 12.7214 13.2501 12.177 11.7334 11.9226 15.2552 11.2007 11.0241 12.3704 14.5112 10.9789 10.9321 10.8373 10.7009 10.6288 15.6955 10.6054 10.5802 10.5586 10.4515 10.6786 10.4877 9.95058 11.8366 9.91229 17.2144 9.90497 9.73243 10.1192 9.69016 9.64844 10.4393 9.59544 9.45398
threshold=0.11500245332717897 -35.185194840210549 0.119442455470562 0.060140881687402732 73.729774335487505 0.48494715988636022 -151.98292252787266 0.013983183540403845 0.16584716737270358 -0.044455057010054581 -0.18049603700637815 -0.12024046480655669 0.24157883971929553 0.36565695703029638 0.082514435052871718 8.9394744407920346 -0.0066772587597370139 -0.0031112208962440486 0.038102068006992347 6.5031471228124635 -0.3200132399797439 1.5000000000000002 -0.36528028547763819 8.3576981074086998 0.2021470591425896 -0.52710798382759083 0.1481207758188248 0.0081420587375760096 11.97992830681836 9.5671561991463125 189.67211752429037 -0.03407530486583709 8.1070428185834107 -0.018497348763048645 -0.027837121859192845 -0.020525548607110974 0.25996214151382452 -0.067723639309406267 0.021504543721675876 -0.075341969728469835 0.15335931628942492 0.048106275498867042 0.017797416076064113 0.02355042286217213 0.045066896826028831 -0.057966336607933037 0.076933942735195174 1.0000000180025095e-35 1.9992259598603517 -0.37108071148395533 0.017576524987816814 0.32671006023883825 -0.0075052103493362657 1.0000000180025095e-35 0.02703158184885979 -0.021248258650302883 0.18760088086128238 -0.06458235532045363 -0.050072364509105675 0.10383957624435426 -0.071442138403654085 -0.064548991620540605 11.248983169618166 0.023905348964035514 -0.053525917232036584 -0.025402168743312355 -0.044396921992301934 0.14520160108804706 128.39986763315406 0.046627536416053779 -0.09551848471164702 0.017615921795368198 -0.04231456667184829 8.7349854985000039 -0.085490472614765153 0.058385720476508148 -0.019009742885828015 -0.10753860697150229 -0.072670008987188325 -0.045773260295391076 10.097497884012872 -0.0081094405613839609 -0.097894150763750062 -0.093842968344688402 0.0012891665101051333 0.0030515179969370369 -86.22780420133175 0.01587588340044022 0.003553770482540131 -0.014134858734905718 -0.016257707029581066 1.0000000180025095e-35 -0.037104558199644082 0.059061966836452491 0.77500000000000013 0.034874785691499717 -0.2130165100097656 -0.03163779899477958 -0.043274784460663789 -0.038771277293562882 0.013826305046677591 -0.013947354629635809 210.20769875077636 0.050536103546619422 0.07195241749286653 0.21668487787246707 283.53217541210103 -0.051918191835284226 0.16511608660221103 0.006620146334171296 -0.0087421564385294897 130.57563453558149 0.00093343638582155119 -0.0078297862783074362 3.8590530909029792 -0.025986840017139908 0.035921812057495124 0.065117362886667265 -0.023495062254369255 0.089332647621631636 -0.047492012381553643 1.5000000000000002 359.04793232536696 0.048810403794050224 3.8590530909029792 0.24234341830015185
decision_type=2 2 2 2 2 2 2 2 2 2 2 2 2 2 2 2 2 2 2 2 2 2 2 2 2 2 2 2 2 2 2 2 2 2 2 2 2 2 2 2 2 2 2 2 2 2 2 2 2 2 2 2 2 2 2 2 2 2 2 2 2 2 2 2 2 2 2 2 2 2 2 2 2 2 2 2 2 2 2 2 2 2 2 2 2 2 2 2 2 2 2 2 2 2 2 2 2 2 2 2 2 2 2 2 2 2 2 2 2 2 2 2 2 2 2 2 2 2 2 2 2 2 2 2 2 2
left_child=1 6 3 10 9 13 26 14 48 36 20 19 -10 39 21 18 43 42 68 109 33 23 -9 24 41 -26 44 49 38 59 31 32 -16 -2 -31 -36 99 56 46 40 -4 104 -8 74 -1 114 47 77 -7 -17 51 52 62 54 124 88 -25 119 72 -15 82 -39 63 -24 65 -65 -40 -22 -12 -70 71 -51 73 -23 -11 80 -63 -13 -19 -55 -32 -68 -61 -80 -45 -86 -85 -48 -21 94 92 -92 93 95 -20 96 -91 -98 -73 -3 101 -101 -54 122 108 -74 107 -53 -5 118 -94 112 113 -93 -18 -116 117 121 -6 120 -57 -33 123 -100 -47 -52
right_child=2 4 5 7 11 8 17 22 12 16 15 28 -14 29 30 27 45 78 89 55 67 58 50 37 25 -27 -28 -29 -30 34 75 116 -34 -35 35 -37 -38 61 66 -41 -42 -43 -44 84 -46 53 87 -49 -50 70 125 106 102 79 -56 57 -58 -59 -60 60 -62 76 -64 64 -66 -67 81 -69 69 -71 -72 98 105 -75 -76 -77 -78 -79 83 -81 -82 -83 -84 86 85 -87 -88 -89 -90 90 91 111 110 -95 -96 -97 97 -99 103 100 -102 -103 -104 -105 -106 -107 -108 -109 -110 -111 -112 -113 -114 -115 115 -117 -118 -119 -120 -121 -122 -123 -124 -125 -126 -127
leaf_value=0.5902454214304389 0.62935716777445416 0.60525292393629271 0.60138578835240608 0.60614353708754887 0.60274514513637456 0.68505096191472015 0.59699340041520177 0.66894582008050418 0.68634558637326171 0.61467041133545852 0.60757764854393548 0.61063087598561261 0.73852734867052439 0.63952329761835303 0.67987245804085417 0.64297563223209264 0.60261321736959039 0.58924342581670242 0.60652694532756812 0.62109646126050633 0.61740677872294814 0.65683759854624157 0.61633871262157947 0.66391620021607933 0.61643580968580702 0.66101211891140133 0.58574857356176424 0.64465864582471055 0.61398690522838328 0.65118980816035277 0.66510563715299509 0.62232426747424274 0.62783414292845185 0.66657312446907457 0.65632645753572605 0.70087664267271055 0.64033658776497449 0.61324240003394215 0.60817651442507092 0.65070839581615592 0.63769492290946816 0.63444287378499942 0.60500702560880348 0.62391586791536779 0.61514118416586616 0.59485329423272026 0.6300963407524276 0.60519284764590453 0.65288449624543554 0.64284616976256936 0.62675517894955368 0.63504083055744809 0.63876809914181165 0.60282877971609028 0.62007694395642077 0.62744012618720013 0.63061195867002395 0.60624810295013176 0.62541441807618681 0.63577751421505535 0.68634558843781501 0.64713337201344567 0.6221839466526935 0.65406086318810941 0.65772754906142095 0.61888121316811318 0.60866805676389879 0.62869575698205704 0.61195589269281825 0.63324571230200477 0.60769708759355912 0.62697775993824012 0.64491757084478096 0.63160392160977197 0.60136849713205742 0.63002937715807794 0.62015082176261838 0.60048469960074968 0.60053619038828276 0.59872403943014052 0.6415371595082523 0.63123652816308162 0.66239501521447453 0.59284453304352291 0.60773255679635119 0.59487700385293352 0.59516709398930046 0.60866805667708734 0.64880144668117534 0.61691382513047688 0.61033575175656918 0.60983321966239645 0.6146977212305953 0.64051584390335914 0.62808743892157226 0.60641540836267405 0.62437490998399048 0.64644188768632105 0.61635317390514022 0.63854884848740401 0.60274514533064794 0.61185283528714907 0.66354347343517117 0.63444287346274497 0.60876461713141428 0.62314742058743755 0.66752372392524695 0.6631232421990555 0.6214671950941737 0.61194835772661338 0.63382498356349326 0.6265026388909144 0.59934675327902232 0.63103382819790199 0.62614550059584384 0.60025299104826002 0.61034518519879055 0.65050799896590972 0.61529995888358568 0.6292937944708128 0.61102987348797377 0.63694457264958082 0.62925260186058196 0.60284224205644876 0.60176338754351211 0.64375240769067199
leaf_weight=11637.857257843018 95.633466720581055 213.33619499206543 73.564205169677734 147.12841033935547 809.20625686645508 77.242415428161621 5583.52317237854 91.955256462097168 95.633466720581055 202.30156421661377 2541.6432886123657 342.07355403900146 114.02451801300049 165.5194616317749 77.242415428161621 77.242415428161621 1497.0315752029419 1360.9377956390381 430.35060024261475 73.564205169677734 566.44437980651855 150.80662059783936 73.564205169677734 73.564205169677734 77.242415428161621 80.920625686645508 4336.6098947525024 110.3463077545166 831.2755184173584 106.66809749603271 117.70272827148438 456.09807205200195 84.598835945129395 80.920625686645508 88.277046203613281 106.66809749603271 95.633466720581055 165.5194616317749 2063.4759550094604 136.09377956390381 139.7719898223877 121.38093852996826 897.48330307006836 99.311676979064941 77.242415428161621 4682.3616590499878 106.66809749603271 11623.144416809082 95.633466720581055 73.564205169677734 316.32608222961426 114.02451801300049 73.564205169677734 2122.3273191452026 88.277046203613281 143.45020008087158 73.564205169677734 239.08366680145264 625.29574394226074 91.955256462097168 73.564205169677734 95.633466720581055 183.91051292419434 88.277046203613281 139.7719898223877 99.311676979064941 102.98988723754883 610.5829029083252 2600.4946527481079 117.70272827148438 257.47471809387207 360.4646053314209 77.242415428161621 136.09377956390381 9397.8272104263306 77.242415428161621 84.598835945129395 3884.1900329589844 706.21636962890625 13473.284176826477 99.311676979064941 136.09377956390381 77.242415428161621 11457.624955177307 1611.0560932159424 217.01440525054932 10335.770826339722 154.48483085632324 77.242415428161621 239.08366680145264 963.69108772277832 128.73735904693604 665.7560567855835 128.73735904693604 77.242415428161621 91.955256462097168 250.1182975769043 114.02451801300049 691.5035285949707 114.02451801300049 73.564205169677734 91.955256462097168 114.02451801300049 80.920625686645508 665.7560567855835 209.65798473358154 95.633466720581055 88.277046203613281 485.52375411987305 1360.9377956390381 80.920625686645508 320.00429248809814 91.955256462097168 106.66809749603271 102.98988723754883 77.242415428161621 80.920625686645508 80.920625686645508 194.945143699646 242.76187705993652 272.18755912780762 150.80662059783936 110.3463077545166 180.23230266571045 562.76616954803467 110.3463077545166
leaf_count=3164 26 58 20 40 220 21 1518 25 26 55 691 93 31 45 21 21 407 370 117 20 154 41 20 20 21 22 1179 30 226 29 32 124 23 22 24 29 26 45 561 37 38 33 244 27 21 1273 29 3160 26 20 86 31 20 577 24 39 20 65 170 25 20 26 50 24 38 27 28 166 707 32 70 98 21 37 2555 21 23 1056 192 3663 27 37 21 3115 438 59 2810 42 21 65 262 35 181 35 21 25 68 31 188 31 20 25 31 22 181 57 26 24 132 370 22 87 25 29 28 21 22 22 53 66 74 41 30 49 153 30
internal_value=0.602426 0.598343 0.623858 0.620817 0.602801 0.662522 0.59283 0.631075 0.693273 0.600412 0.615719 0.606461 0.714725 0.651418 0.627433 0.614407 0.600107 0.594776 0.612958 0.612401 0.626283 0.624464 0.64138 0.62072 0.617459 0.639242 0.58915 0.621081 0.605408 0.65944 0.63536 0.63138 0.652671 0.646414 0.670265 0.680703 0.618123 0.63116 0.60502 0.635119 0.625175 0.615032 0.598103 0.602563 0.59041 0.598854 0.604371 0.604156 0.667257 0.619661 0.639687 0.643089 0.638962 0.598446 0.596 0.619904 0.647264 0.617319 0.630929 0.651443 0.65957 0.624307 0.634194 0.639703 0.644954 0.635436 0.609561 0.623263 0.610317 0.612878 0.618634 0.620515 0.636938 0.644868 0.601649 0.647944 0.634468 0.601306 0.593873 0.599283 0.65432 0.621515 0.647929 0.594153 0.607119 0.606206 0.593946 0.61742 0.635287 0.616724 0.617828 0.61425 0.621498 0.625781 0.609808 0.623053 0.625589 0.631285 0.619361 0.613813 0.620345 0.626631 0.653828 0.616779 0.613218 0.629009 0.653788 0.647295 0.617904 0.609076 0.616771 0.620077 0.613796 0.61944 0.603949 0.615049 0.626898 0.628846 0.605183 0.621339 0.616694 0.625957 0.615323 0.61356 0.595595 0.631151
internal_weight=123544 103773 19770.4 18328.5 57380.1 1441.86 46393.3 6083.76 382.534 34722.3 12244.8 22657.8 209.658 1059.32 4494.77 10891.2 34133.8 30341.6 8949.09 3413.38 1353.58 3269.93 1588.99 2070.83 1577.95 158.163 16051.7 1942.1 19244.4 709.895 1224.84 930.587 161.841 176.554 301.613 194.945 588.514 492.88 18413.1 349.43 213.336 1419.79 6481.01 11527.5 11715.1 22606.3 16110.6 15849.4 172.876 1831.75 1497.03 1070.36 772.424 20929 5333.4 1048.29 147.128 897.483 1199.1 408.281 242.762 345.752 584.835 400.925 327.361 187.589 2302.56 1177.03 5259.84 2718.2 1754.51 1497.03 573.801 286.9 9600.13 294.257 180.232 4226.26 23860.5 15595.6 217.014 239.084 169.198 22499.6 1927.38 1828.07 21793.4 261.153 150.807 3689.24 3181.65 1611.06 1570.6 823.919 507.593 695.182 603.226 364.143 1423.47 492.88 279.544 205.98 187.589 1063 1298.41 286.9 297.935 202.302 632.652 2365.09 746.677 647.365 327.361 235.405 1677.26 180.232 768.746 687.825 1004.15 658.4 415.638 606.905 982.082 871.736 5245.13 426.672
internal_count=33588 28213 5375 4983 15600 392 12613 1654 104 9440 3329 6160 57 288 1222 2961 9280 8249 2433 928 368 889 432 563 429 43 4364 528 5232 193 333 253 44 48 82 53 160 134 5006 95 58 386 1762 3134 3185 6146 4380 4309 47 498 407 291 210 5690 1450 285 40 244 326 111 66 94 159 109 89 51 626 320 1430 739 477 407 156 78 2610 80 49 1149 6487 4240 59 65 46 6117 524 497 5925 71 41 1003 865 438 427 224 138 189 164 99 387 134 76 56 51 289 353 78 81 55 172 643 203 176 89 64 456 49 209 187 273 179 113 165 267 237 1426 116
is_linear=0
shrinkage=1


Tree=1
num_leaves=127
num_cat=0
split_feature=245 0 173 260 0 189 0 46 154 1 186 205 206 160 204 210 45 245 248 14 87 7 214 116 132 7 173 132 3 112 37 7 160 10 7 126 93 97 94 138 211 1 94 0 263 11 0 208 7 131 27 63 210 32 4 175 108 59 225 43 87 191 4 206 117 3 61 232 163 49 163 153 256 1 133 186 4 6 217 142 8 19 138 7 193 109 218 238 68 45 245 262 14 125 0 81 124 0 91 47 119 215 23 230 86 222 47 255 263 33 151 103 225 226 226 136 226 129 119 160 249 261 169 217 180 7
split_gain=4037.8 983.295 814.009 290.404 190.353 168.043 130.371 99.3268 90.8184 76.7596 70.567 52.991 46.1954 40.4291 40.1831 38.2405 42.5363 35.7324 35.4218 32.6958 31.7116 31.2703 28.7392 28.3824 39.378 28.0079 27.2899 25.7408 24.3055 24.1926 27.4404 24.011 21.9921 27.1225 20.4203 20.0697 19.8938 19.1823 18.4308 18.3022 18.1913 18.0097 17.6085 17.5671 17.5128 16.8165 16.3555 16.2322 16.232 16.1997 16.1861 18.0397 19.4232 16.034 16.0306 17.2915 15.8173 15.6623 15.2698 14.9535 14.9259 14.8229 14.7506 14.7029 14.3236 13.3972 16.8952 36.1485 13.2064 12.9522 12.7538 12.3186 12.6663 12.9668 13.5957 23.9683 12.1609 16.1156 12.0792 15.8878 13.8019 13.3005 11.9697 31.6897 22.1352 14.5513 12.7374 11.6926 11.3976 11.3851 11.3739 13.6217 11.7453 16.3984 11.3389 11.2852 11.2401 11.7219 11.1355 11.6747 11.0022 13.3317 11.2458 10.9478 13.6513 22.8461 10.7612 10.6684 10.5987 10.6344 10.5546 10.4804 10.2526 9.89383 9.87032 9.74386 12.2696 9.98974 20.2824 13.2937 14.137 18.4997 10.0334 9.84037 9.63337 9.62475
threshold=0.11500245332717897 -35.185194840210549 -0.22114378958940503 0.17777491360902789 73.729774335487505 -0.15096829086542127 -151.98292252787266 0.074878465384244933 -0.43752710521221155 2.3416666666666672 -0.044455057010054581 -0.12024046480655669 -0.037961641326546662 0.028740034438669685 -0.0066772587597370139 -0.0094169308431446535 -0.36528028547763819 0.36472292244434362 -0.0031112208962440486 0.026454959064722065 0.11903564631938936 6.5031471228124635 0.076774138957262053 0.029553744941949848 -0.02463392540812492 8.9394744407920346 0.1481207758188248 -0.035975880920886986 9.3569458645000037 -0.016085035167634484 -0.013500168919563292 11.248983169618166 0.0061069838702678689 -0.067831195890903459 7.344587918423926 0.1600308567285538 0.023242373019456867 0.020614594221115116 -0.32721461355686182 0.045066896826028831 0.02355042286217213 1.1833333333333336 0.10937507823109628 151.41471590140728 0.061123348772525794 -0.018432155251502987 173.19954662498836 -0.016486324369907376 11.58178958903301 -0.048503488302230828 -0.10254852473735808 0.033321063965559013 -0.0026605176972225304 0.076933942735195174 1.0000000180025095e-35 0.02703158184885979 -0.00053204153664410103 0.015153964981436731 0.029509596526622776 0.0030320123769342904 0.02658917382359505 -0.021248258650302883 1.0000000180025095e-35 -0.048263398930430405 0.11779137328267099 5.2305296835000012 -0.018571583554148671 0.17559125274419787 -0.087242987006902681 -0.028503151610493657 0.11903704702854158 -0.11955375969409941 -0.0015137791633605955 0.3999999999999998 -0.0099242329597473127 -0.039864262565970414 1.0000000180025095e-35 1.5000000000000002 -0.22778088599443433 -0.064606416970491395 -0.17465450614690778 -0.039930559694766991 0.04368132911622525 0.97872388012150136 -0.05040867626667022 -0.17274158447980878 -0.1673258692026138 0.051336459815502174 0.037548929452896125 -0.10753860697150229 0.13756927102804187 -0.047291174530982964 0.027996089309453968 0.04902546480298043 201.57369469564654 -0.096626114100217805 -0.08991175144910811 15.636955256517128 -0.0061350949108600608 0.0030515179969370369 -0.076335664838552461 0.10453317314386369 -0.1577448099851608 -0.12229494005441664 -0.0091658588498830778 -0.011418087407946585 -0.062730148434638963 0.012124020606279375 0.11449577286839487 -0.11246531456708907 0.081590041518211379 0.14679528772830966 0.032821658998727805 -0.00016457960009574887 0.006620146334171296 -0.049339145421981805 0.033637117594480521 -0.14538200199604032 -0.054336426779627793 -0.0010973964817821977 0.0013075955212116244 -0.0086961584165692312 0.11153925582766534 -0.43377560377120966 0.066348794847726836 -0.40215185048296848
decision_type=2 2 2 2 2 2 2 2 2 2 2 2 2 2 2 2 2 2 2 2 2 2 2 2 2 2 2 2 2 2 2 2 2 2 2 2 2 2 2 2 2 2 2 2 2 2 2 2 2 2 2 2 2 2 2 2 2 2 2 2 2 2 2 2 2 2 2 2 2 2 2 2 2 2 2 2 2 2 2 2 2 2 2 2 2 2 2 2 2 2 2 2 2 2 2 2 2 2 2 2 2 2 2 2 2 2 2 2 2 2 2 2 2 2 2 2 2 2 2 2 2 2 2 2 2 2
left_child=1 6 3 7 10 25 26 9 15 13 35 21 20 71 40 -5 27 19 37 -9 32 114 57 56 -25 44 39 -17 -18 87 45 36 33 -7 59 -3 53 -8 -21 -1 68 54 -26 47 -4 -31 -35 78 95 -38 -46 52 -52 62 55 -16 -15 -11 -53 96 -36 107 70 -63 -45 -19 -67 103 -12 125 89 -2 -73 -74 -75 -76 110 -78 79 -22 -81 -82 85 -84 -85 -40 -87 -27 -62 -13 -66 92 -92 112 -90 -34 -14 -98 -42 -100 101 108 106 -68 -105 -106 -102 -23 -47 -110 -20 -83 -94 -71 -6 116 -60 123 -119 -120 -121 -122 -123 -118 -33 -56
right_child=2 4 5 8 11 12 18 17 -10 22 14 31 34 23 41 16 28 65 76 38 43 61 -24 24 42 29 -28 -29 -30 30 -32 124 48 46 60 -37 49 -39 82 -41 98 -43 -44 64 50 100 -48 -49 -50 -51 51 58 -54 -55 69 -57 -58 -59 115 -61 88 63 -64 -65 90 66 67 -69 -70 113 -72 72 73 74 75 -77 77 -79 -80 80 81 111 83 84 -86 86 -88 -89 94 -91 91 -93 93 -95 -96 -97 97 -99 99 -101 102 -103 -104 104 105 -107 -108 -109 109 -111 -112 -113 -114 -115 -116 -117 117 118 119 120 121 122 -124 -125 -126 -127
leaf_value=-0.012025878331666781 0.036205923909051307 0.011567711086797619 0.014525381055500282 0.11425168639025261 0.0026799488105708393 0.052147119001398068 -0.0052776909688805607 0.066377545524094958 0.0265538192169688 0.05060027770848527 0.012295595349413017 0.0076594406698202002 0.0032763559921346213 0.034414301583006353 -0.0068760613336787306 0.10889134668618983 0.076058219179640896 0.071264160796604942 -0.009619906670745082 0.057520828354676534 0.0062731613300211035 0.017508732869586242 0.066218843586929962 0.073885818823092295 0.049560265347530302 0.060019202067241664 -0.016540647603489094 0.072588800328642539 0.037273079973223405 0.047405687297406796 0.052592614162982665 0.0088481495321770208 0.01109621190269445 0.017315474992834503 0.029590633082770518 0.039087651392398226 0.0055577167602263583 0.0028888566331689964 0.026110375584336751 0.012240526212903091 0.022548889007770283 0.00028483291328545334 0.019334411620163937 0.026662416096878635 0.04008344204348499 0.014255065769848843 0.043028615686870809 0.031810053104847039 0.035570336176471588 0.02211111246646856 0.019848471017649822 -0.00062392464575023419 0.052699685925956176 0.014180124989569024 -0.0033204020269373374 0.015266870256702281 0.0058574388652429931 0.019028174236112413 0.041849494310975378 0.028292837722528164 0.029611484450153592 0.01921873575665391 0.0025315276018405691 0.006094451475188418 0.0093566565660350137 0.032642284471963087 0.032133616234960423 0.083620558145783008 -0.0010224901217206908 -0.0049297026634040272 0.011907234990458766 0.011791035290146726 0.010023093951693977 0.0079721128862046669 0.023031360013978562 0.052898052727922168 -0.0067425453937716975 -0.0099289973031874302 0.0039051614358630257 0.002937055257543026 0.03696664386353956 0.023432429293923071 0.066921279222275906 0.019108001833560543 0.051849659172670398 0.051852568425582203 0.031280659912318431 0.034641064322345379 0.0041147306949153783 -0.0023584652416692399 0.015674157848344149 -0.00089896565931204446 0.01976751401409798 0.0114182204966062 0.016801026114566367 0.028291172551459104 0.0032717584115651861 0.010506217038260095 0.0052635229325704207 -0.006680275229535038 0.017120154413545856 0.043119467936348854 0.0042498242332028235 0.034499671398091424 0.044796310771669068 0.078328625666368723 0.033056807052509289 0.043683303016892806 0.021387113909110286 0.046290815180991818 -0.016132071660349197 0.0043084027062781378 0.042803940240275062 -0.001929198817292003 0.0091965044191180661 0.012425303941865501 0.025239707745683931 0.049096182430531654 0.0057507238675664242 0.016815973109467593 0.050998110031675641 0.016519096564977947 0.039127734581816877 0.0086010982530974264 0.027098435779130403 0.002730141869625927
leaf_weight=11496.957818031311 87.654353141784668 522.02138876914978 808.03673481941223 80.52864146232605 1006.9353497028351 113.02167677879333 5628.702728509903 92.098384857177734 84.658211469650269 80.870171308517456 189.89970445632935 307.79926919937134 1535.2800793647766 99.588871002197266 4893.2771012783051 103.57415771484375 82.765469074249268 77.528716325759888 4891.7250761985779 88.645922660827637 599.63167238235474 75.582222461700439 143.33081769943237 84.586869478225708 88.05002498626709 84.267874479293823 4264.8850035667419 92.385327100753784 78.902011871337891 76.140425205230713 95.580218076705933 991.76260542869568 542.79028749465942 246.76863718032837 151.59896206855774 75.879755020141602 2366.1447701454163 824.37043595314026 564.39345741271973 78.230815887451172 82.31641960144043 2763.388108253479 106.42229843139648 266.06239414215088 134.02614688873291 154.79349136352539 82.525418758392334 78.567330360412598 101.82186532020569 157.64678978919983 86.172673225402832 82.626394033432007 94.158374547958374 257.63027477264404 1208.8040156364441 89.784212350845337 94.503469228744507 76.383847951889038 83.234901666641235 81.886818408966064 86.332388877868652 569.83290123939514 11350.182598590851 341.16209745407104 763.47217226028442 122.66938996315002 93.04304575920105 82.06560206413269 9402.7853047847748 7924.7973048686981 183.74096393585205 617.14403080940247 162.11241006851196 79.264962673187256 253.86212301254272 91.344976425170898 12163.620780706406 5889.155900478363 798.69351005554199 118.84902024269104 112.46699213981628 212.38375639915466 92.097546577453613 132.00638937950134 84.76905632019043 125.84467005729675 187.13266849517822 98.368380308151245 357.5871205329895 3609.1282575130463 1382.5991916656494 104.47006797790527 75.117532014846802 120.00832295417786 347.10302639007568 115.77464914321899 763.31739830970764 2101.2873122692108 1619.9894642829895 234.17281889915466 353.99774885177612 122.15091729164124 110.04471111297607 81.747631072998047 123.51782774925232 86.2755126953125 151.15898537635803 80.277241945266724 98.449945449829102 75.927923202514648 712.87366056442261 108.1074845790863 135.28857636451721 4205.2279758453369 1373.9586639404297 246.94957399368286 147.79612135887146 79.810135841369629 101.37348365783691 260.53398776054382 94.952515840530396 139.06234121322632 75.832200765609741 222.85130143165588 77.993054628372192 1440.5244669914246
leaf_count=3164 23 140 216 20 273 30 1538 24 22 21 51 83 414 26 1339 25 21 20 1341 23 161 20 37 22 23 22 1179 23 20 20 25 267 145 66 40 20 640 224 148 21 22 753 28 71 35 41 22 21 27 42 23 22 25 69 329 24 25 20 22 22 23 152 3077 92 205 32 24 21 2559 2162 50 165 43 21 67 24 3335 1615 215 32 30 57 24 35 22 33 49 26 96 983 370 28 20 32 93 31 206 566 438 64 94 32 29 21 32 22 40 21 26 20 196 29 36 1147 370 66 39 21 27 69 25 37 20 59 21 392
internal_value=-2.4756e-06 -0.00399875 0.0204415 0.0388693 0.000364696 0.0149753 -0.00944968 0.0343931 0.0739631 0.026669 -0.00196824 0.00391827 0.0118835 0.0226904 -0.00226721 0.0831232 0.0761139 0.0422361 -0.007518 0.0376073 0.0148768 0.00962801 0.0500248 0.0351938 0.0454067 0.0236959 -0.0131216 0.0917765 0.0571291 0.0293625 0.0268568 0.00289839 0.0221483 0.0310132 0.00852931 0.0150603 0.00247123 -0.00423443 0.0355289 -0.0118619 0.000133516 -0.00349595 0.0330196 0.0130831 0.020666 0.0247041 0.0237595 0.00952772 0.0169916 0.00659171 0.023349 0.0220415 0.0370015 0.00180921 -0.00402462 -0.00647709 0.02051 0.0352646 0.0202841 0.00712239 0.0152186 0.0167415 0.00160294 0.0143038 0.0156166 0.0517249 0.0491544 0.053495 -0.000758841 -0.00319774 -0.000967302 0.0181092 0.0167914 0.0220523 0.0266464 0.0309344 -0.00841367 -0.00778203 0.00863 0.0119074 0.0180299 0.022173 0.0338855 0.0423505 0.0319115 0.0309054 0.0395524 0.0463505 0.0124642 -0.00157124 0.0144779 0.0166292 0.0176981 0.0261673 0.0103635 0.0141191 0.00672838 0.00857849 0.00455397 0.00375507 0.0230834 0.0290125 0.0187337 0.0470666 0.0518323 0.0585862 0.0218889 0.0309903 0.0237776 0.0322307 -0.0104482 0.0169815 0.0345797 -0.00388949 0.0064405 0.0214735 0.0233271 0.0219533 0.0252662 0.022435 0.0254003 0.0326184 0.0244973 0.0152358 0.0101787 -3.05282e-05
internal_weight=123556 103353 20202.9 4621.77 57402.6 15581.1 45950.5 4098.96 522.814 2065.12 34652.9 22749.8 11502.8 1764.53 34055 438.156 357.627 2033.84 30110.4 1366.99 6078.42 3447.75 300.585 473.152 279.059 4078.3 15840.1 195.959 161.667 1420.88 1238.24 19302 1202.7 442.316 5424.39 597.901 18232.3 6453.07 1274.89 11575.2 11529.2 22525.8 194.472 4875.72 2657.42 1142.66 329.294 2028.7 760.387 2523.79 1849.38 1715.35 180.331 15708.5 19762.4 4983.06 194.092 157.254 1535.02 4481.77 942.621 1066.85 15450.9 910.995 2847.02 666.848 589.319 466.65 9592.69 14779.4 4100.67 1291.38 1203.73 586.584 424.472 345.207 23657.4 18052.8 1950.13 1151.44 551.807 432.958 1186.24 308.873 216.775 877.371 312.977 182.636 791.023 3916.93 2580.96 1817.48 1713.01 330.414 704.69 658.565 4399.88 2864.6 1936.48 1854.16 1066.52 451.322 615.201 384.584 291.541 209.793 505.157 155.859 329.171 174.378 5604.6 320.491 210.406 12130 2380.89 1452.4 1205.45 1122.21 751.565 671.755 570.381 309.847 214.895 370.647 1069.76 2649.33
internal_count=33588 28213 5375 1206 15600 4169 12613 1075 131 545 9440 6160 3088 467 9280 109 89 530 8249 358 1628 928 78 124 73 1081 4364 48 41 375 327 5232 321 118 1460 160 4944 1762 334 3185 3134 6146 51 1307 706 302 88 545 203 682 490 455 48 4262 5393 1363 51 41 407 1208 252 285 4193 244 762 172 152 120 2610 4030 1116 343 320 155 112 91 6487 4950 524 309 148 116 311 81 57 230 82 48 212 1066 691 486 458 88 189 176 1186 772 524 502 282 119 163 99 75 54 134 41 87 46 1537 86 56 3309 643 385 319 297 199 178 151 82 57 98 288 721
is_linear=0
shrinkage=0.05


Tree=2
num_leaves=127
num_cat=0
split_feature=245 0 173 260 0 189 0 46 154 186 1 205 206 204 160 248 257 261 31 45 7 87 173 7 116 132 214 7 190 112 37 68 74 90 150 97 1 7 226 170 138 7 224 180 189 0 7 0 4 175 216 74 4 0 235 28 94 4 187 208 214 45 173 251 228 59 0 19 245 89 131 160 28 115 229 0 155 13 237 52 116 257 151 226 137 148 29 170 149 68 146 179 243 138 61 52 118 95 227 141 45 198 202 46 225 124 0 179 86 47 119 205 97 45 28 27 70 241 170 7 9 48 262 153 262 115
split_gain=3773.78 947.553 716.25 236.644 180.582 151.65 127.817 84.9309 71.3822 66.3549 65.8636 49.5421 42.3533 38.5578 35.5109 34.3799 29.8694 29.3346 50.3468 46.3687 28.7469 28.6318 27.0656 24.681 24.3046 31.99 23.3782 22.5688 21.6103 20.6987 23.4421 19.6466 19.4882 19.4522 19.4975 19.2979 18.8202 18.8084 18.5066 18.3269 17.611 17.0103 16.6174 16.1384 16.3878 16.0688 16.06 16.056 15.8624 17.7793 15.8622 17.9306 15.7204 15.4327 15.3915 16.4234 15.0785 14.7803 14.737 14.6661 13.9475 13.4729 13.463 14.4369 13.4485 13.3716 13.3558 14.0402 13.2431 14.0985 13.2012 12.6312 12.5416 12.0715 11.9331 12.8512 11.7179 11.531 11.4919 11.5798 11.446 13.2825 12.5921 12.5806 11.42 15.3462 11.4949 11.3008 11.1519 11.1333 11.0819 19.2315 15.7914 12.3607 16.0244 10.9737 13.0284 13.3103 10.9474 12.4952 17.5168 10.927 10.8387 11.2792 15.7937 10.7541 15.0182 11.1891 10.7399 11.3287 10.6902 11.597 10.6159 10.6155 10.4577 10.4521 10.3358 10.3104 10.2065 10.1105 9.93879 9.80763 13.1727 9.70068 9.72324 9.6825
threshold=0.11500245332717897 -35.185194840210549 -0.22114378958940503 0.17777491360902789 73.729774335487505 -0.15096829086542127 -151.98292252787266 0.074878465384244933 -0.43752710521221155 -0.044455057010054581 2.3416666666666672 -0.12024046480655669 -0.037961641326546662 -0.0031729079782962795 0.028740034438669685 -0.0031112208962440486 0.38797429203987127 -0.0086961584165692312 0.0080598965287208574 -0.36528028547763819 6.5031471228124635 0.11903564631938936 0.1481207758188248 8.9394744407920346 0.029553744941949848 -0.02463392540812492 0.076774138957262053 11.97992830681836 -0.0078876446932554228 -0.016085035167634484 -0.013500168919563292 0.12849777191877368 -0.040006382390856736 -0.0025423970073461528 -0.26294024288654322 0.021504543721675876 1.5416666666666672 7.344587918423926 0.017797416076064113 -0.096488833427429185 0.045066896826028831 8.9394744407920346 -0.095440320670604692 0.067925471812486662 -0.032872878015041344 151.41471590140728 10.401031718750001 193.64413996032434 1.0000000180025095e-35 0.02703158184885979 -0.05540592968463897 -0.13414898514747617 1.0000000180025095e-35 67.131118628853883 -0.04597127437591552 -0.017572714015841481 0.10937507823109628 1.0000000180025095e-35 0.29701848328113561 -0.016486324369907376 0.042189098894596107 -0.10946208238601683 -0.067058190703392015 0.04255147464573384 0.024113075807690624 0.015153964981436731 -3.6832315708825258 0.06708544492721559 0.17375487089157107 0.095604866743087782 -0.044396921992301934 -0.00054674092098139216 -0.025619140826165673 -0.072670008987188325 -0.1098889224231243 -84.545287658012271 0.096421472728252425 -0.032339036464691155 -0.0016040802001953123 0.022730676457285885 -0.015420270618051289 0.16881757229566577 -0.064920093864202486 0.034661751240491874 0.050146928057074554 0.048801831901073463 0.042933825403451926 -0.10191369056701659 -0.16218647360801694 0.037548929452896125 0.18731154501438144 -0.029764121398329731 0.18127840012311938 0.0090973433107137697 0.003938414156436921 -0.013698208145797251 0.0030372823821380739 -0.07805274054408072 -0.047491731122136109 0.035513885319232948 -0.14564301073551175 0.097697924822568907 0.054236391559243209 0.045992070809006698 0.024915767833590511 -0.08991175144910811 15.636955256517128 0.0010840855538845064 0.011261356994509699 -0.070777870714664445 -0.016544360667467114 -0.21746087074279782 0.023671947419643406 -0.077005922794342027 -0.0081094405613839609 -0.02619595360010862 -0.21366796642541883 -0.34501709043979639 -0.064047127962112413 3.8590530909029792 0.03975158371031285 -0.039656674489378922 0.071012318134307875 0.036309465765953071 -0.10073742642998694 -0.018310667946934697
decision_type=2 2 2 2 2 2 2 2 2 2 2 2 2 2 2 2 2 2 2 2 2 2 2 2 2 2 2 2 2 2 2 2 2 2 2 2 2 2 2 2 2 2 2 2 2 2 2 2 2 2 2 2 2 2 2 2 2 2 2 2 2 2 2 2 2 2 2 2 2 2 2 2 2 2 2 2 2 2 2 2 2 2 2 2 2 2 2 2 2 2 2 2 2 2 2 2 2 2 2 2 2 2 2 2 2 2 2 2 2 2 2 2 2 2 2 2 2 2 2 2 2 2 2 2 2 2
left_child=1 6 3 7 9 23 22 10 17 36 14 20 21 39 95 38 28 18 -5 -19 -6 31 40 50 58 -26 65 35 76 118 46 -7 33 34 -18 43 123 60 -8 -11 -1 98 -41 47 -45 59 71 52 49 119 51 -4 61 110 -43 -56 -27 -44 -16 80 105 -13 -22 -64 -39 -12 -59 -68 77 101 -37 -31 87 -17 -75 -76 -9 -47 121 -80 81 -23 83 -83 86 -86 -48 -36 -46 -66 92 -92 -78 -94 -95 96 -2 -98 -33 -100 -101 -70 -55 -104 117 -14 -107 112 -88 -110 -53 -112 -108 -79 -72 -114 -77 -105 -25 -15 -118 122 -50 -3 -125 -81
right_child=2 4 5 8 11 12 15 16 -10 13 26 27 37 48 24 73 32 19 -20 -21 62 45 -24 29 25 56 -28 -29 -30 30 -32 41 -34 -35 72 70 -38 64 -40 42 -42 54 57 44 88 68 84 -49 78 -51 -52 53 -54 102 55 -57 -58 66 -60 -61 -62 -63 63 -65 89 -67 67 -69 69 -71 114 -73 -74 74 75 116 90 113 79 125 -82 82 -84 -85 85 -87 108 -89 -90 -91 91 -93 93 94 -96 -97 97 -99 99 100 -102 -103 103 104 -106 106 107 -109 109 -111 111 -113 115 -115 -116 -117 120 -119 -120 -121 -122 -123 -124 124 -126 -127
leaf_value=-0.011870977420094582 0.007297634875518196 0.00049706683513570506 0.041114854424959338 0.060172524994690647 0.0062395951222489537 0.041504321936658789 -0.0052300816723379294 0.044411950207759676 0.025207357653075798 0.0090622858889361519 0.046878477557089848 0.0094435094317299462 0.0029473762207773203 -0.0073030198253592905 0.0065537065386052865 -0.012903271865177514 0.068112846903549004 0.08207649572039194 0.11033495218683845 0.040512813963888616 0.010675699505016583 0.0065539122363754664 -0.016402408512939327 0.056693468283206774 0.066855107301503514 0.045963367463126986 0.060385031215623768 0.010787716313868084 0.055348072229987035 0.0460794809210473 0.048626016108510327 0.031122531072134803 0.068152632745220543 0.027891505505428949 0.043356855855870055 0.005407688635841984 0.035811630478208789 0.026222852647378749 0.0025013515834545466 0.0032671013030596721 0.011789538173141868 0.04829924236935771 -0.0043052295147073287 0.0019767412737328586 -0.0014075462095831379 0.031983019410449336 0.011266791606203686 0.00560434023155731 0.0026586790306448241 0.015781463721161654 0.011802774508732643 0.0021549033647166229 0.0018590468607609983 0.013176264366852087 0.011221656816606633 0.037880042822317328 0.018488734323119857 -0.003735941964484533 0.033854253442544668 0.030036708298966625 0.020103445848420054 -0.002837728094126195 0.0096127565407766249 0.027474313800932439 0.0286257712722882 0.018201536730316367 0.00049405869968230387 0.016082392324221779 0.041152902801945009 0.011541316256294131 0.005652492337064937 0.020766735788604707 0.032814389811973509 -0.0024994555881702688 -0.0093909105708144813 0.002758379136106956 0.01756173758795657 0.013947485290053055 -0.0019439191908321959 0.0028997592188606753 0.0028660703465217454 0.0039899899781832551 0.034148934145749842 0.02018227449661382 0.037837320059658536 0.011232365807456552 0.040304205323990747 0.062980063945679135 0.018606460818041393 0.0094351338935946133 0.058154203607507643 0.026146794354064942 0.04851489553678312 0.041561097346626899 0.021706295127867363 0.032531682713627712 0.035146317388260233 0.016744527483334656 0.0076175073989087618 0.039120542742671634 0.012822073116100766 0.02195182714143052 0.01197696127355178 0.027386615024052614 0.023652218844513476 0.0017910234264289231 0.0055850878027223581 0.028681294575617855 0.01220873226868591 0.034273833430414791 0.034363824925919093 0.0094172095443861778 0.018323577028016787 0.004851128161975431 0.02645409353307774 0.0084965524797014757 -0.0074229690599063522 0.052239647717292365 0.033294333736074704 2.9874378309977067e-05 0.004066550749776977 -0.0048305527732391274 -0.0068487025922516044 0.008654397890386677 0.025408652648229686 0.022103320705777335
leaf_weight=11359.524645805359 319.04727745056152 157.93838596343994 111.45800447463989 87.645213842391968 2396.2900438308716 107.78853273391724 5525.7404265403748 176.1956353187561 86.936322689056396 508.97641515731812 85.067522287368774 239.25696229934692 1533.6627397537231 4353.4708497524261 103.55934572219849 1329.0297594070435 100.60025382041931 152.00303411483765 116.5249228477478 120.1369788646698 561.89324998855591 740.84276342391968 4194.9211757183075 80.345685958862305 91.073317050933838 92.523752450942993 153.14331722259521 849.31398010253906 114.1220235824585 125.51343154907227 100.74156475067139 96.511647701263428 94.104338884353638 149.8460648059845 233.18528294563293 2086.8504688739777 88.224291086196899 197.83704113960266 900.08944320678711 2318.8052215576172 79.194287538528442 77.944978952407837 3130.475997209549 522.2710018157959 85.390828132629395 75.68785548210144 361.53533506393433 2006.0061466693878 1087.7495877742767 91.108928918838501 511.84700965881348 172.32326436042786 9594.0873506069183 263.11960744857788 134.53192615509033 101.26088356971741 108.49993205070496 2107.3019306659698 94.575105428695679 81.106735706329346 191.39731097221375 3351.2891061306 165.49551033973694 357.52811861038208 85.118266820907593 77.851210832595825 6225.4861633777618 147.87961316108704 88.660317897796631 296.9432852268219 104.98082447052002 81.147468090057373 167.40784358978271 944.92521739006042 11328.92780828476 268.2360212802887 254.77104377746582 1576.9758639335632 5319.9982213973999 613.07602334022522 642.70750331878662 202.98928618431091 87.320400476455688 293.25812983512878 179.5215106010437 77.644851446151733 78.300756216049194 107.050128698349 376.41825103759766 674.16912913322449 89.174387216567993 99.066111326217651 100.21247673034668 161.16797018051147 275.05846953392029 108.959148645401 112.54580163955688 774.52640008926392 417.60702013969421 92.259855031967163 201.85205459594727 451.03692150115967 167.09129476547241 81.392863035202026 1125.1718244552612 694.95866370201111 918.97402453422546 79.423575878143311 182.24527406692505 85.443912267684937 76.867080450057983 118.26034784317017 487.80101323127747 402.62269234657288 142.34636974334717 607.6370108127594 9396.0252695083618 85.637641668319702 110.97041654586792 526.96917128562927 192.06932926177979 6925.4457948207855 547.81377959251404 216.52350115776062 144.31330490112305 73.509693384170532
leaf_count=3164 84 42 28 20 643 28 1518 44 22 137 21 64 412 1199 27 370 24 34 26 29 148 198 1179 20 22 23 37 226 28 32 25 25 23 38 57 561 23 51 244 629 21 20 854 141 23 20 94 543 296 24 135 45 2594 69 35 26 28 574 24 21 51 914 44 93 22 20 1696 40 23 78 28 21 42 261 3135 74 65 416 1454 167 172 54 23 77 46 20 20 26 101 179 22 25 25 41 70 28 29 202 110 24 53 118 44 21 291 187 245 21 47 22 20 31 130 107 37 162 2594 22 28 144 53 1897 149 57 38 20
internal_value=-4.71949e-06 -0.00391578 0.019517 0.0364201 0.000355114 0.0143806 -0.00930377 0.0323781 0.0668713 -0.00192343 0.0253034 0.00380544 0.011448 -0.00221615 0.021617 -0.00738743 0.0394509 0.0744758 0.0888015 0.0637281 0.00929683 0.014288 -0.012967 0.022554 0.0331026 0.0422717 0.0463593 0.00281792 0.034591 0.0277876 0.0254815 0.0211148 0.046692 0.044028 0.0480034 0.00245221 0.0144624 0.00824526 -0.00414711 -0.000256799 -0.0117072 0.0191559 -0.000597302 0.00183889 0.00804408 0.0125886 0.0234909 0.00143691 -0.00366406 -0.00610271 0.0197312 0.0215747 0.000802846 0.0205325 0.0290374 0.0226701 0.0311343 -0.00136904 0.019585 0.0092002 0.00689529 -0.00201936 0.0160494 0.0218225 0.0146118 0.0331751 -0.000285207 0.000855751 0.0149885 0.0202917 0.00670218 0.0361402 0.0440183 -0.008275 -0.00799705 -0.00824226 0.0325412 0.0128297 -0.00283181 -0.00115524 0.00834109 0.010998 0.0166398 0.0135588 0.0207812 0.0298046 0.0175014 0.049531 0.0149058 0.0115865 0.0304058 0.0413095 0.0278116 0.0326796 0.0290418 0.0173355 0.0159627 0.0190792 0.0153202 0.0131773 0.0210716 0.0251061 0.0225171 0.0242013 0.025782 0.00631043 0.0081599 0.0102738 0.0240161 0.0192517 0.01123 0.0192445 0.00954801 0.0120974 0.0176246 0.0128725 -0.00692199 0.0401289 0.0431211 -0.00651125 -0.00719281 -0.00400812 -0.000525713 0.0108317 0.0153551 0.0049558
internal_weight=123567 102943 20624 4806.58 57424.5 15817.5 45518.7 4243.33 563.246 34585.1 2121.37 22839.4 11640.9 33978.1 1805.31 29885 2121.96 476.31 204.17 272.14 3481.21 6169.91 15633.6 4176.58 490.231 292.097 316.062 19358.2 1269.77 1463.41 1272.09 1229.76 852.194 758.09 608.244 18508.9 606.999 5470.98 6425.83 14438.9 11438.7 1121.97 13929.9 16174.7 984.08 4940.15 1171.35 15190.6 19539.1 4971.55 2713.17 2201.32 13184.6 2089.86 313.738 235.793 201.024 11611.1 198.134 2048.22 4513.85 3590.55 1084.92 523.024 957.124 162.919 8480.67 6373.37 2891.93 836.641 2334.18 206.661 507.643 23459.2 22130.2 21185.3 1155.65 2055.29 14567.6 6006.58 1967.12 1324.41 583.568 496.247 964.692 257.166 707.525 340.235 461.809 759.287 979.45 188.24 791.21 536.439 436.226 1315.08 1206.12 887.072 808.231 711.719 294.112 539.697 1722.41 1459.29 1292.2 4322.46 2788.79 2093.84 345.99 267.689 367.451 195.127 2014.41 1979.6 247.327 1095.44 9856.33 167.031 191.316 4880.44 9588.09 8561.01 1635.56 518.775 360.837 686.586
internal_count=33588 28213 5375 1206 15600 4169 12613 1075 131 9440 545 6160 3088 9280 467 8249 530 109 46 63 928 1628 4364 1081 124 73 78 5232 320 375 327 321 210 187 149 5006 160 1460 1762 3930 3185 293 3793 4380 265 1307 302 4115 5350 1367 706 571 3572 543 81 61 51 3164 51 545 1208 978 285 137 252 41 2310 1736 762 219 626 53 125 6487 6117 5856 292 543 3983 1641 524 352 154 131 249 66 183 83 124 201 248 47 201 136 111 343 315 231 212 187 77 141 447 378 334 1157 745 558 89 69 96 51 537 523 65 292 2721 43 48 1343 2647 2342 445 137 95 187
is_linear=0
shrinkage=0.05


Tree=3
num_leaves=127
num_cat=0
split_feature=245 0 173 260 0 189 0 46 186 11 154 205 206 204 248 234 190 2 173 7 87 257 210 45 260 7 7 164 238 4 14 148 28 160 10 47 70 3 97 93 26 7 138 211 132 164 74 90 180 4 175 0 45 104 263 212 157 112 131 101 114 63 7 57 116 103 18 0 43 4 180 163 117 87 163 4 6 87 258 32 27 192 48 106 191 256 131 257 151 25 160 166 240 231 45 262 104 201 22 124 142 172 178 124 60 28 0 250 68 0 7 84 68 2 147 7 21 240 120 230 200 170 241 93 246 185
split_gain=3530.37 912.903 633.01 195.231 171.328 137.193 125.258 73.0939 62.4175 59.1599 57.1164 46.3473 38.8869 36.9287 33.357 27.9486 32.3434 34.23 26.8309 26.5 25.9007 25.0707 24.0251 24.4186 22.7529 21.8225 21.1683 20.5926 19.3851 23.8902 19.1925 18.1531 20.7312 18.0598 21.7653 18.0572 18.0116 17.8905 17.8564 17.7822 17.5053 17.3479 16.9484 16.7562 16.2982 16.1602 15.7233 16.3409 15.9074 15.4174 17.8815 14.7198 14.6944 14.7599 14.4322 14.0678 14.0638 14.0542 13.8139 13.7877 16.3666 18.3178 13.5825 13.4424 17.0647 14.0834 13.3019 13.2815 13.1768 12.6821 12.574 12.4172 12.3358 12.1882 12.1708 11.945 15.7769 11.4189 12.9486 11.3704 11.2715 13.3925 11.1687 10.9653 11.4822 13.6348 10.7852 10.439 10.4057 10.3927 10.1102 12.1286 11.1958 10.0987 9.96198 10.5085 12.0002 11.2298 20.8261 10.1533 9.89207 10.7946 12.7194 9.79577 10.6882 9.66103 9.63241 9.31951 9.26836 10.3354 9.2175 10.7767 9.21511 9.17672 11.2964 9.08709 10.4592 9.08367 9.06652 11.821 12.7097 10.2174 9.02436 14.2478 10.9427 9.01767
threshold=0.11500245332717897 -35.185194840210549 -0.22114378958940503 0.17777491360902789 73.729774335487505 -0.15096829086542127 -151.98292252787266 0.074878465384244933 -0.044455057010054581 0.37036825716495519 -0.43752710521221155 -0.12024046480655669 -0.037961641326546662 -0.0066772587597370139 -0.0031112208962440486 0.46415442228317266 -0.090901482850313173 -1.4249999999999996 0.1481207758188248 5.1687075422183115 0.11903564631938936 0.38797429203987127 -0.0094169308431446535 -0.36528028547763819 0.10712805762887002 8.9394744407920346 11.248983169618166 0.050908930599689491 0.12081317976117135 1.0000000180025095e-35 0.027210298925638202 -0.054545342922210686 -0.018296003341674801 0.0061069838702678689 -0.067831195890903459 -0.087620489299297319 0.25996214151382452 9.3569458645000037 0.020614594221115116 0.023242373019456867 -0.057966336607933037 7.344587918423926 0.045066896826028831 0.02355042286217213 -0.035975880920886986 -0.12120090425014494 -0.040006382390856736 -0.0025423970073461528 0.33007077872753149 1.0000000180025095e-35 0.02703158184885979 151.41471590140728 -0.10946208238601683 -0.041272122412919991 0.061123348772525794 0.06365304067730905 0.061397954821586616 -0.0081472774036228639 -0.048503488302230828 0.014787106309086086 -0.06343394890427588 0.033321063965559013 11.58178958903301 -0.12623617798089978 -0.045149199664592736 0.28233292698860174 0.4760254174470902 173.19954662498836 0.0030320123769342904 1.0000000180025095e-35 0.089022018015384688 0.11903704702854158 0.11779137328267099 0.02658917382359505 -0.085490472614765153 1.0000000180025095e-35 1.5000000000000002 0.46005700528621679 0.15869852155447009 0.070495616644620909 -0.066682394593954072 -0.28041251003742212 -0.045773260295391076 0.093703914433717742 -0.021248258650302883 0.003553770482540131 -0.41737300157546992 -0.0096344947814941389 0.081590041518211379 -0.3473083078861236 0.01872051972895861 -0.069419097155332551 0.13534501940011981 -0.014332171529531477 -0.077005922794342027 -0.047291174530982964 -0.02141209319233894 0.1155405603349209 -0.0026341564953327175 -0.17918854206800458 -0.038771277293562882 0.013826305046677591 -0.043081581592559808 -0.08991175144910811 -0.17858447879552838 -0.0081094405613839609 91.097148343372069 0.041756214573979385 0.037548929452896125 201.57369469564654 3.8590530909029792 -0.025986840017139908 0.06990166008472444 -1.0249999999999997 0.071556486189365401 2.9994413529485628 -0.018829476088285443 0.093836456537246718 0.070442400872707381 -0.17665066570043561 0.054698370397090919 -0.04484154284000396 0.010809646919369699 0.023242373019456867 -0.011809222400188444 -0.018502637743949887
decision_type=2 2 2 2 2 2 2 2 2 2 2 2 2 2 2 2 2 2 2 2 2 2 2 2 2 2 2 2 2 2 2 2 2 2 2 2 2 2 2 2 2 2 2 2 2 2 2 2 2 2 2 2 2 2 2 2 2 2 2 2 2 2 2 2 2 2 2 2 2 2 2 2 2 2 2 2 2 2 2 2 2 2 2 2 2 2 2 2 2 2 2 2 2 2 2 2 2 2 2 2 2 2 2 2 2 2 2 2 2 2 2 2 2 2 2 2 2 2 2 2 2 2 2 2 2 2
left_child=1 6 3 7 8 25 18 9 36 27 22 19 20 43 38 16 17 -11 42 105 33 30 -5 44 -18 54 39 28 80 -30 -9 -27 63 34 -7 -34 100 -25 -8 52 110 68 -1 74 -24 -31 47 48 57 50 -42 55 -13 79 -4 -22 89 -23 -41 77 -61 -62 90 -33 65 -65 -17 -36 103 71 -32 106 -53 -43 -10 88 -77 78 -56 -54 -2 -82 -51 84 85 -21 -37 -45 -16 -29 -35 -92 -93 125 95 96 97 98 99 -74 -3 102 -102 -14 -105 -6 -55 -71 -75 -110 -15 -112 -98 114 -72 116 -57 -111 119 -63 -121 -120 123 124 -106 -89
right_child=2 4 5 10 11 12 14 21 13 15 -12 26 41 40 75 66 24 -19 -20 83 51 46 23 37 -26 31 -28 56 29 45 70 32 35 62 67 86 -38 -39 -40 58 49 73 -44 87 -46 -47 -48 -49 -50 82 -52 72 53 69 59 115 -58 -59 -60 60 61 118 -64 64 -66 -67 -68 -69 -70 107 113 -73 94 108 -76 76 -78 -79 -80 -81 81 -83 -84 -85 -86 -87 -88 93 -90 -91 91 92 -94 -95 -96 -97 112 -99 -100 -101 101 -103 -104 104 122 -107 -108 -109 109 117 111 -113 -114 -115 -116 -117 -118 -119 121 120 -122 -123 -124 -125 -126 -127
leaf_value=-0.01171623277756538 0.030273522716008694 0.0020254265601265743 0.013354856399233259 0.089604139089674545 0.00021282816435545934 0.046005255624231453 -0.0050788971810013708 0.055398621858950885 0.01123695149601058 0.036326806259617234 0.023961830265522482 0.0069099212888568936 0.0030867207495132521 0.00026941974340656067 -0.0093472132431191412 0.011705450944582026 0.019325191784621078 0.079336808933354874 -0.016263046998551436 0.011791776622696641 0.0061049168194160369 0.04658487402361941 0.084935157128515459 0.06329389225766098 0.048886587725777406 0.048039595465982576 0.0095070273237744651 0.0064199721092823171 0.054697497333414426 0.0071848643310986962 0.044533441150542252 0.022568831611475847 0.030654266297849293 0.0081567708866675942 0.015724889343001834 0.02234313083673467 0.032865625930089029 0.031840761688633 0.0027936641709658226 0.0052429341304885361 -0.0064846068471665951 0.026636476112169384 0.011360354210953534 -0.0029493205548859411 0.05847638844069683 0.037103725753392248 0.062026789259934545 0.026441361671880621 0.064148431007901893 0.00041579457908426051 0.015690149772828597 0.02441209054800467 0.0060666726040083455 -0.0072744493381274866 0.015837897396836262 0.0026109377880409127 0.03061608626526606 0.029055341889157024 0.02023465352699555 0.043905890486452832 0.03960543263625544 0.0092920747394787031 0.031976973095934849 0.034043348022450279 0.022027543125584713 0.061388267230147599 0.037111386162588911 0.038150203053350373 0.026137241270717721 0.0023586552908080576 0.028690132349238753 0.011710545105193627 0.034502956732812264 0.026536839074842802 -0.00099272124730802563 -0.0064722495807952515 -0.00965232966586968 0.031106939822792286 -0.0044302024645005746 0.026054092920681133 0.02542267968383052 0.0051381477159938996 -0.0034901411022495799 0.030195695326014044 0.01110555248702285 0.038165216688981977 0.0095365104250047482 0.0020247719376151533 -0.015896540118575699 0.020889289482120276 0.006324305623319865 0.016346979939415029 0.042518606922521025 0.023838121728115419 0.0069963961789202035 -0.00024504132243873981 0.024742447649613697 0.0037097127170124065 0.043031361190866757 0.0162423224471781 0.010344994179924998 -0.00024795460734838734 0.034605177121952435 -0.0012734240577297802 -0.007455151336442309 0.0076357277553322795 -0.00088027135246826417 -0.0024152365587428106 0.0036998369263080374 0.0070665916381224382 0.022548792814432533 -0.0020636231271184981 0.011049866493873713 0.013329359249322324 0.046762593711890413 0.020948797889802077 0.021533010148373277 0.023073127322740368 0.019361755082620703 0.018755944133504364 0.036868950891454866 0.041367085285069161 0.014466225344842319 0.010525162199352327 0.0058730822086873608 0.0099575912972968868
leaf_weight=11225.473253250122 137.92405486106873 219.70090389251709 832.80690383911133 97.873518943786621 614.96455860137939 122.8214693069458 5572.0482902526855 86.005007266998291 207.95083975791931 85.845933198928833 89.155613899230957 1250.8197114467621 1545.7093029022217 1492.1100633144379 4805.5646138191223 131.38188934326172 148.34289312362671 100.32057046890259 4126.6756846904755 103.76548075675964 1420.7584302425385 386.47808909416199 126.17932033538818 94.753753662109375 115.98590636253357 90.573668479919434 1090.682701587677 489.6119487285614 98.080190420150757 79.65233039855957 149.93647933006287 161.39888501167297 319.9147481918335 422.90622234344482 256.44721364974976 341.30129981040955 103.99534320831299 86.465460300445557 827.2113082408905 2390.9125435352325 5145.9122626781464 160.30080986022949 80.133476257324219 390.76881718635559 108.03588438034058 104.14481687545776 100.74139404296875 154.08432507514954 89.348234176635742 2121.2071104049683 92.548227071762085 278.22142195701599 608.49423599243164 749.08221936225891 312.29127335548401 213.19084405899048 95.589618682861328 162.38403582572937 164.21119809150696 93.838443517684937 137.34835743904114 265.22991180419922 108.26275753974915 85.778424501419067 84.299381971359253 104.38712096214294 84.75855278968811 88.917867660522461 85.35016942024231 9002.159698009491 897.80532217025757 166.94120669364929 89.327516317367554 91.500029563903809 9372.1640858650208 11984.518680095673 5781.799654006958 82.236540794372559 105.39700031280518 80.576442956924438 136.31313180923462 201.88596296310425 13339.347906351089 101.77199506759644 1074.1671359539032 92.865277767181396 317.17602324485779 875.10120725631714 694.07715749740601 166.23447704315186 93.087242364883423 85.000465869903564 78.695878982543945 77.053653240203857 501.16789984703064 109.82652950286865 138.18364477157593 89.351483345031738 105.36301255226135 514.95452666282654 115.14101767539978 75.260430335998535 101.79282736778259 280.18527913093567 221.59402656555176 1526.2593750953674 2755.856972694397 1153.2955870628357 362.78744387626648 164.59818029403687 105.53408479690552 76.870223999023438 1109.2799091339111 85.170786142349243 95.681270599365234 322.20672869682312 111.08169198036194 192.05721378326416 112.01370620727539 611.44595813751221 115.07626008987427 99.703381299972534 586.58129596710205 1320.9095215797424 504.84738111495972 606.55093240737915
leaf_count=3164 34 58 216 20 164 30 1538 20 55 20 22 335 414 407 1341 33 37 24 1179 27 376 90 25 21 28 22 288 127 24 20 36 40 79 110 66 86 26 20 224 640 1426 40 21 106 23 26 23 38 20 577 24 71 164 205 80 56 24 39 42 23 34 68 27 21 21 25 20 22 22 2428 220 45 23 23 2555 3335 1615 21 27 21 34 51 3663 26 281 23 81 235 196 43 24 22 20 20 132 29 36 23 27 133 30 20 26 75 59 407 753 311 96 43 28 21 288 21 23 84 29 50 28 155 29 25 155 349 134 163
internal_value=-6.72502e-06 -0.00383424 0.018653 0.034214 0.000345754 0.013818 -0.00915877 0.0305462 -0.00187959 0.0240432 0.0609021 0.00369627 0.0110334 -0.00216616 -0.00725818 0.0364486 0.0435399 0.0595038 -0.0128122 0.00898035 0.0137309 0.0369563 0.0673182 0.0620677 0.0322966 0.0214933 0.00273984 0.0185644 0.0243791 0.0347711 0.0325647 0.0263393 0.0249496 0.0201498 0.0279275 0.020909 0.0138951 0.0482866 -0.00406124 0.00233701 -0.00335076 0.0079728 -0.0115527 0.000132595 0.0727306 0.0241378 0.0434211 0.0410553 0.0445836 -0.00374855 -0.00609284 0.0121192 0.00170996 0.0012619 0.0188581 0.00888723 0.0126989 0.0413987 0.00620641 0.0212272 0.023719 0.0223062 0.0155285 0.0340194 0.0407529 0.0490537 0.0216683 0.0214985 0.00667666 0.000905989 0.0309662 -0.00161228 0.0143951 0.0140384 -0.000727258 -0.0081375 -0.00750716 0.0140766 0.0107236 0.0084039 0.0182268 0.0133139 -0.00295424 0.0144037 0.013139 0.0242475 0.0161744 0.00435809 -0.0101738 0.0100874 0.0129085 0.0207344 0.0289288 0.00619006 0.0133464 0.0148222 0.0156308 0.020415 0.0225183 0.0189417 0.0100412 0.0160682 0.0217287 0.00630423 0.00801087 0.00550385 -0.00224685 0.00181651 0.0115481 0.00964185 0.00156645 0.0121764 0.0125666 0.0290803 0.0304307 0.0150019 0.00909282 0.015686 0.0203318 0.0183267 0.0216249 0.0297247 0.00899848 0.00743194 0.00180743 0.00527227
internal_weight=123577 102543 21033.9 4986.17 57445.8 16047.7 45097.5 4383.71 34519 2176.07 602.464 22926.8 11775.5 33903.1 29665.2 666.636 450.495 186.167 15432.3 3513.79 6259.05 2207.63 513.308 415.434 264.329 4272.22 19413 1509.44 758 281.877 1314.6 1504.83 1414.26 1256.14 468.187 978.392 615.891 181.219 6399.26 18322.3 22373.5 5516.42 11305.6 11529.6 234.215 183.797 893.036 792.295 638.21 20699 5238.46 5002.91 15767.2 14516.4 2767.39 2067.24 751.436 548.862 2555.12 1934.58 1434.66 1340.82 787.953 435.864 274.465 190.166 216.14 345.365 4545.18 13827.3 1228.59 3671.88 2935.68 971.244 9580.11 23266 17766.3 499.925 417.688 689.071 476.123 338.199 15460.6 1372.57 1270.8 196.631 658.477 1949.47 5499.64 655.846 679.69 256.784 163.696 1558.71 2657.45 2156.29 2046.46 798.997 709.645 604.282 511.895 292.194 216.934 4459.83 2914.12 2141.22 3504.94 10155.5 810.943 719.443 1674.51 182.404 1247.46 1078.66 993.487 646.479 324.273 356.655 1203.47 991.752 726.522 211.717 2633.93 2047.35 726.441 1481.65
internal_count=33588 28213 5375 1206 15600 4169 12613 1075 9440 545 131 6160 3088 9280 8249 162 109 44 4364 928 1628 530 109 89 65 1081 5232 383 189 70 320 375 353 321 118 246 160 41 1762 4944 6146 1460 3185 3134 48 46 210 187 149 5690 1450 1307 4262 3927 706 545 194 129 682 490 362 339 203 107 67 46 53 88 1208 3742 300 1003 762 252 2610 6487 4950 128 107 185 119 85 4240 357 331 50 167 524 1537 170 176 66 42 418 691 559 530 206 183 156 134 76 56 1186 772 571 958 2739 212 189 456 49 324 264 243 169 85 93 305 252 184 53 697 542 193 398
is_linear=0
shrinkage=0.05


Tree=4
num_leaves=127
num_cat=0
split_feature=245 0 173 115 0 214 0 214 247 233 210 81 205 103 11 7 245 164 173 7 248 81 113 167 3 4 201 234 190 254 177 7 173 15 38 14 83 71 256 164 4 240 93 237 33 125 138 0 52 0 131 180 231 53 131 189 87 170 45 0 4 7 0 58 153 159 189 32 47 59 3 191 41 145 263 175 59 163 119 0 257 173 96 0 77 240 6 212 110 73 84 254 62 36 141 146 226 116 35 149 225 120 111 20 189 195 210 124 48 133 189 226 151 130 0 254 154 49 87 241 197 122 3 68 249 47
split_gain=3305.46 879.328 561.649 165.397 162.559 125.53 122.698 59.6192 56.1781 52.6133 76.5219 44.1896 43.3779 40.3647 38.564 33.0656 32.5511 26.6134 26.5864 24.5787 23.4678 36.1669 22.9088 28.8686 22.8512 21.8769 22.7208 21.5928 34.7246 21.172 24.0194 19.9124 18.6715 21.668 20.384 18.6667 18.5292 18.2775 18.1616 17.6903 17.6561 17.3051 17.2553 17.087 16.8216 16.7413 16.3126 16.1678 16.0898 15.9458 20.0586 15.8682 15.1986 14.957 14.9315 14.7188 14.5869 14.2952 14.2131 13.7606 13.6691 12.9392 12.8628 12.8304 12.8009 12.7308 12.7087 12.424 12.1685 12.037 12.0078 11.8841 12.6821 11.6396 18.5512 12.125 12.1063 11.6294 11.3976 11.3962 11.1898 11.1044 12.3207 11.076 12.0663 11.0157 13.2458 10.8601 12.141 10.6309 10.544 10.7149 12.1293 10.2633 10.2392 10.1925 9.87545 9.81952 11.8455 9.79133 9.62318 11.5156 9.59815 9.43733 9.3367 9.24372 9.38061 9.19516 10.202 11.3463 12.6732 9.07515 9.09401 9.05937 8.83439 13.2761 8.83282 8.81041 8.77345 8.82583 8.7358 10.1277 9.84806 8.70481 8.68986 8.5508
threshold=0.11500245332717897 -35.185194840210549 -0.22114378958940503 0.13480937480926516 73.729774335487505 0.040886465460062034 -151.98292252787266 0.017621885985136036 -0.01198372896760702 -0.37395493686199183 -0.0035772762494161721 -0.14510638266801831 -0.12024046480655669 0.36484996974468237 0.37036825716495519 8.3576981074086998 0.045432470738887794 0.2639590203762055 0.1481207758188248 6.5031471228124635 -0.29600434005260462 -0.26910710334777826 -0.059045867994427674 0.053808951750397689 7.3660344275000007 1.0000000180025095e-35 0.10397649928927423 0.46415442228317266 -0.07223420217633246 0.044821847230196006 0.032059788703918464 11.97992830681836 -0.14468175172805783 -0.031569693237543099 0.14824751764535907 0.045093826949596412 -0.016006447374820706 -0.084484677761793123 0.059367576614022262 0.2523151189088822 1.0000000180025095e-35 0.12272605299949647 0.023242373019456867 -0.0016040802001953123 -0.039737492799758904 0.037696925923228271 0.045066896826028831 201.57369469564654 -0.027337267063558098 151.41471590140728 0.035408034920692451 0.066348794847726836 -0.15233153849840161 0.087339013814926161 -0.048503488302230828 -0.032872878015041344 0.13559480011463168 -0.12911571562290189 -0.11157130450010298 186.65826999469417 1.0000000180025095e-35 10.401031718750001 -82.918916815723023 -0.073986113071441637 0.034477090463042266 0.060957603156566627 -0.15542393177747724 -0.082688357681035982 -0.059566358104348176 -0.0063049765303730956 11.214612068500005 -0.021248258650302883 -0.06458235532045363 -0.022993930615484711 -0.10514557734131812 0.0044674347154796132 0.010239954106509687 0.11903704702854158 -0.049947027117013924 29.89382858823058 0.0020203888416290288 0.060671031475067146 0.063085023313760771 161.82673565623352 0.13149672001600268 0.18287285417318347 1.5000000000000002 0.052252173423767097 -0.083745412528514848 0.02453776448965073 0.099666286259889617 0.020936226472258571 0.011340785771608354 0.22454927861690524 -0.04644969850778579 0.068063408136367812 0.063847556710243239 -0.036445070058107369 -0.094100158661603914 -0.16218647360801694 -0.0052708808798342935 -0.0020118486136198039 0.024826891720294956 0.051028408110141761 0.18201694637537005 0.085334464907646193 -0.0049369740299880496 -0.075211089104413972 -0.0079624950885772688 0.033712686970829971 -0.072447940707206712 0.006620146334171296 -0.023495062254369255 -0.019791688770055767 293.68600523885897 0.029970304109156135 0.081794068217277541 0.02599925268441439 0.22206603735685351 -0.27041050791740412 -0.022991308942437168 -0.3350189328193664 5.0887352985000014 0.21354111284017566 -0.023387257009744641 -0.024506829679012295
decision_type=2 2 2 2 2 2 2 2 2 2 2 2 2 2 2 2 2 2 2 2 2 2 2 2 2 2 2 2 2 2 2 2 2 2 2 2 2 2 2 2 2 2 2 2 2 2 2 2 2 2 2 2 2 2 2 2 2 2 2 2 2 2 2 2 2 2 2 2 2 2 2 2 2 2 2 2 2 2 2 2 2 2 2 2 2 2 2 2 2 2 2 2 2 2 2 2 2 2 2 2 2 2 2 2 2 2 2 2 2 2 2 2 2 2 2 2 2 2 2 2 2 2 2 2 2 2
left_child=1 6 3 8 7 11 18 25 29 10 -5 32 19 38 39 41 36 40 46 111 21 -12 23 -17 -22 26 65 28 35 30 -2 42 33 34 78 -16 113 79 80 73 -11 45 51 102 52 -7 116 -35 68 61 100 58 56 -49 124 -53 -32 -31 -14 -58 77 107 81 -45 -61 104 105 -42 85 -67 -36 -21 -73 74 -10 -76 -75 -60 -4 -34 -9 -38 -83 95 90 86 93 -77 96 -40 91 92 -85 -25 103 -43 -89 -68 -99 -57 101 -51 -27 -82 -3 -47 -107 -13 -109 110 -110 112 -6 -8 -102 -116 -1 -64 -39 -120 122 -122 -97 -18 -44 -52
right_child=2 4 5 9 12 15 16 13 14 17 20 49 31 -15 27 22 123 -19 -20 71 24 -23 -24 48 -26 43 -28 -29 -30 57 44 -33 37 47 70 -37 62 118 89 -41 67 83 54 63 -46 66 -48 53 -50 50 125 55 -54 -55 -56 99 59 -59 60 64 -62 -63 117 -65 -66 69 97 -69 -70 -71 -72 72 -74 76 75 87 -78 -79 -80 -81 94 82 -84 84 -86 -87 -88 88 -90 -91 -92 -93 -94 -95 -96 120 -98 98 -100 -101 114 -103 -104 -105 -106 106 -108 108 109 -111 -112 -113 -114 -115 115 -117 -118 -119 119 -121 121 -123 -124 -125 -126 -127
leaf_value=-0.0097688973094233536 0.056369022058412155 -0.0056452913732913598 0.053395908696901077 0.097669071392133738 -6.3449555380359251e-05 0.031092639571101168 0.005446474817749119 -0.0032405157601638093 0.040218492600562192 0.062896788746117357 0.073160489820178615 0.00033316560754688852 0.0069142104553898756 0.037337078243007034 0.06190286213834495 0.012101225159242768 -0.0017780905479830797 0.019531611831079175 -0.016122595852972103 0.027085370745003307 0.055721791371825535 0.035563507536896521 0.044351154340622791 0.015235782066048437 0.029032636645939938 -0.0038036564886997229 0.022044527794176483 0.019156347784227531 0.01615945656570458 0.064580181072798393 0.050234470335562553 0.010072164524095916 -0.0016934094445516851 0.0073002227147863771 0.014862035726602017 0.036967672727210535 -0.0077804600160384253 0.026030324709925223 0.0066050884000959445 0.0093564921520168515 0.022776151004008871 0.029942817354114734 0.017996634665060726 0.010213872826951756 0.051967812263949212 0.013740968487025888 0.010951553781698743 0.033150571313543702 0.046052063258382986 0.010043550046089037 0.037948519061465569 0.0022254083556769843 0.0084556941631436545 0.015037154133216541 0.020353123162255085 -0.001556350957830026 0.020577660362606335 0.036173884397915267 -0.0023773379272253297 0.029299953825874414 0.0017947082757713317 0.022207159215166396 -0.0074879612743369564 -0.00069893153644393178 0.044376898780483592 0.016392403286116759 0.0056432480308395913 0.046296195370520564 0.036679042842040523 -0.0017059727776709917 0.033607973591534862 0.016064475031150965 0.0028980291983146432 0.030506658753420998 0.0071001692842272493 0.039038654567299713 0.0082563610466873782 0.011200459185413306 0.027105117167961136 0.01070257059377769 0.026247534311769374 -0.01120914892763706 0.0013316860304361184 0.023767951433018016 0.042396276458615809 0.0083469105488763948 0.038779835416328179 0.020313153322917509 0.014790223155822665 0.022950386648670478 0.011417569394348378 0.016911054092863323 0.044246768477338355 0.029118459770163131 0.0023228838558575133 0.037172341742663317 0.04346215139006207 0.027967926485531997 0.0054210927678554725 0.01698173238641509 0.0059797982126294849 0.033551863693699467 0.00021588764795318419 0.0037038286140566889 -0.016146251105795779 0.012403037268794655 0.032141865739624645 0.0042392220590325826 0.036452621607967341 0.0041820803097299261 0.010392702417101619 0.0084591888960540897 0.011811072301692649 -0.0052203451308962404 0.0071852298592740395 0.027908573673227428 -0.012671870114566199 -0.0033668387917128208 0.025079468961382106 0.0041639157123408935 0.027292499682998406 0.0083940094061919334 0.013860638968532867 0.012949332759377895 0.0043965188290805311 0.015371213641700696
leaf_weight=4242.9241466522217 96.676916599273682 6487.1855721473694 81.17591404914856 100.00135850906372 821.69714307785034 132.32739567756653 208.08739423751831 917.14437103271484 150.65853667259216 90.623020648956299 194.91833686828613 1106.8087978363037 1039.5837004184723 85.255134105682373 135.47459650039673 395.33729076385498 1915.3036501407623 165.68653559684753 4060.106085062027 167.58279848098755 147.73238897323608 95.210067272186279 147.4405632019043 283.28931975364685 175.44868659973145 9914.1006186008453 76.801977872848511 198.92868280410767 118.32523226737976 89.476004600524902 87.925280570983887 866.72668218612671 196.66443562507629 568.01403212547302 342.64435148239136 168.29312825202942 6158.7894704341888 283.13244318962097 281.53911304473877 427.07844233512878 93.476758480072021 129.62808203697205 123.75688600540161 276.80169248580933 86.591836452484131 672.7986204624176 81.049012899398804 141.42847752571106 109.33767986297607 144.81194090843201 84.424769878387451 604.33182048797607 82.619899749755859 586.96016454696655 171.52700901031494 85.936811208724976 335.85184931755066 87.70038890838623 3500.8130581378937 647.52458167076111 10186.308220148087 99.922561883926392 8871.8818137645721 9997.7896280288696 179.89727115631104 106.73997807502747 705.55388426780701 140.59662961959839 205.66327476501465 659.50815725326538 113.79730033874512 704.2642662525177 247.04898762702942 79.514349460601807 129.97411561012268 99.423936367034912 264.46529793739319 165.14142632484436 83.759540319442749 3240.7557113170624 88.102622032165527 5884.6782765388489 202.59202480316162 169.76280856132507 92.226849794387817 110.01870846748352 145.41944265365601 99.684513092041016 305.4052562713623 153.83117604255676 148.97852635383606 176.08873558044434 125.94816946983337 251.16907119750977 3345.9598095417023 80.64307165145874 85.66230320930481 125.00664877891541 109.08961701393127 416.15845441818237 1530.3938136100769 81.361907243728638 1746.8450000286102 98.13166332244873 218.8180136680603 95.347312927246094 163.24057221412659 1405.3018856048584 84.853783845901489 165.45251131057739 103.62850904464722 1404.3908407688141 200.5985906124115 4584.6481549739838 204.59482431411743 124.19924926757812 6851.7965145111084 1518.933563709259 84.153607606887817 125.89166975021362 84.417708873748779 442.46089839935303 103.38614344596863 105.88005256652832 2306.1827702522278 83.332340717315674
leaf_count=1210 22 1799 20 19 220 34 57 249 36 20 38 294 277 21 31 99 527 38 1179 41 32 20 36 70 39 2727 20 48 29 20 20 226 52 146 86 38 1730 73 74 108 21 32 33 75 20 169 21 35 26 38 21 162 20 148 43 23 80 20 959 152 2742 25 2485 2734 41 29 182 31 49 180 28 179 65 20 32 24 67 44 21 839 23 1659 57 42 22 27 35 24 76 40 37 44 31 60 906 20 20 32 28 109 400 21 476 26 61 24 40 371 22 43 27 370 53 1281 53 32 1954 424 22 33 21 112 26 29 614 21
internal_value=-8.52585e-06 -0.00375407 0.0178435 0.0322156 0.000336655 0.0132852 -0.00901471 -0.00183666 0.0272789 0.0484452 0.0571126 0.0102736 0.00359063 0.00322929 0.022124 0.0196892 -0.00713025 0.0358376 -0.0126573 0.00867722 0.0504998 0.0608225 0.0255447 0.0236965 0.0412328 -0.00269058 -0.00501221 0.0327372 0.0391377 0.0341639 0.0322538 0.00266417 0.0132582 0.0173028 0.0249795 0.0480883 -0.00758148 0.0112848 0.00263399 0.0181097 0.0441583 0.0169767 0.00231896 -0.0018916 0.0306124 0.0139056 -0.0113984 0.0136233 0.0278453 0.00692916 0.0101001 0.00170485 0.029226 0.0185542 0.0060956 0.00748195 0.0305976 0.0505194 0.00127562 0.0291133 0.00085246 0.00452034 -0.00817944 -0.000404936 0.032578 -0.00529031 0.01269 0.0369035 0.0258457 0.000815169 0.0195357 0.014808 0.0126452 0.021187 0.024263 0.0209251 0.0133997 -0.00176569 0.0400446 0.00999336 0.00168029 -0.00927732 -0.0107918 0.0209371 0.025521 0.0230251 0.0254003 0.0239697 0.0209168 0.0123804 0.0230139 0.0266756 0.0324902 0.02176 0.002958 0.0170488 0.031012 0.00858743 0.017461 0.0138088 0.00876203 0.0185002 -0.00320152 0.0143687 -0.00598794 0.0168291 0.0248637 0.00390371 0.00615008 0.0137372 0.0221247 0.00585043 0.00226661 -0.00475722 0.00757736 0.0150133 -0.0115617 -0.00688553 0.0202863 0.0125436 0.0146977 0.011422 0.024076 -0.00100659 0.00508917 0.0267334
internal_weight=123586 102153 21432.9 5160.85 57466.6 16272 44686.7 34454.6 3957.15 1203.69 713.311 11067.5 23012 4969.96 2262.89 5204.58 29450.8 490.383 15235.9 3545.58 613.309 290.128 1647.68 1500.23 323.181 29484.6 7549.05 621.022 422.093 1694.26 1517.09 19466.5 5848.38 1917.78 621.377 303.768 27429.6 3930.6 4884.71 1641.87 324.696 3556.91 18599.7 21935.5 1420.41 2003.36 11175.8 1296.4 1104.9 5219.09 2253.12 15998.3 1333.82 728.389 2601.47 1106.43 1251.2 177.176 14891.8 1163.27 13852.3 2965.97 22636.9 10274.6 827.422 7472.25 1871.04 234.073 995.56 766.248 456.442 1118.9 951.313 1214.79 870.809 720.15 343.98 3665.95 164.935 3437.42 4449.34 12246.1 6087.27 1553.54 713.005 789.897 679.878 590.176 490.752 435.37 620.778 471.8 295.711 534.458 3532.19 840.536 185.347 939.65 234.096 502.095 2085.36 226.174 11660.9 186.234 6706 931.387 258.588 2866.05 1759.24 353.935 188.482 2426.69 1022.3 4792.74 1859.19 328.794 11094.7 10390.8 493.178 210.045 710.908 526.879 184.029 2021.18 2429.94 167.757
internal_count=33588 28213 5375 1206 15600 4169 12613 9440 948 258 148 2871 6160 1339 553 1298 8249 110 4364 928 129 58 402 366 71 8101 2089 146 98 395 355 5232 1503 484 155 69 7693 1019 1318 407 72 896 5006 6012 333 509 3185 329 267 1368 586 4316 313 183 690 294 293 40 4022 273 3745 782 6355 2809 193 2069 475 52 241 209 114 285 244 299 212 176 87 1003 41 891 1204 3446 1716 387 176 192 165 144 120 114 154 117 73 130 955 211 44 242 60 132 544 59 3203 49 1860 233 64 757 463 92 49 643 273 1338 485 85 3164 2909 128 55 179 133 46 556 647 42
is_linear=0
shrinkage=0.05


Tree=5
num_leaves=127
num_cat=0
split_feature=245 0 173 115 0 0 189 186 247 233 210 7 248 176 215 100 7 128 214 197 173 145 164 169 33 226 4 45 81 66 36 153 256 89 192 6 129 109 235 156 7 116 10 3 162 7 62 213 202 138 7 173 4 255 0 175 180 52 68 141 45 217 1 256 109 211 43 205 62 4 45 87 0 258 214 7 210 145 19 6 188 11 195 166 261 2 52 153 0 124 255 18 52 6 206 6 221 159 155 255 237 28 252 33 63 128 165 141 125 6 261 45 45 257 88 83 52 13 0 68 123 245 4 194 157 227
split_gain=3097.25 846.867 500.069 140.556 138.133 134.676 114.324 54.622 49.0342 43.183 58.7477 40.6855 38.3248 34.792 31.8965 39.9455 31.354 29.86 27.627 26.4648 26.3417 26.218 22.836 22.4703 22.1645 20.8594 20.832 20.587 19.8688 19.8455 21.1201 19.1627 18.2735 18.0056 18.2617 17.8154 17.0927 16.6206 16.5459 19.5727 16.2223 16.083 16.0118 15.4668 15.4419 16.374 16.2845 15.4419 15.4413 15.4064 15.2483 14.9566 14.4697 14.4431 14.3822 14.3215 14.1534 19.0261 14.1288 13.984 13.7866 13.5806 13.2382 12.881 15.1502 15.213 12.7177 12.6878 13.4442 12.2278 11.5933 14.9395 11.5463 13.1417 11.4059 11.1475 14.9618 12.4448 11.0413 11.01 11.345 10.9794 15.9517 10.8852 10.8412 15.1672 10.7762 10.763 10.6822 12.3023 15.0455 14.3724 11.2857 10.5014 10.8232 10.4423 10.0155 9.999 9.95197 11.306 9.94078 13.5958 9.84936 10.9289 9.76381 9.73517 10.5618 9.72515 9.67619 9.57545 9.54308 9.52658 10.7177 9.45569 12.2553 9.43271 9.4653 9.02741 8.91686 10.4249 13.5095 13.2842 8.88678 8.88318 8.80682 8.75248
threshold=0.11500245332717897 -26.834626996415292 -0.22114378958940503 0.13480937480926516 73.729774335487505 -151.98292252787266 -0.14239604771137235 -0.044455057010054581 -0.01198372896760702 -0.37395493686199183 -0.0035772762494161721 11.248983169618166 -0.0031112208962440486 -0.58405548334121693 0.40083941817283636 -0.449966549873352 7.344587918423926 0.015143353492021562 0.011418916285037996 -0.022554244846105572 0.13338738679885867 -0.03082645125687122 0.2639590203762055 0.10645335540175439 0.029230414889752868 0.017797416076064113 1.0000000180025095e-35 -0.36528028547763819 0.057962097227573402 -0.0044844225049018851 0.0024612622801214461 -0.065379627048969255 0.16584716737270358 0.1659527122974396 -0.11050815880298613 1.5000000000000002 -0.063288059085607515 -0.076244432479143129 -0.32305872440338129 -0.28904482722282404 5.921171966015625 0.013569319620728494 -0.003151878714561462 7.3660344275000007 0.038042707368731506 6.5031471228124635 0.016781609505414966 0.037295408546924598 0.056373011320829398 0.045066896826028831 -0.17866219443071421 -0.19245549291372296 1.0000000180025095e-35 0.033169625326991088 -86.22780420133175 0.02703158184885979 0.084008932113647475 -0.017120546661317345 -0.31453005969524378 0.025563627481460575 -0.17517235130071637 -0.37108071148395533 -0.85833333333333317 -0.0015137791633605955 -0.099378753453493104 0.021402319893240932 -0.030938823707401749 -0.24114048480987546 -0.0371297039091587 1.0000000180025095e-35 -0.13065564632415769 0.02658917382359505 220.39860791851052 0.15869852155447009 0.013301778584718706 1.8313934835185715 -0.035539861768484109 -0.010359868872910736 -0.058067537844181054 1.5000000000000002 0.027373334392905239 0.016075164079666141 0.027676839381456379 -0.095728166401386247 -0.0018700741929933427 0.51666666666666683 -0.0025502026546746488 0.054598450660705573 130.57563453558149 -0.14545023441314694 0.039855211973190315 0.023967649787664417 -0.023560539819300171 1.5000000000000002 -0.051510455086827271 1.5000000000000002 -0.044141001999378197 0.097207754850387587 0.13505952060222629 0.059698153287172324 0.042963474988937385 0.0040549286641180524 0.024560540914535526 1.0000000180025095e-35 0.068006999790668501 0.011606458574533464 0.034872516989707954 0.045019401237368591 0.031243683770298961 1.5000000000000002 -0.017879255115985867 -0.15269891917705533 -0.18049603700637815 0.032321467995643623 0.010039091110229494 0.020805168896913532 -0.003514558775350451 -0.2960809171199798 201.57369469564654 0.19111707806587222 0.040748205035924918 0.15342050790786746 1.0000000180025095e-35 -0.072781134396791444 -0.032799873501062386 -0.024214465171098706
decision_type=2 2 2 2 2 2 2 2 2 2 2 2 2 2 2 2 2 2 2 2 2 2 2 2 2 2 2 2 2 2 2 2 2 2 2 2 2 2 2 2 2 2 2 2 2 2 2 2 2 2 2 2 2 2 2 2 2 2 2 2 2 2 2 2 2 2 2 2 2 2 2 2 2 2 2 2 2 2 2 2 2 2 2 2 2 2 2 2 2 2 2 2 2 2 2 2 2 2 2 2 2 2 2 2 2 2 2 2 2 2 2 2 2 2 2 2 2 2 2 2 2 2 2 2 2 2
left_child=1 5 3 8 7 20 23 40 33 10 -5 18 25 14 15 -10 19 26 31 60 49 29 52 41 -16 58 55 32 -26 -15 -31 113 -12 56 35 -35 88 -13 39 -17 -3 51 86 -29 53 46 66 67 70 -1 -21 110 -11 -25 95 100 -2 61 -7 75 -8 98 -53 -52 65 81 -46 68 -47 -33 72 -72 -18 -74 122 -28 -77 102 -37 -38 97 82 -65 -70 85 -66 -19 -54 92 91 -91 -90 -20 -73 -95 107 -79 -81 104 -100 -9 -102 -78 -104 125 106 -76 -14 -43 -22 -4 112 117 -6 -115 116 -27 -32 119 120 -64 -122 -56 -60 -44 -58
right_child=2 4 6 9 11 12 16 17 13 22 27 37 54 21 24 38 48 42 36 50 109 -23 -24 44 28 115 59 43 -30 30 111 69 -34 34 -36 78 79 -39 -40 -41 -42 108 124 -45 45 47 -48 -49 -50 -51 63 62 87 -55 74 -57 57 -59 123 -61 -62 -63 118 64 84 -67 -68 -69 83 -71 71 93 73 -75 105 76 77 96 -80 80 -82 -83 -84 -85 -86 -87 -88 -89 89 90 -92 -93 -94 94 -96 -97 -98 -99 99 -101 101 -103 103 -105 -106 -107 -108 -109 -110 -111 -112 -113 -114 114 -116 -117 -118 -119 -120 -121 121 -123 -124 -125 -126 -127
leaf_value=-0.011207434641027247 0.046506056820262195 0.0099313708358738199 0.03803628296663486 0.086270478147078528 0.00023740455406451389 0.017285524700912169 0.03529016085834194 -0.006019088937511889 0.063577434757252319 0.057549042487146464 0.041933316112619912 0.023335948055344603 -0.0082329525418966092 0.039236231335476449 0.040394039324320362 0.023532038554699375 0.012991974346599844 0.00071018094835410134 0.017643310738480938 0.0023009649910292937 -0.013306144767522879 0.0077451090879671683 0.018673579304985297 0.022087554909454826 0.003429485527807754 0.00020228020906896515 -0.002901222507820394 0.050048423477872472 0.030053273675000186 -0.00074378032825070124 0.036243694444976209 -0.001598865992766452 0.067567890973792719 0.023463240563773684 0.060653108520506441 0.034257191081238939 0.0020438247437388952 0.0090640608088652253 0.010928144457163693 0.054688795782594772 0.033174118949583331 0.01545132205390534 0.0067022945349351345 0.029248506222806055 0.027855695224822532 0.038023334829888629 0.0062562013207306619 0.045956400649819505 0.030718694555702294 0.010561836284014633 0.0052655650824190905 0.029504151963277749 0.047793947873190142 0.050286748123677311 -0.0092967631834697632 0.01169610840042716 0.039357017434069386 0.049184397720800521 0.0089969216086184141 0.0021041501335252516 0.013831264947881569 0.0094555789242227514 0.0057604638558243684 0.00032443631018281638 0.009512039124685524 0.00044438629294875581 0.013110614534176501 0.041355558192347666 0.02636717891104285 0.0019815931627641405 0.028615837461892942 0.006461589447855378 0.019128720270727186 0.039263375341662438 -0.0014229231007609421 0.01997186287271957 0.012718662834719422 0.011966383539948602 0.058337558384936643 0.0045611080108589963 0.018031649323534196 0.018280910517985204 0.021371346940870922 0.014305500957388926 0.0048379303409429178 0.029312753272408662 0.018268379191997634 0.026226324261589218 0.016772679131455175 0.01202485050558208 0.029887625686615311 0.0024276621284795847 0.0021135887367023528 3.741280117095064e-05 0.020378371053822789 -0.011128028171160105 -0.0022128162895756775 0.022637961328376595 0.048140572908730223 0.028907157009591324 -0.0033282504080905878 0.012208903649731517 -0.0021610908551841662 0.015336385002337763 0.0084579797010139492 -0.0051886198070066536 0.016525389139851975 0.0022602876745726314 -0.0055870661895236241 -0.017690421634689753 0.021366101346611238 0.011275542290748054 0.039991120635218855 0.010133814375764865 0.031721383969653148 0.020070820206136146 0.018408044740901776 0.018265470439606617 0.017737300910077039 0.0064935118361838656 0.005657596692042772 0.02600072843354816 -0.0061422329113112236 -0.005196178585960584 0.0243044091648765 0.02076809740281331
leaf_weight=9980.3032696247101 108.6418309211731 513.51189160346985 105.78130888938904 110.26128101348877 159.57444739341736 72.421114683151245 128.91007924079895 5688.4104120731354 119.33484745025635 96.505988597869873 119.82760095596313 240.83771371841431 8065.0445284843445 135.79852676391602 95.824644565582275 116.82894277572632 559.20959401130676 4013.3994827270508 135.38147640228271 1063.389431476593 2516.6793510913849 538.76706314086914 168.95447015762329 87.388701677322388 198.16870307922363 908.85320281982422 13188.591624975204 165.60340213775635 108.4133517742157 120.40446782112122 86.781450271606445 3234.9852743148804 165.58951234817505 161.51574373245239 92.416713237762451 97.315025329589844 3907.2544844150543 1333.5958836078644 86.695317029953003 88.659103870391846 87.925903558731079 94.338247537612915 204.55696105957031 194.16480541229248 316.97850513458252 113.75822138786316 271.8312087059021 86.175640106201172 142.21944499015808 81.941503286361694 1962.131019115448 157.3617205619812 95.01094388961792 94.52045726776123 2987.2842838764191 127.30875778198242 89.583003997802734 94.577131748199463 112.33899927139282 2153.4587965011597 178.47660064697266 113.7528874874115 220.66230082511902 234.55792236328125 2016.5221266746521 183.98607778549194 271.48214650154114 93.677065134048462 333.03094148635864 9070.951865196228 109.45811128616333 921.99462819099426 360.57157278060913 104.53618311882019 213.61731362342834 91.515551805496216 278.31096291542053 129.09135103225708 93.186197757720947 1721.6521992683411 195.98275423049927 1077.4718301296234 146.10196042060852 426.73054218292236 1439.3001916408539 101.58468651771545 89.332028388977051 147.87802982330322 242.7771143913269 751.61212205886841 139.81057548522949 621.86026525497437 861.08176183700562 82.439640998840332 316.31824040412903 3740.5381371974945 3532.8269400596619 80.055235147476196 90.448329925537109 492.21736097335815 760.42923426628113 172.7947199344635 458.79301166534424 110.79118633270264 103.64330196380615 562.60879635810852 132.99591255187988 227.02478742599487 129.92278027534485 2465.3852031230927 455.67340636253357 162.02828478813171 98.734370708465576 314.61759352684021 83.111335515975952 74.610103130340576 77.479382038116455 357.3522322177887 1117.0738985538483 553.91001892089844 106.60329723358154 324.61148905754089 8837.6791844367981 5910.9401664733887 108.88662624359131 216.02126693725586
leaf_count=2879 24 130 25 19 42 20 31 1588 27 20 24 60 2289 31 22 26 139 1088 35 278 739 135 38 21 48 246 3627 34 25 30 20 882 29 36 20 21 1044 344 21 20 22 24 54 42 76 26 66 20 34 21 515 38 20 22 846 33 20 21 31 586 45 27 56 61 521 47 67 22 78 2432 26 236 90 25 60 25 76 35 20 460 51 272 37 103 375 26 24 32 63 198 36 162 227 21 80 1067 972 21 20 112 209 47 125 30 24 157 37 64 33 725 111 39 23 82 21 20 21 86 276 139 27 80 2485 1646 29 50
internal_value=-1.01836e-05 -0.00367529 0.0170833 0.0303959 0.000547033 -0.00860217 0.0127798 -0.00159522 0.0258701 0.0449605 0.0525422 0.00348838 -0.00676417 0.021091 0.0294141 0.0392019 0.00989028 -0.00188377 0.00292075 0.0084262 -0.0125023 0.0165744 0.0336935 0.0187778 0.0194046 -0.00354135 -0.00251386 0.0467781 0.0128442 0.0215239 0.0186094 0.00145105 0.0568056 0.0321769 0.0408723 0.0356792 0.00510443 0.0112472 0.0292464 0.0369748 0.0133293 0.016185 0.00192466 0.0388228 0.0228188 0.0214955 0.0163777 0.0256752 0.014701 -0.0110302 0.00788788 0.0171377 0.0411705 0.0367399 -0.00769544 -0.00491504 0.0292244 0.0276601 -0.00466751 -0.00170129 0.0228306 0.0258189 0.0154695 0.00871745 0.0100201 0.0139926 0.0210532 0.0238682 0.0219928 0.00104036 0.0137729 0.0108648 0.0178333 0.0236541 -0.00652421 -0.00216194 -4.29481e-05 -0.000449099 0.0460364 0.0035876 0.00660704 0.0157021 0.0084025 0.0195926 0.00818636 0.0104617 0.00109249 0.0346629 0.00835846 0.0107048 0.0148264 0.00645553 0.00422349 0.00939365 0.0161731 -0.00893495 -0.00171297 0.00536432 0.0276955 0.0318928 -0.0052344 -0.000451408 0.00500933 0.00124239 0.0217196 -0.00112768 0.00546387 -0.00794566 0.003263 -0.0154757 0.0245069 0.0219152 0.0250908 0.0105195 0.0146449 0.00292907 0.0016324 0.0217783 0.0145188 0.011537 0.0158226 0.0209716 -0.00693915 -0.00493147 0.0128171 0.0262171
internal_weight=123594 101773 21821.6 5330.91 54805.1 46967.7 16490.7 31709.9 4067.11 1263.8 755.447 23095.1 31923.4 2313.79 813.925 411.518 11129.2 31108.5 21520.7 8532.43 15044.3 1499.87 508.349 5361.51 402.407 7156.64 26692.3 645.185 306.582 961.099 825.301 12863.2 285.417 1753.32 444.434 352.017 8657.47 1574.43 292.183 205.488 601.438 3265.94 4416.18 359.768 2095.57 1913.66 860.292 1053.37 2596.75 10062.2 8225.05 3041.68 339.395 181.909 24766.8 6748.94 1308.89 1200.24 6095.7 19943.4 307.387 1105.67 2480.22 7161.66 5199.52 1642.12 588.461 967.197 873.52 12305.9 2454.53 1430.21 1024.32 465.108 12734.2 17789.9 4601.33 4509.81 190.501 5904.94 1997.69 1458.13 380.66 759.761 3557.41 2118.11 4102.73 242.889 2752.52 1756.06 891.423 864.637 996.463 1320.75 398.758 12032.6 3661.92 1801.71 991.913 582.666 6621.63 933.224 847.895 569.584 409.248 909.222 346.613 8292.07 224.261 4982.06 561.455 704.896 542.868 557.303 397.729 1060.94 986.333 444.134 2322.86 1205.79 651.877 431.215 11825 6023.28 313.444 305.604
internal_count=33588 28213 5375 1206 14860 13353 4169 8700 948 258 148 6160 8989 553 189 94 2859 8548 5756 2208 4364 364 110 1310 95 1984 7353 129 73 229 198 3459 53 395 97 77 2297 404 67 46 152 809 1195 76 501 458 209 249 651 2900 2132 752 72 43 7005 1877 298 274 1697 5476 76 253 616 1854 1339 417 143 229 207 3314 617 363 254 115 3585 4890 1263 1238 41 1576 532 370 98 181 922 547 1112 52 721 459 234 225 262 337 101 3420 1007 481 226 132 1844 256 231 155 94 254 97 2353 57 1464 136 168 129 145 103 287 267 106 578 302 163 107 3331 1677 83 70
is_linear=0
shrinkage=0.05


Tree=6
num_leaves=127
num_cat=0
split_feature=245 0 173 57 0 0 214 214 256 205 103 81 145 159 3 245 66 173 129 2 15 34 7 4 201 109 66 83 255 176 7 34 106 38 256 73 237 226 0 180 59 241 41 0 138 207 222 147 93 118 7 158 160 1 7 189 177 253 121 169 251 139 87 27 0 7 104 58 40 7 182 173 96 96 32 48 183 17 138 221 150 18 1 4 262 246 14 185 2 138 132 47 119 141 16 6 7 96 68 145 0 140 106 127 113 96 182 189 232 179 131 226 191 256 210 83 257 244 258 28 111 179 100 117 244 125
split_gain=2904.32 815.791 447.388 151.363 146.251 117.5 72.5534 54.3462 47.3974 38.7325 35.7149 35.0596 34.925 30.8576 34.7416 30.7211 29.9238 26.1389 25.8205 24.2059 22.6944 25.2026 21.9044 20.1828 20.7885 19.2073 19.1527 17.7887 17.6748 17.5439 17.48 16.6027 18.507 16.2985 16.2693 17.0196 16.1981 15.7434 18.222 18.2704 15.583 15.5324 21.6496 16.0743 15.1131 14.5474 17.8016 17.228 14.2338 13.683 13.8267 18.5434 13.5367 14.8038 13.4085 13.1311 13.0179 12.6111 13.1344 12.5621 17.0931 12.3642 12.2628 12.9407 12.1844 12.1422 11.9462 11.8763 10.9198 14.2708 13.4983 10.8733 12.0615 10.8172 11.9044 11.5313 10.7594 13.1437 14.1394 16.2372 11.9827 13.3855 10.7548 10.2264 10.3487 10.216 10.1165 13.2869 9.99656 9.85735 9.85688 12.1826 10.9006 13.4691 10.6863 9.7851 9.94994 9.51413 9.41731 11.2476 11.3305 10.4263 9.36825 9.27917 10.0379 9.2706 9.22907 9.14113 9.13882 15.4061 9.77088 10.3081 9.10973 11.3049 9.0858 12.2837 9.04016 21.4616 9.00784 8.9645 8.86107 8.76687 8.75653 8.75274 8.6569 8.62991
